  { "nodeid": 0, "depth": 0, "split": "f19", "split_condition": 0.549293041, "yes": 1, "no": 2, "missing": 1 , "children": [
    { "nodeid": 1, "depth": 1, "split": "f17", "split_condition": -0.325978488, "yes": 3, "no": 4, "missing": 3 , "children": [
      { "nodeid": 3, "depth": 2, "split": "f9", "split_condition": 0.318386793, "yes": 7, "no": 8, "missing": 7 , "children": [
        { "nodeid": 7, "depth": 3, "split": "f16", "split_condition": -0.577679515, "yes": 15, "no": 16, "missing": 15 , "children": [
          { "nodeid": 15, "depth": 4, "split": "f15", "split_condition": 0.347680688, "yes": 31, "no": 32, "missing": 31 , "children": [
            { "nodeid": 31, "depth": 5, "split": "f19", "split_condition": 0.0199271739, "yes": 63, "no": 64, "missing": 63 , "children": [
              { "nodeid": 63, "depth": 6, "split": "f2", "split_condition": -0.400874078, "yes": 127, "no": 128, "missing": 127 , "children": [
                { "nodeid": 127, "depth": 7, "split": "f9", "split_condition": -0.882726669, "yes": 249, "no": 250, "missing": 249 , "children": [
                  { "nodeid": 249, "depth": 8, "split": "f6", "split_condition": 0.979270101, "yes": 473, "no": 474, "missing": 473 , "children": [
                    { "nodeid": 473, "depth": 9, "split": "f13", "split_condition": -0.832609415, "yes": 837, "no": 838, "missing": 837 , "children": [
                      { "nodeid": 837, "leaf": -13.3903704 }, 
                      { "nodeid": 838, "leaf": -29.2916012 }
                    ]}, 
                    { "nodeid": 474, "leaf": -4.56025887 }
                  ]}, 
                  { "nodeid": 250, "depth": 8, "split": "f5", "split_condition": 0.527670264, "yes": 475, "no": 476, "missing": 475 , "children": [
                    { "nodeid": 475, "depth": 9, "split": "f17", "split_condition": -0.886995614, "yes": 839, "no": 840, "missing": 839 , "children": [
                      { "nodeid": 839, "leaf": -21.5300465 }, 
                      { "nodeid": 840, "leaf": -11.893527 }
                    ]}, 
                    { "nodeid": 476, "depth": 9, "split": "f14", "split_condition": 0.0378904603, "yes": 841, "no": 842, "missing": 841 , "children": [
                      { "nodeid": 841, "leaf": -5.04452085 }, 
                      { "nodeid": 842, "leaf": -0.865980268 }
                    ]}
                  ]}
                ]}, 
                { "nodeid": 128, "depth": 7, "split": "f10", "split_condition": -1.01179934, "yes": 251, "no": 252, "missing": 251 , "children": [
                  { "nodeid": 251, "depth": 8, "split": "f6", "split_condition": 0.877224922, "yes": 477, "no": 478, "missing": 477 , "children": [
                    { "nodeid": 477, "leaf": -21.7154236 }, 
                    { "nodeid": 478, "leaf": -5.27997971 }
                  ]}, 
                  { "nodeid": 252, "depth": 8, "split": "f17", "split_condition": -0.820391119, "yes": 479, "no": 480, "missing": 479 , "children": [
                    { "nodeid": 479, "depth": 9, "split": "f8", "split_condition": -0.437847733, "yes": 843, "no": 844, "missing": 843 , "children": [
                      { "nodeid": 843, "leaf": -18.7330742 }, 
                      { "nodeid": 844, "leaf": -11.2112093 }
                    ]}, 
                    { "nodeid": 480, "depth": 9, "split": "f11", "split_condition": 0.538909018, "yes": 845, "no": 846, "missing": 845 , "children": [
                      { "nodeid": 845, "leaf": -8.69169235 }, 
                      { "nodeid": 846, "leaf": -0.812203884 }
                    ]}
                  ]}
                ]}
              ]}, 
              { "nodeid": 64, "depth": 6, "split": "f16", "split_condition": -1.36875963, "yes": 129, "no": 130, "missing": 129 , "children": [
                { "nodeid": 129, "depth": 7, "split": "f4", "split_condition": -1.98482692, "yes": 253, "no": 254, "missing": 253 , "children": [
                  { "nodeid": 253, "leaf": -1.08658946 }, 
                  { "nodeid": 254, "depth": 8, "split": "f10", "split_condition": 1.54987049, "yes": 481, "no": 482, "missing": 481 , "children": [
                    { "nodeid": 481, "depth": 9, "split": "f10", "split_condition": -1.9150877, "yes": 847, "no": 848, "missing": 847 , "children": [
                      { "nodeid": 847, "leaf": -1.67334235 }, 
                      { "nodeid": 848, "leaf": -16.6619473 }
                    ]}, 
                    { "nodeid": 482, "leaf": -4.14619446 }
                  ]}
                ]}, 
                { "nodeid": 130, "depth": 7, "split": "f10", "split_condition": -1.47261214, "yes": 255, "no": 256, "missing": 255 , "children": [
                  { "nodeid": 255, "depth": 8, "split": "f2", "split_condition": 0.909251869, "yes": 483, "no": 484, "missing": 483 , "children": [
                    { "nodeid": 483, "leaf": -18.2311535 }, 
                    { "nodeid": 484, "leaf": -4.66361761 }
                  ]}, 
                  { "nodeid": 256, "depth": 8, "split": "f9", "split_condition": -0.506757855, "yes": 485, "no": 486, "missing": 485 , "children": [
                    { "nodeid": 485, "depth": 9, "split": "f15", "split_condition": -0.0879065916, "yes": 849, "no": 850, "missing": 849 , "children": [
                      { "nodeid": 849, "leaf": -8.97169971 }, 
                      { "nodeid": 850, "leaf": -1.74802077 }
                    ]}, 
                    { "nodeid": 486, "depth": 9, "split": "f19", "split_condition": 0.128873736, "yes": 851, "no": 852, "missing": 851 , "children": [
                      { "nodeid": 851, "leaf": 2.87263513 }, 
                      { "nodeid": 852, "leaf": -3.38363266 }
                    ]}
                  ]}
                ]}
              ]}
            ]}, 
            { "nodeid": 32, "depth": 5, "split": "f18", "split_condition": 1.30840373, "yes": 65, "no": 66, "missing": 65 , "children": [
              { "nodeid": 65, "depth": 6, "split": "f2", "split_condition": 0.644809008, "yes": 131, "no": 132, "missing": 131 , "children": [
                { "nodeid": 131, "depth": 7, "split": "f5", "split_condition": -0.555407763, "yes": 257, "no": 258, "missing": 257 , "children": [
                  { "nodeid": 257, "depth": 8, "split": "f2", "split_condition": -0.488531679, "yes": 487, "no": 488, "missing": 487 , "children": [
                    { "nodeid": 487, "leaf": -19.7353134 }, 
                    { "nodeid": 488, "depth": 9, "split": "f18", "split_condition": 0.7098611, "yes": 853, "no": 854, "missing": 853 , "children": [
                      { "nodeid": 853, "leaf": -12.4357824 }, 
                      { "nodeid": 854, "leaf": -5.75950241 }
                    ]}
                  ]}, 
                  { "nodeid": 258, "depth": 8, "split": "f15", "split_condition": 1.18036258, "yes": 489, "no": 490, "missing": 489 , "children": [
                    { "nodeid": 489, "depth": 9, "split": "f9", "split_condition": -0.333428621, "yes": 855, "no": 856, "missing": 855 , "children": [
                      { "nodeid": 855, "leaf": -12.4463863 }, 
                      { "nodeid": 856, "leaf": -5.14129257 }
                    ]}, 
                    { "nodeid": 490, "depth": 9, "split": "f5", "split_condition": -0.360161036, "yes": 857, "no": 858, "missing": 857 , "children": [
                      { "nodeid": 857, "leaf": -10.4611044 }, 
                      { "nodeid": 858, "leaf": -1.62475038 }
                    ]}
                  ]}
                ]}, 
                { "nodeid": 132, "depth": 7, "split": "f12", "split_condition": -0.157788634, "yes": 259, "no": 260, "missing": 259 , "children": [
                  { "nodeid": 259, "depth": 8, "split": "f5", "split_condition": 0.715149999, "yes": 491, "no": 492, "missing": 491 , "children": [
                    { "nodeid": 491, "depth": 9, "split": "f18", "split_condition": 0.354015291, "yes": 859, "no": 860, "missing": 859 , "children": [
                      { "nodeid": 859, "leaf": -10.12778 }, 
                      { "nodeid": 860, "leaf": -2.3273499 }
                    ]}, 
                    { "nodeid": 492, "depth": 9, "split": "f4", "split_condition": 1.09268165, "yes": 861, "no": 862, "missing": 861 , "children": [
                      { "nodeid": 861, "leaf": -0.462749481 }, 
                      { "nodeid": 862, "leaf": 2.83843923 }
                    ]}
                  ]}, 
                  { "nodeid": 260, "depth": 8, "split": "f11", "split_condition": 0.391154259, "yes": 493, "no": 494, "missing": 493 , "children": [
                    { "nodeid": 493, "depth": 9, "split": "f5", "split_condition": -1.49472964, "yes": 863, "no": 864, "missing": 863 , "children": [
                      { "nodeid": 863, "leaf": -4.56579161 }, 
                      { "nodeid": 864, "leaf": 5.33218479 }
                    ]}, 
                    { "nodeid": 494, "depth": 9, "split": "f16", "split_condition": -1.01855481, "yes": 865, "no": 866, "missing": 865 , "children": [
                      { "nodeid": 865, "leaf": -0.632958233 }, 
                      { "nodeid": 866, "leaf": -5.97647095 }
                    ]}
                  ]}
                ]}
              ]}, 
              { "nodeid": 66, "depth": 6, "split": "f9", "split_condition": 0.0875710994, "yes": 133, "no": 134, "missing": 133 , "children": [
                { "nodeid": 133, "depth": 7, "split": "f18", "split_condition": 1.43359303, "yes": 261, "no": 262, "missing": 261 , "children": [
                  { "nodeid": 261, "leaf": 6.45039892 }, 
                  { "nodeid": 262, "depth": 8, "split": "f15", "split_condition": 0.468032956, "yes": 495, "no": 496, "missing": 495 , "children": [
                    { "nodeid": 495, "depth": 9, "split": "f6", "split_condition": 0.254773498, "yes": 867, "no": 868, "missing": 867 , "children": [
                      { "nodeid": 867, "leaf": -0.883181512 }, 
                      { "nodeid": 868, "leaf": 1.03148627 }
                    ]}, 
                    { "nodeid": 496, "depth": 9, "split": "f8", "split_condition": -0.437148452, "yes": 869, "no": 870, "missing": 869 , "children": [
                      { "nodeid": 869, "leaf": -0.509237707 }, 
                      { "nodeid": 870, "leaf": -3.29114842 }
                    ]}
                  ]}
                ]}, 
                { "nodeid": 134, "leaf": 8.13492107 }
              ]}
            ]}
          ]}, 
          { "nodeid": 16, "depth": 4, "split": "f2", "split_condition": 0.821347296, "yes": 33, "no": 34, "missing": 33 , "children": [
            { "nodeid": 33, "depth": 5, "split": "f9", "split_condition": -1.53995275, "yes": 67, "no": 68, "missing": 67 , "children": [
              { "nodeid": 67, "depth": 6, "split": "f10", "split_condition": 0.558071315, "yes": 135, "no": 136, "missing": 135 , "children": [
                { "nodeid": 135, "depth": 7, "split": "f16", "split_condition": 1.12302685, "yes": 263, "no": 264, "missing": 263 , "children": [
                  { "nodeid": 263, "depth": 8, "split": "f11", "split_condition": 2.00817561, "yes": 497, "no": 498, "missing": 497 , "children": [
                    { "nodeid": 497, "depth": 9, "split": "f4", "split_condition": -1.46850467, "yes": 871, "no": 872, "missing": 871 , "children": [
                      { "nodeid": 871, "leaf": -4.95650101 }, 
                      { "nodeid": 872, "leaf": -18.8206081 }
                    ]}, 
                    { "nodeid": 498, "depth": 9, "split": "f2", "split_condition": -0.186873034, "yes": 873, "no": 874, "missing": 873 , "children": [
                      { "nodeid": 873, "leaf": 1.36186123 }, 
                      { "nodeid": 874, "leaf": -2.5073669 }
                    ]}
                  ]}, 
                  { "nodeid": 264, "depth": 8, "split": "f18", "split_condition": -0.699319601, "yes": 499, "no": 500, "missing": 499 , "children": [
                    { "nodeid": 499, "depth": 9, "split": "f2", "split_condition": -0.709667683, "yes": 875, "no": 876, "missing": 875 , "children": [
                      { "nodeid": 875, "leaf": 0.254488081 }, 
                      { "nodeid": 876, "leaf": -3.26988339 }
                    ]}, 
                    { "nodeid": 500, "leaf": -9.62312698 }
                  ]}
                ]}, 
                { "nodeid": 136, "depth": 7, "split": "f9", "split_condition": -1.84329224, "yes": 265, "no": 266, "missing": 265 , "children": [
                  { "nodeid": 265, "depth": 8, "split": "f6", "split_condition": 1.0304693, "yes": 501, "no": 502, "missing": 501 , "children": [
                    { "nodeid": 501, "leaf": -12.3976889 }, 
                    { "nodeid": 502, "leaf": 2.35341954 }
                  ]}, 
                  { "nodeid": 266, "depth": 8, "split": "f8", "split_condition": 0.101367064, "yes": 503, "no": 504, "missing": 503 , "children": [
                    { "nodeid": 503, "leaf": -5.52950478 }, 
                    { "nodeid": 504, "depth": 9, "split": "f8", "split_condition": 0.46945253, "yes": 877, "no": 878, "missing": 877 , "children": [
                      { "nodeid": 877, "leaf": 5.58581161 }, 
                      { "nodeid": 878, "leaf": 0.272065669 }
                    ]}
                  ]}
                ]}
              ]}, 
              { "nodeid": 68, "depth": 6, "split": "f10", "split_condition": 0.236763358, "yes": 137, "no": 138, "missing": 137 , "children": [
                { "nodeid": 137, "depth": 7, "split": "f16", "split_condition": 0.840508342, "yes": 267, "no": 268, "missing": 267 , "children": [
                  { "nodeid": 267, "depth": 8, "split": "f19", "split_condition": -0.76434195, "yes": 505, "no": 506, "missing": 505 , "children": [
                    { "nodeid": 505, "depth": 9, "split": "f6", "split_condition": 1.10750842, "yes": 879, "no": 880, "missing": 879 , "children": [
                      { "nodeid": 879, "leaf": -15.2132816 }, 
                      { "nodeid": 880, "leaf": -1.67133141 }
                    ]}, 
                    { "nodeid": 506, "depth": 9, "split": "f14", "split_condition": -0.188273355, "yes": 881, "no": 882, "missing": 881 , "children": [
                      { "nodeid": 881, "leaf": -10.4706583 }, 
                      { "nodeid": 882, "leaf": -5.27554464 }
                    ]}
                  ]}, 
                  { "nodeid": 268, "depth": 8, "split": "f13", "split_condition": 0.0475657396, "yes": 507, "no": 508, "missing": 507 , "children": [
                    { "nodeid": 507, "depth": 9, "split": "f8", "split_condition": -0.0896587595, "yes": 883, "no": 884, "missing": 883 , "children": [
                      { "nodeid": 883, "leaf": -9.56454563 }, 
                      { "nodeid": 884, "leaf": -3.7008462 }
                    ]}, 
                    { "nodeid": 508, "depth": 9, "split": "f15", "split_condition": -0.512035608, "yes": 885, "no": 886, "missing": 885 , "children": [
                      { "nodeid": 885, "leaf": -4.23885775 }, 
                      { "nodeid": 886, "leaf": 2.52560592 }
                    ]}
                  ]}
                ]}, 
                { "nodeid": 138, "depth": 7, "split": "f15", "split_condition": 0.329368472, "yes": 269, "no": 270, "missing": 269 , "children": [
                  { "nodeid": 269, "depth": 8, "split": "f6", "split_condition": -0.290246665, "yes": 509, "no": 510, "missing": 509 , "children": [
                    { "nodeid": 509, "depth": 9, "split": "f17", "split_condition": -1.20077026, "yes": 887, "no": 888, "missing": 887 , "children": [
                      { "nodeid": 887, "leaf": -13.0780964 }, 
                      { "nodeid": 888, "leaf": -6.43968821 }
                    ]}, 
                    { "nodeid": 510, "depth": 9, "split": "f5", "split_condition": 1.04029226, "yes": 889, "no": 890, "missing": 889 , "children": [
                      { "nodeid": 889, "leaf": -4.14548588 }, 
                      { "nodeid": 890, "leaf": 2.91161156 }
                    ]}
                  ]}, 
                  { "nodeid": 270, "depth": 8, "split": "f19", "split_condition": -1.71529865, "yes": 511, "no": 512, "missing": 511 , "children": [
                    { "nodeid": 511, "depth": 9, "split": "f9", "split_condition": -0.860793471, "yes": 891, "no": 892, "missing": 891 , "children": [
                      { "nodeid": 891, "leaf": -0.84572506 }, 
                      { "nodeid": 892, "leaf": -10.6591368 }
                    ]}, 
                    { "nodeid": 512, "depth": 9, "split": "f6", "split_condition": 0.0774675459, "yes": 893, "no": 894, "missing": 893 , "children": [
                      { "nodeid": 893, "leaf": -0.936621606 }, 
                      { "nodeid": 894, "leaf": 4.01198244 }
                    ]}
                  ]}
                ]}
              ]}
            ]}, 
            { "nodeid": 34, "depth": 5, "split": "f8", "split_condition": 0.84573698, "yes": 69, "no": 70, "missing": 69 , "children": [
              { "nodeid": 69, "depth": 6, "split": "f6", "split_condition": 0.771366358, "yes": 139, "no": 140, "missing": 139 , "children": [
                { "nodeid": 139, "depth": 7, "split": "f15", "split_condition": 0.579321265, "yes": 271, "no": 272, "missing": 271 , "children": [
                  { "nodeid": 271, "depth": 8, "split": "f10", "split_condition": 0.960507929, "yes": 513, "no": 514, "missing": 513 , "children": [
                    { "nodeid": 513, "depth": 9, "split": "f14", "split_condition": 1.48776126, "yes": 895, "no": 896, "missing": 895 , "children": [
                      { "nodeid": 895, "leaf": -8.23644829 }, 
                      { "nodeid": 896, "leaf": 2.47638845 }
                    ]}, 
                    { "nodeid": 514, "depth": 9, "split": "f19", "split_condition": -0.0633846149, "yes": 897, "no": 898, "missing": 897 , "children": [
                      { "nodeid": 897, "leaf": -1.97417128 }, 
                      { "nodeid": 898, "leaf": 8.4495306 }
                    ]}
                  ]}, 
                  { "nodeid": 272, "depth": 8, "split": "f10", "split_condition": -0.546579719, "yes": 515, "no": 516, "missing": 515 , "children": [
                    { "nodeid": 515, "depth": 9, "split": "f2", "split_condition": 1.22071898, "yes": 899, "no": 900, "missing": 899 , "children": [
                      { "nodeid": 899, "leaf": -7.29711485 }, 
                      { "nodeid": 900, "leaf": -0.311021328 }
                    ]}, 
                    { "nodeid": 516, "depth": 9, "split": "f14", "split_condition": 0.337054551, "yes": 901, "no": 902, "missing": 901 , "children": [
                      { "nodeid": 901, "leaf": 2.04514623 }, 
                      { "nodeid": 902, "leaf": 8.90497112 }
                    ]}
                  ]}
                ]}, 
                { "nodeid": 140, "depth": 7, "split": "f12", "split_condition": -0.158196703, "yes": 273, "no": 274, "missing": 273 , "children": [
                  { "nodeid": 273, "depth": 8, "split": "f16", "split_condition": 0.0235850755, "yes": 517, "no": 518, "missing": 517 , "children": [
                    { "nodeid": 517, "leaf": 3.72077608 }, 
                    { "nodeid": 518, "depth": 9, "split": "f2", "split_condition": 1.30209494, "yes": 903, "no": 904, "missing": 903 , "children": [
                      { "nodeid": 903, "leaf": -6.32873535 }, 
                      { "nodeid": 904, "leaf": -1.32422519 }
                    ]}
                  ]}, 
                  { "nodeid": 274, "depth": 8, "split": "f8", "split_condition": -1.53832781, "yes": 519, "no": 520, "missing": 519 , "children": [
                    { "nodeid": 519, "depth": 9, "split": "f2", "split_condition": 1.26877487, "yes": 905, "no": 906, "missing": 905 , "children": [
                      { "nodeid": 905, "leaf": -0.127936557 }, 
                      { "nodeid": 906, "leaf": -5.09677124 }
                    ]}, 
                    { "nodeid": 520, "depth": 9, "split": "f10", "split_condition": 0.565544546, "yes": 907, "no": 908, "missing": 907 , "children": [
                      { "nodeid": 907, "leaf": 7.89053822 }, 
                      { "nodeid": 908, "leaf": 17.304821 }
                    ]}
                  ]}
                ]}
              ]}, 
              { "nodeid": 70, "depth": 6, "split": "f15", "split_condition": -0.750345588, "yes": 141, "no": 142, "missing": 141 , "children": [
                { "nodeid": 141, "depth": 7, "split": "f18", "split_condition": 0.409722358, "yes": 275, "no": 276, "missing": 275 , "children": [
                  { "nodeid": 275, "depth": 8, "split": "f4", "split_condition": -0.447639465, "yes": 521, "no": 522, "missing": 521 , "children": [
                    { "nodeid": 521, "leaf": 0.617419839 }, 
                    { "nodeid": 522, "leaf": -1.58025944 }
                  ]}, 
                  { "nodeid": 276, "leaf": -4.81579876 }
                ]}, 
                { "nodeid": 142, "depth": 7, "split": "f18", "split_condition": 0.427138627, "yes": 277, "no": 278, "missing": 277 , "children": [
                  { "nodeid": 277, "depth": 8, "split": "f8", "split_condition": 1.55676436, "yes": 523, "no": 524, "missing": 523 , "children": [
                    { "nodeid": 523, "depth": 9, "split": "f8", "split_condition": 1.2097199, "yes": 909, "no": 910, "missing": 909 , "children": [
                      { "nodeid": 909, "leaf": 1.56032133 }, 
                      { "nodeid": 910, "leaf": 5.41495609 }
                    ]}, 
                    { "nodeid": 524, "depth": 9, "split": "f2", "split_condition": 1.17879677, "yes": 911, "no": 912, "missing": 911 , "children": [
                      { "nodeid": 911, "leaf": -0.735383093 }, 
                      { "nodeid": 912, "leaf": -2.23166776 }
                    ]}
                  ]}, 
                  { "nodeid": 278, "depth": 8, "split": "f6", "split_condition": 0.175907493, "yes": 525, "no": 526, "missing": 525 , "children": [
                    { "nodeid": 525, "depth": 9, "split": "f6", "split_condition": -0.333476514, "yes": 913, "no": 914, "missing": 913 , "children": [
                      { "nodeid": 913, "leaf": 4.2191658 }, 
                      { "nodeid": 914, "leaf": 17.8683147 }
                    ]}, 
                    { "nodeid": 526, "depth": 9, "split": "f17", "split_condition": -1.00501359, "yes": 915, "no": 916, "missing": 915 , "children": [
                      { "nodeid": 915, "leaf": 1.96265125 }, 
                      { "nodeid": 916, "leaf": 9.52110672 }
                    ]}
                  ]}
                ]}
              ]}
            ]}
          ]}
        ]}, 
        { "nodeid": 8, "depth": 3, "split": "f10", "split_condition": 0.62245667, "yes": 17, "no": 18, "missing": 17 , "children": [
          { "nodeid": 17, "depth": 4, "split": "f9", "split_condition": 1.46373367, "yes": 35, "no": 36, "missing": 35 , "children": [
            { "nodeid": 35, "depth": 5, "split": "f18", "split_condition": -0.925294936, "yes": 71, "no": 72, "missing": 71 , "children": [
              { "nodeid": 71, "depth": 6, "split": "f17", "split_condition": -1.92868423, "yes": 143, "no": 144, "missing": 143 , "children": [
                { "nodeid": 143, "leaf": -26.8819866 }, 
                { "nodeid": 144, "depth": 7, "split": "f16", "split_condition": 1.06563306, "yes": 279, "no": 280, "missing": 279 , "children": [
                  { "nodeid": 279, "depth": 8, "split": "f15", "split_condition": 0.0276703872, "yes": 527, "no": 528, "missing": 527 , "children": [
                    { "nodeid": 527, "depth": 9, "split": "f2", "split_condition": -0.349450648, "yes": 917, "no": 918, "missing": 917 , "children": [
                      { "nodeid": 917, "leaf": -15.4557314 }, 
                      { "nodeid": 918, "leaf": -9.20050812 }
                    ]}, 
                    { "nodeid": 528, "depth": 9, "split": "f14", "split_condition": 0.912975252, "yes": 919, "no": 920, "missing": 919 , "children": [
                      { "nodeid": 919, "leaf": -7.64020872 }, 
                      { "nodeid": 920, "leaf": 0.865854263 }
                    ]}
                  ]}, 
                  { "nodeid": 280, "depth": 8, "split": "f6", "split_condition": -0.771013141, "yes": 529, "no": 530, "missing": 529 , "children": [
                    { "nodeid": 529, "leaf": -5.9278903 }, 
                    { "nodeid": 530, "depth": 9, "split": "f10", "split_condition": 0.132860839, "yes": 921, "no": 922, "missing": 921 , "children": [
                      { "nodeid": 921, "leaf": 0.994355679 }, 
                      { "nodeid": 922, "leaf": -1.78754926 }
                    ]}
                  ]}
                ]}
              ]}, 
              { "nodeid": 72, "depth": 6, "split": "f2", "split_condition": 0.24993366, "yes": 145, "no": 146, "missing": 145 , "children": [
                { "nodeid": 145, "depth": 7, "split": "f16", "split_condition": -0.391589701, "yes": 281, "no": 282, "missing": 281 , "children": [
                  { "nodeid": 281, "depth": 8, "split": "f17", "split_condition": -0.52945292, "yes": 531, "no": 532, "missing": 531 , "children": [
                    { "nodeid": 531, "depth": 9, "split": "f8", "split_condition": 0.308687568, "yes": 923, "no": 924, "missing": 923 , "children": [
                      { "nodeid": 923, "leaf": -12.4336586 }, 
                      { "nodeid": 924, "leaf": -5.82165384 }
                    ]}, 
                    { "nodeid": 532, "depth": 9, "split": "f2", "split_condition": -0.763238192, "yes": 925, "no": 926, "missing": 925 , "children": [
                      { "nodeid": 925, "leaf": -4.60078573 }, 
                      { "nodeid": 926, "leaf": 1.02595854 }
                    ]}
                  ]}, 
                  { "nodeid": 282, "depth": 8, "split": "f8", "split_condition": 1.5068419, "yes": 533, "no": 534, "missing": 533 , "children": [
                    { "nodeid": 533, "depth": 9, "split": "f19", "split_condition": -1.17645264, "yes": 927, "no": 928, "missing": 927 , "children": [
                      { "nodeid": 927, "leaf": -8.8112812 }, 
                      { "nodeid": 928, "leaf": -2.54045463 }
                    ]}, 
                    { "nodeid": 534, "depth": 9, "split": "f2", "split_condition": -1.98199606, "yes": 929, "no": 930, "missing": 929 , "children": [
                      { "nodeid": 929, "leaf": -2.46421671 }, 
                      { "nodeid": 930, "leaf": 7.23884058 }
                    ]}
                  ]}
                ]}, 
                { "nodeid": 146, "depth": 7, "split": "f15", "split_condition": -0.784817219, "yes": 283, "no": 284, "missing": 283 , "children": [
                  { "nodeid": 283, "depth": 8, "split": "f2", "split_condition": 0.812873065, "yes": 535, "no": 536, "missing": 535 , "children": [
                    { "nodeid": 535, "depth": 9, "split": "f12", "split_condition": 0.840001702, "yes": 931, "no": 932, "missing": 931 , "children": [
                      { "nodeid": 931, "leaf": -12.934207 }, 
                      { "nodeid": 932, "leaf": -4.17305326 }
                    ]}, 
                    { "nodeid": 536, "depth": 9, "split": "f5", "split_condition": -0.336337328, "yes": 933, "no": 934, "missing": 933 , "children": [
                      { "nodeid": 933, "leaf": -7.49362803 }, 
                      { "nodeid": 934, "leaf": 0.847717941 }
                    ]}
                  ]}, 
                  { "nodeid": 284, "depth": 8, "split": "f17", "split_condition": -0.728385448, "yes": 537, "no": 538, "missing": 537 , "children": [
                    { "nodeid": 537, "depth": 9, "split": "f4", "split_condition": -0.411414742, "yes": 935, "no": 936, "missing": 935 , "children": [
                      { "nodeid": 935, "leaf": -5.07674408 }, 
                      { "nodeid": 936, "leaf": 0.588833988 }
                    ]}, 
                    { "nodeid": 538, "depth": 9, "split": "f10", "split_condition": -0.0334472768, "yes": 937, "no": 938, "missing": 937 , "children": [
                      { "nodeid": 937, "leaf": 2.10629654 }, 
                      { "nodeid": 938, "leaf": 8.60228348 }
                    ]}
                  ]}
                ]}
              ]}
            ]}, 
            { "nodeid": 36, "depth": 5, "split": "f15", "split_condition": -0.99795562, "yes": 73, "no": 74, "missing": 73 , "children": [
              { "nodeid": 73, "depth": 6, "split": "f2", "split_condition": 1.21423602, "yes": 147, "no": 148, "missing": 147 , "children": [
                { "nodeid": 147, "depth": 7, "split": "f11", "split_condition": 0.833896637, "yes": 285, "no": 286, "missing": 285 , "children": [
                  { "nodeid": 285, "depth": 8, "split": "f15", "split_condition": -1.02541649, "yes": 539, "no": 540, "missing": 539 , "children": [
                    { "nodeid": 539, "leaf": -6.68832636 }, 
                    { "nodeid": 540, "leaf": -0.984362781 }
                  ]}, 
                  { "nodeid": 286, "leaf": -13.1028109 }
                ]}, 
                { "nodeid": 148, "depth": 7, "split": "f2", "split_condition": 1.91516888, "yes": 287, "no": 288, "missing": 287 , "children": [
                  { "nodeid": 287, "leaf": -0.938739896 }, 
                  { "nodeid": 288, "leaf": 4.00420856 }
                ]}
              ]}, 
              { "nodeid": 74, "depth": 6, "split": "f16", "split_condition": -0.0922349915, "yes": 149, "no": 150, "missing": 149 , "children": [
                { "nodeid": 149, "depth": 7, "split": "f6", "split_condition": -0.628432989, "yes": 289, "no": 290, "missing": 289 , "children": [
                  { "nodeid": 289, "depth": 8, "split": "f16", "split_condition": -0.637793064, "yes": 541, "no": 542, "missing": 541 , "children": [
                    { "nodeid": 541, "depth": 9, "split": "f17", "split_condition": -1.40783691, "yes": 939, "no": 940, "missing": 939 , "children": [
                      { "nodeid": 939, "leaf": -1.80891359 }, 
                      { "nodeid": 940, "leaf": -10.6629982 }
                    ]}, 
                    { "nodeid": 542, "depth": 9, "split": "f2", "split_condition": 0.729772806, "yes": 941, "no": 942, "missing": 941 , "children": [
                      { "nodeid": 941, "leaf": -1.91128945 }, 
                      { "nodeid": 942, "leaf": 6.07115889 }
                    ]}
                  ]}, 
                  { "nodeid": 290, "depth": 8, "split": "f19", "split_condition": -0.0855306759, "yes": 543, "no": 544, "missing": 543 , "children": [
                    { "nodeid": 543, "depth": 9, "split": "f2", "split_condition": -1.59791541, "yes": 943, "no": 944, "missing": 943 , "children": [
                      { "nodeid": 943, "leaf": -0.56907922 }, 
                      { "nodeid": 944, "leaf": 6.88060904 }
                    ]}, 
                    { "nodeid": 544, "depth": 9, "split": "f12", "split_condition": -0.265974939, "yes": 945, "no": 946, "missing": 945 , "children": [
                      { "nodeid": 945, "leaf": -2.35455298 }, 
                      { "nodeid": 946, "leaf": 3.88403392 }
                    ]}
                  ]}
                ]}, 
                { "nodeid": 150, "depth": 7, "split": "f8", "split_condition": -1.40722895, "yes": 291, "no": 292, "missing": 291 , "children": [
                  { "nodeid": 291, "depth": 8, "split": "f6", "split_condition": -0.299293637, "yes": 545, "no": 546, "missing": 545 , "children": [
                    { "nodeid": 545, "leaf": -4.06618261 }, 
                    { "nodeid": 546, "depth": 9, "split": "f2", "split_condition": -0.0873446614, "yes": 947, "no": 948, "missing": 947 , "children": [
                      { "nodeid": 947, "leaf": -0.326401412 }, 
                      { "nodeid": 948, "leaf": 2.91244626 }
                    ]}
                  ]}, 
                  { "nodeid": 292, "depth": 8, "split": "f10", "split_condition": -1.75065494, "yes": 547, "no": 548, "missing": 547 , "children": [
                    { "nodeid": 547, "depth": 9, "split": "f2", "split_condition": -0.682201385, "yes": 949, "no": 950, "missing": 949 , "children": [
                      { "nodeid": 949, "leaf": -6.60616541 }, 
                      { "nodeid": 950, "leaf": 0.639378011 }
                    ]}, 
                    { "nodeid": 548, "depth": 9, "split": "f19", "split_condition": -1.06393743, "yes": 951, "no": 952, "missing": 951 , "children": [
                      { "nodeid": 951, "leaf": 0.178244919 }, 
                      { "nodeid": 952, "leaf": 10.6070852 }
                    ]}
                  ]}
                ]}
              ]}
            ]}
          ]}, 
          { "nodeid": 18, "depth": 4, "split": "f16", "split_condition": 0.0763085261, "yes": 37, "no": 38, "missing": 37 , "children": [
            { "nodeid": 37, "depth": 5, "split": "f15", "split_condition": 0.303714275, "yes": 75, "no": 76, "missing": 75 , "children": [
              { "nodeid": 75, "depth": 6, "split": "f9", "split_condition": 1.72041774, "yes": 151, "no": 152, "missing": 151 , "children": [
                { "nodeid": 151, "depth": 7, "split": "f10", "split_condition": 0.917826891, "yes": 293, "no": 294, "missing": 293 , "children": [
                  { "nodeid": 293, "depth": 8, "split": "f11", "split_condition": 0.519170046, "yes": 549, "no": 550, "missing": 549 , "children": [
                    { "nodeid": 549, "depth": 9, "split": "f16", "split_condition": -0.295244277, "yes": 953, "no": 954, "missing": 953 , "children": [
                      { "nodeid": 953, "leaf": -6.69406509 }, 
                      { "nodeid": 954, "leaf": -1.44035161 }
                    ]}, 
                    { "nodeid": 550, "leaf": -13.4102325 }
                  ]}, 
                  { "nodeid": 294, "depth": 8, "split": "f8", "split_condition": -0.58767128, "yes": 551, "no": 552, "missing": 551 , "children": [
                    { "nodeid": 551, "depth": 9, "split": "f13", "split_condition": -0.953133702, "yes": 955, "no": 956, "missing": 955 , "children": [
                      { "nodeid": 955, "leaf": 2.33994174 }, 
                      { "nodeid": 956, "leaf": -8.59269142 }
                    ]}, 
                    { "nodeid": 552, "depth": 9, "split": "f19", "split_condition": -0.890130162, "yes": 957, "no": 958, "missing": 957 , "children": [
                      { "nodeid": 957, "leaf": -5.97559357 }, 
                      { "nodeid": 958, "leaf": 2.32747293 }
                    ]}
                  ]}
                ]}, 
                { "nodeid": 152, "depth": 7, "split": "f17", "split_condition": -1.7459892, "yes": 295, "no": 296, "missing": 295 , "children": [
                  { "nodeid": 295, "leaf": -6.4302597 }, 
                  { "nodeid": 296, "depth": 8, "split": "f5", "split_condition": -0.401903033, "yes": 553, "no": 554, "missing": 553 , "children": [
                    { "nodeid": 553, "depth": 9, "split": "f5", "split_condition": -1.47018468, "yes": 959, "no": 960, "missing": 959 , "children": [
                      { "nodeid": 959, "leaf": -1.24403 }, 
                      { "nodeid": 960, "leaf": 2.62494779 }
                    ]}, 
                    { "nodeid": 554, "depth": 9, "split": "f2", "split_condition": 0.294647098, "yes": 961, "no": 962, "missing": 961 , "children": [
                      { "nodeid": 961, "leaf": 4.61792707 }, 
                      { "nodeid": 962, "leaf": 14.5225801 }
                    ]}
                  ]}
                ]}
              ]}, 
              { "nodeid": 76, "depth": 6, "split": "f14", "split_condition": 0.535331249, "yes": 153, "no": 154, "missing": 153 , "children": [
                { "nodeid": 153, "depth": 7, "split": "f9", "split_condition": 1.59660232, "yes": 297, "no": 298, "missing": 297 , "children": [
                  { "nodeid": 297, "depth": 8, "split": "f6", "split_condition": -0.0142612308, "yes": 555, "no": 556, "missing": 555 , "children": [
                    { "nodeid": 555, "depth": 9, "split": "f18", "split_condition": -0.653821826, "yes": 963, "no": 964, "missing": 963 , "children": [
                      { "nodeid": 963, "leaf": -5.91115189 }, 
                      { "nodeid": 964, "leaf": 0.0929052755 }
                    ]}, 
                    { "nodeid": 556, "depth": 9, "split": "f17", "split_condition": -0.759468794, "yes": 965, "no": 966, "missing": 965 , "children": [
                      { "nodeid": 965, "leaf": -2.03394771 }, 
                      { "nodeid": 966, "leaf": 4.57833815 }
                    ]}
                  ]}, 
                  { "nodeid": 298, "leaf": 10.2824631 }
                ]}, 
                { "nodeid": 154, "depth": 7, "split": "f11", "split_condition": -0.616276562, "yes": 299, "no": 300, "missing": 299 , "children": [
                  { "nodeid": 299, "depth": 8, "split": "f2", "split_condition": 0.45863688, "yes": 557, "no": 558, "missing": 557 , "children": [
                    { "nodeid": 557, "leaf": 2.36681628 }, 
                    { "nodeid": 558, "leaf": -2.07164383 }
                  ]}, 
                  { "nodeid": 300, "depth": 8, "split": "f13", "split_condition": -1.291749, "yes": 559, "no": 560, "missing": 559 , "children": [
                    { "nodeid": 559, "leaf": 3.87703586 }, 
                    { "nodeid": 560, "leaf": 13.7619352 }
                  ]}
                ]}
              ]}
            ]}, 
            { "nodeid": 38, "depth": 5, "split": "f19", "split_condition": -0.508962035, "yes": 77, "no": 78, "missing": 77 , "children": [
              { "nodeid": 77, "depth": 6, "split": "f6", "split_condition": 0.538344145, "yes": 155, "no": 156, "missing": 155 , "children": [
                { "nodeid": 155, "depth": 7, "split": "f19", "split_condition": -1.43077254, "yes": 301, "no": 302, "missing": 301 , "children": [
                  { "nodeid": 301, "depth": 8, "split": "f2", "split_condition": 0.554763317, "yes": 561, "no": 562, "missing": 561 , "children": [
                    { "nodeid": 561, "leaf": -14.9394855 }, 
                    { "nodeid": 562, "leaf": -4.54946566 }
                  ]}, 
                  { "nodeid": 302, "depth": 8, "split": "f13", "split_condition": 1.82985699, "yes": 563, "no": 564, "missing": 563 , "children": [
                    { "nodeid": 563, "depth": 9, "split": "f10", "split_condition": 1.2561028, "yes": 967, "no": 968, "missing": 967 , "children": [
                      { "nodeid": 967, "leaf": -0.766533256 }, 
                      { "nodeid": 968, "leaf": 3.69106793 }
                    ]}, 
                    { "nodeid": 564, "leaf": -7.84216166 }
                  ]}
                ]}, 
                { "nodeid": 156, "depth": 7, "split": "f12", "split_condition": -0.894905031, "yes": 303, "no": 304, "missing": 303 , "children": [
                  { "nodeid": 303, "depth": 8, "split": "f16", "split_condition": 0.920259118, "yes": 565, "no": 566, "missing": 565 , "children": [
                    { "nodeid": 565, "depth": 9, "split": "f5", "split_condition": 0.41917637, "yes": 969, "no": 970, "missing": 969 , "children": [
                      { "nodeid": 969, "leaf": 5.03396463 }, 
                      { "nodeid": 970, "leaf": 0.687267125 }
                    ]}, 
                    { "nodeid": 566, "leaf": -2.44106841 }
                  ]}, 
                  { "nodeid": 304, "depth": 8, "split": "f17", "split_condition": -0.87197113, "yes": 567, "no": 568, "missing": 567 , "children": [
                    { "nodeid": 567, "depth": 9, "split": "f2", "split_condition": 1.26240468, "yes": 971, "no": 972, "missing": 971 , "children": [
                      { "nodeid": 971, "leaf": 5.07334471 }, 
                      { "nodeid": 972, "leaf": 0.307767481 }
                    ]}, 
                    { "nodeid": 568, "leaf": 11.90903 }
                  ]}
                ]}
              ]}, 
              { "nodeid": 78, "depth": 6, "split": "f18", "split_condition": -0.17349726, "yes": 157, "no": 158, "missing": 157 , "children": [
                { "nodeid": 157, "depth": 7, "split": "f17", "split_condition": -1.50282884, "yes": 305, "no": 306, "missing": 305 , "children": [
                  { "nodeid": 305, "depth": 8, "split": "f6", "split_condition": -0.429025918, "yes": 569, "no": 570, "missing": 569 , "children": [
                    { "nodeid": 569, "leaf": -5.86462069 }, 
                    { "nodeid": 570, "depth": 9, "split": "f4", "split_condition": -0.84085691, "yes": 973, "no": 974, "missing": 973 , "children": [
                      { "nodeid": 973, "leaf": 0.0362127796 }, 
                      { "nodeid": 974, "leaf": -0.917929351 }
                    ]}
                  ]}, 
                  { "nodeid": 306, "depth": 8, "split": "f2", "split_condition": -1.36778212, "yes": 571, "no": 572, "missing": 571 , "children": [
                    { "nodeid": 571, "depth": 9, "split": "f2", "split_condition": -1.69059455, "yes": 975, "no": 976, "missing": 975 , "children": [
                      { "nodeid": 975, "leaf": -1.96352232 }, 
                      { "nodeid": 976, "leaf": 1.44511676 }
                    ]}, 
                    { "nodeid": 572, "depth": 9, "split": "f4", "split_condition": 0.493318617, "yes": 977, "no": 978, "missing": 977 , "children": [
                      { "nodeid": 977, "leaf": 9.81188869 }, 
                      { "nodeid": 978, "leaf": 3.47691202 }
                    ]}
                  ]}
                ]}, 
                { "nodeid": 158, "depth": 7, "split": "f11", "split_condition": 0.464072764, "yes": 307, "no": 308, "missing": 307 , "children": [
                  { "nodeid": 307, "depth": 8, "split": "f6", "split_condition": 1.25680137, "yes": 573, "no": 574, "missing": 573 , "children": [
                    { "nodeid": 573, "depth": 9, "split": "f14", "split_condition": 1.22601569, "yes": 979, "no": 980, "missing": 979 , "children": [
                      { "nodeid": 979, "leaf": 18.5247269 }, 
                      { "nodeid": 980, "leaf": 4.97897768 }
                    ]}, 
                    { "nodeid": 574, "depth": 9, "split": "f2", "split_condition": -0.218614697, "yes": 981, "no": 982, "missing": 981 , "children": [
                      { "nodeid": 981, "leaf": -0.463424414 }, 
                      { "nodeid": 982, "leaf": 5.93772459 }
                    ]}
                  ]}, 
                  { "nodeid": 308, "depth": 8, "split": "f8", "split_condition": -1.4022125, "yes": 575, "no": 576, "missing": 575 , "children": [
                    { "nodeid": 575, "leaf": 13.7339544 }, 
                    { "nodeid": 576, "depth": 9, "split": "f5", "split_condition": -0.880106926, "yes": 983, "no": 984, "missing": 983 , "children": [
                      { "nodeid": 983, "leaf": 0.04185028 }, 
                      { "nodeid": 984, "leaf": 5.37105131 }
                    ]}
                  ]}
                ]}
              ]}
            ]}
          ]}
        ]}
      ]}, 
      { "nodeid": 4, "depth": 2, "split": "f9", "split_condition": -0.44024086, "yes": 9, "no": 10, "missing": 9 , "children": [
        { "nodeid": 9, "depth": 3, "split": "f15", "split_condition": -0.879071534, "yes": 19, "no": 20, "missing": 19 , "children": [
          { "nodeid": 19, "depth": 4, "split": "f16", "split_condition": 0.562250674, "yes": 39, "no": 40, "missing": 39 , "children": [
            { "nodeid": 39, "depth": 5, "split": "f6", "split_condition": -0.343703449, "yes": 79, "no": 80, "missing": 79 , "children": [
              { "nodeid": 79, "depth": 6, "split": "f5", "split_condition": 0.665566564, "yes": 159, "no": 160, "missing": 159 , "children": [
                { "nodeid": 159, "depth": 7, "split": "f18", "split_condition": 0.680545568, "yes": 309, "no": 310, "missing": 309 , "children": [
                  { "nodeid": 309, "depth": 8, "split": "f2", "split_condition": -0.214102879, "yes": 577, "no": 578, "missing": 577 , "children": [
                    { "nodeid": 577, "depth": 9, "split": "f14", "split_condition": 0.82086277, "yes": 985, "no": 986, "missing": 985 , "children": [
                      { "nodeid": 985, "leaf": -23.7189674 }, 
                      { "nodeid": 986, "leaf": -6.80358458 }
                    ]}, 
                    { "nodeid": 578, "depth": 9, "split": "f8", "split_condition": 0.989738345, "yes": 987, "no": 988, "missing": 987 , "children": [
                      { "nodeid": 987, "leaf": -15.5852938 }, 
                      { "nodeid": 988, "leaf": -5.21091795 }
                    ]}
                  ]}, 
                  { "nodeid": 310, "depth": 8, "split": "f9", "split_condition": -0.874833226, "yes": 579, "no": 580, "missing": 579 , "children": [
                    { "nodeid": 579, "leaf": -10.268754 }, 
                    { "nodeid": 580, "depth": 9, "split": "f2", "split_condition": 0.140404373, "yes": 989, "no": 990, "missing": 989 , "children": [
                      { "nodeid": 989, "leaf": -1.03801882 }, 
                      { "nodeid": 990, "leaf": -0.275595754 }
                    ]}
                  ]}
                ]}, 
                { "nodeid": 160, "depth": 7, "split": "f17", "split_condition": -0.0324890539, "yes": 311, "no": 312, "missing": 311 , "children": [
                  { "nodeid": 311, "leaf": -11.8473768 }, 
                  { "nodeid": 312, "depth": 8, "split": "f10", "split_condition": -0.0671401322, "yes": 581, "no": 582, "missing": 581 , "children": [
                    { "nodeid": 581, "leaf": -7.89602137 }, 
                    { "nodeid": 582, "depth": 9, "split": "f18", "split_condition": -0.529860735, "yes": 991, "no": 992, "missing": 991 , "children": [
                      { "nodeid": 991, "leaf": -1.64089143 }, 
                      { "nodeid": 992, "leaf": 2.43459249 }
                    ]}
                  ]}
                ]}
              ]}, 
              { "nodeid": 80, "depth": 6, "split": "f18", "split_condition": -0.394851893, "yes": 161, "no": 162, "missing": 161 , "children": [
                { "nodeid": 161, "depth": 7, "split": "f17", "split_condition": 2.09024048, "yes": 313, "no": 314, "missing": 313 , "children": [
                  { "nodeid": 313, "depth": 8, "split": "f19", "split_condition": -0.558544695, "yes": 583, "no": 584, "missing": 583 , "children": [
                    { "nodeid": 583, "depth": 9, "split": "f5", "split_condition": 0.564580798, "yes": 993, "no": 994, "missing": 993 , "children": [
                      { "nodeid": 993, "leaf": -19.0244045 }, 
                      { "nodeid": 994, "leaf": -7.64954472 }
                    ]}, 
                    { "nodeid": 584, "depth": 9, "split": "f4", "split_condition": -1.47390056, "yes": 995, "no": 996, "missing": 995 , "children": [
                      { "nodeid": 995, "leaf": -2.27225709 }, 
                      { "nodeid": 996, "leaf": -9.87680531 }
                    ]}
                  ]}, 
                  { "nodeid": 314, "depth": 8, "split": "f2", "split_condition": 0.0751188993, "yes": 585, "no": 586, "missing": 585 , "children": [
                    { "nodeid": 585, "leaf": -0.652211368 }, 
                    { "nodeid": 586, "leaf": 6.61443949 }
                  ]}
                ]}, 
                { "nodeid": 162, "depth": 7, "split": "f8", "split_condition": -0.463468134, "yes": 315, "no": 316, "missing": 315 , "children": [
                  { "nodeid": 315, "depth": 8, "split": "f12", "split_condition": 0.585324645, "yes": 587, "no": 588, "missing": 587 , "children": [
                    { "nodeid": 587, "depth": 9, "split": "f9", "split_condition": -0.687234521, "yes": 997, "no": 998, "missing": 997 , "children": [
                      { "nodeid": 997, "leaf": -12.18262 }, 
                      { "nodeid": 998, "leaf": -4.74378967 }
                    ]}, 
                    { "nodeid": 588, "depth": 9, "split": "f2", "split_condition": -0.269654214, "yes": 999, "no": 1000, "missing": 999 , "children": [
                      { "nodeid": 999, "leaf": 0.0755691528 }, 
                      { "nodeid": 1000, "leaf": -1.60860574 }
                    ]}
                  ]}, 
                  { "nodeid": 316, "depth": 8, "split": "f10", "split_condition": 0.235532224, "yes": 589, "no": 590, "missing": 589 , "children": [
                    { "nodeid": 589, "depth": 9, "split": "f19", "split_condition": -0.989085853, "yes": 1001, "no": 1002, "missing": 1001 , "children": [
                      { "nodeid": 1001, "leaf": -10.6386881 }, 
                      { "nodeid": 1002, "leaf": -4.54497862 }
                    ]}, 
                    { "nodeid": 590, "depth": 9, "split": "f19", "split_condition": 0.0823377296, "yes": 1003, "no": 1004, "missing": 1003 , "children": [
                      { "nodeid": 1003, "leaf": 1.79381275 }, 
                      { "nodeid": 1004, "leaf": -5.44552469 }
                    ]}
                  ]}
                ]}
              ]}
            ]}, 
            { "nodeid": 40, "depth": 5, "split": "f19", "split_condition": -0.995294213, "yes": 81, "no": 82, "missing": 81 , "children": [
              { "nodeid": 81, "depth": 6, "split": "f6", "split_condition": 0.262300014, "yes": 163, "no": 164, "missing": 163 , "children": [
                { "nodeid": 163, "depth": 7, "split": "f9", "split_condition": -0.747626364, "yes": 317, "no": 318, "missing": 317 , "children": [
                  { "nodeid": 317, "leaf": -20.0698681 }, 
                  { "nodeid": 318, "depth": 8, "split": "f9", "split_condition": -0.597412944, "yes": 591, "no": 592, "missing": 591 , "children": [
                    { "nodeid": 591, "leaf": -1.65855181 }, 
                    { "nodeid": 592, "leaf": -9.7210865 }
                  ]}
                ]}, 
                { "nodeid": 164, "depth": 7, "split": "f11", "split_condition": 0.31380251, "yes": 319, "no": 320, "missing": 319 , "children": [
                  { "nodeid": 319, "depth": 8, "split": "f2", "split_condition": 0.445858419, "yes": 593, "no": 594, "missing": 593 , "children": [
                    { "nodeid": 593, "depth": 9, "split": "f2", "split_condition": -0.78051424, "yes": 1005, "no": 1006, "missing": 1005 , "children": [
                      { "nodeid": 1005, "leaf": -1.8098253 }, 
                      { "nodeid": 1006, "leaf": -7.22757483 }
                    ]}, 
                    { "nodeid": 594, "leaf": -0.910745621 }
                  ]}, 
                  { "nodeid": 320, "depth": 8, "split": "f4", "split_condition": -0.213702172, "yes": 595, "no": 596, "missing": 595 , "children": [
                    { "nodeid": 595, "leaf": -0.466835022 }, 
                    { "nodeid": 596, "leaf": 2.26443577 }
                  ]}
                ]}
              ]}, 
              { "nodeid": 82, "depth": 6, "split": "f12", "split_condition": 0.212659806, "yes": 165, "no": 166, "missing": 165 , "children": [
                { "nodeid": 165, "depth": 7, "split": "f5", "split_condition": 0.166834578, "yes": 321, "no": 322, "missing": 321 , "children": [
                  { "nodeid": 321, "depth": 8, "split": "f10", "split_condition": 1.01246381, "yes": 597, "no": 598, "missing": 597 , "children": [
                    { "nodeid": 597, "depth": 9, "split": "f12", "split_condition": -0.505734503, "yes": 1007, "no": 1008, "missing": 1007 , "children": [
                      { "nodeid": 1007, "leaf": -6.00685215 }, 
                      { "nodeid": 1008, "leaf": -0.483407587 }
                    ]}, 
                    { "nodeid": 598, "leaf": 4.38950109 }
                  ]}, 
                  { "nodeid": 322, "depth": 8, "split": "f18", "split_condition": 0.770025849, "yes": 599, "no": 600, "missing": 599 , "children": [
                    { "nodeid": 599, "depth": 9, "split": "f6", "split_condition": 0.783248782, "yes": 1009, "no": 1010, "missing": 1009 , "children": [
                      { "nodeid": 1009, "leaf": 8.32246208 }, 
                      { "nodeid": 1010, "leaf": 1.98313141 }
                    ]}, 
                    { "nodeid": 600, "depth": 9, "split": "f4", "split_condition": 0.497014999, "yes": 1011, "no": 1012, "missing": 1011 , "children": [
                      { "nodeid": 1011, "leaf": 0.0165173057 }, 
                      { "nodeid": 1012, "leaf": -2.00741243 }
                    ]}
                  ]}
                ]}, 
                { "nodeid": 166, "depth": 7, "split": "f4", "split_condition": -0.865580916, "yes": 323, "no": 324, "missing": 323 , "children": [
                  { "nodeid": 323, "leaf": -9.7622757 }, 
                  { "nodeid": 324, "depth": 8, "split": "f8", "split_condition": 2.17867351, "yes": 601, "no": 602, "missing": 601 , "children": [
                    { "nodeid": 601, "depth": 9, "split": "f14", "split_condition": 1.46898603, "yes": 1013, "no": 1014, "missing": 1013 , "children": [
                      { "nodeid": 1013, "leaf": -4.46019936 }, 
                      { "nodeid": 1014, "leaf": 2.03892922 }
                    ]}, 
                    { "nodeid": 602, "leaf": 4.39059114 }
                  ]}
                ]}
              ]}
            ]}
          ]}, 
          { "nodeid": 20, "depth": 4, "split": "f10", "split_condition": -0.1207681, "yes": 41, "no": 42, "missing": 41 , "children": [
            { "nodeid": 41, "depth": 5, "split": "f2", "split_condition": -0.405144215, "yes": 83, "no": 84, "missing": 83 , "children": [
              { "nodeid": 83, "depth": 6, "split": "f17", "split_condition": 0.924159586, "yes": 167, "no": 168, "missing": 167 , "children": [
                { "nodeid": 167, "depth": 7, "split": "f15", "split_condition": 0.0667114407, "yes": 325, "no": 326, "missing": 325 , "children": [
                  { "nodeid": 325, "depth": 8, "split": "f16", "split_condition": -0.709644794, "yes": 603, "no": 604, "missing": 603 , "children": [
                    { "nodeid": 603, "depth": 9, "split": "f13", "split_condition": 0.146693915, "yes": 1015, "no": 1016, "missing": 1015 , "children": [
                      { "nodeid": 1015, "leaf": -23.0162296 }, 
                      { "nodeid": 1016, "leaf": -9.47854328 }
                    ]}, 
                    { "nodeid": 604, "depth": 9, "split": "f9", "split_condition": -0.991045356, "yes": 1017, "no": 1018, "missing": 1017 , "children": [
                      { "nodeid": 1017, "leaf": -13.5254078 }, 
                      { "nodeid": 1018, "leaf": -4.77457428 }
                    ]}
                  ]}, 
                  { "nodeid": 326, "depth": 8, "split": "f4", "split_condition": -0.0814853609, "yes": 605, "no": 606, "missing": 605 , "children": [
                    { "nodeid": 605, "depth": 9, "split": "f6", "split_condition": 0.58747685, "yes": 1019, "no": 1020, "missing": 1019 , "children": [
                      { "nodeid": 1019, "leaf": -11.9710655 }, 
                      { "nodeid": 1020, "leaf": -4.54742622 }
                    ]}, 
                    { "nodeid": 606, "depth": 9, "split": "f4", "split_condition": 0.0214116983, "yes": 1021, "no": 1022, "missing": 1021 , "children": [
                      { "nodeid": 1021, "leaf": 4.54862976 }, 
                      { "nodeid": 1022, "leaf": -5.97682714 }
                    ]}
                  ]}
                ]}, 
                { "nodeid": 168, "depth": 7, "split": "f18", "split_condition": 0.946842551, "yes": 327, "no": 328, "missing": 327 , "children": [
                  { "nodeid": 327, "depth": 8, "split": "f15", "split_condition": 0.466386378, "yes": 607, "no": 608, "missing": 607 , "children": [
                    { "nodeid": 607, "depth": 9, "split": "f16", "split_condition": 2.43866873, "yes": 1023, "no": 1024, "missing": 1023 , "children": [
                      { "nodeid": 1023, "leaf": -6.57756424 }, 
                      { "nodeid": 1024, "leaf": 1.14234829 }
                    ]}, 
                    { "nodeid": 608, "depth": 9, "split": "f4", "split_condition": 0.447774589, "yes": 1025, "no": 1026, "missing": 1025 , "children": [
                      { "nodeid": 1025, "leaf": -2.79597449 }, 
                      { "nodeid": 1026, "leaf": 3.40055466 }
                    ]}
                  ]}, 
                  { "nodeid": 328, "depth": 8, "split": "f8", "split_condition": -0.676320612, "yes": 609, "no": 610, "missing": 609 , "children": [
                    { "nodeid": 609, "depth": 9, "split": "f2", "split_condition": -0.736785114, "yes": 1027, "no": 1028, "missing": 1027 , "children": [
                      { "nodeid": 1027, "leaf": -7.60512638 }, 
                      { "nodeid": 1028, "leaf": -0.438812256 }
                    ]}, 
                    { "nodeid": 610, "depth": 9, "split": "f4", "split_condition": 0.83554697, "yes": 1029, "no": 1030, "missing": 1029 , "children": [
                      { "nodeid": 1029, "leaf": 11.2328854 }, 
                      { "nodeid": 1030, "leaf": 0.823549747 }
                    ]}
                  ]}
                ]}
              ]}, 
              { "nodeid": 84, "depth": 6, "split": "f9", "split_condition": -1.41723442, "yes": 169, "no": 170, "missing": 169 , "children": [
                { "nodeid": 169, "depth": 7, "split": "f6", "split_condition": -1.19578767, "yes": 329, "no": 330, "missing": 329 , "children": [
                  { "nodeid": 329, "leaf": -18.62747 }, 
                  { "nodeid": 330, "depth": 8, "split": "f17", "split_condition": 0.436450452, "yes": 611, "no": 612, "missing": 611 , "children": [
                    { "nodeid": 611, "depth": 9, "split": "f9", "split_condition": -1.468732, "yes": 1031, "no": 1032, "missing": 1031 , "children": [
                      { "nodeid": 1031, "leaf": -7.46744537 }, 
                      { "nodeid": 1032, "leaf": -16.9363708 }
                    ]}, 
                    { "nodeid": 612, "depth": 9, "split": "f6", "split_condition": 0.332813203, "yes": 1033, "no": 1034, "missing": 1033 , "children": [
                      { "nodeid": 1033, "leaf": -6.51609278 }, 
                      { "nodeid": 1034, "leaf": 1.39044988 }
                    ]}
                  ]}
                ]}, 
                { "nodeid": 170, "depth": 7, "split": "f19", "split_condition": -1.40793836, "yes": 331, "no": 332, "missing": 331 , "children": [
                  { "nodeid": 331, "depth": 8, "split": "f15", "split_condition": 1.23920369, "yes": 613, "no": 614, "missing": 613 , "children": [
                    { "nodeid": 613, "depth": 9, "split": "f16", "split_condition": 1.0847888, "yes": 1035, "no": 1036, "missing": 1035 , "children": [
                      { "nodeid": 1035, "leaf": -11.0000105 }, 
                      { "nodeid": 1036, "leaf": -1.41478646 }
                    ]}, 
                    { "nodeid": 614, "depth": 9, "split": "f2", "split_condition": 0.695456028, "yes": 1037, "no": 1038, "missing": 1037 , "children": [
                      { "nodeid": 1037, "leaf": 3.4252069 }, 
                      { "nodeid": 1038, "leaf": -1.90821195 }
                    ]}
                  ]}, 
                  { "nodeid": 332, "depth": 8, "split": "f18", "split_condition": -0.32089892, "yes": 615, "no": 616, "missing": 615 , "children": [
                    { "nodeid": 615, "depth": 9, "split": "f16", "split_condition": 0.204694897, "yes": 1039, "no": 1040, "missing": 1039 , "children": [
                      { "nodeid": 1039, "leaf": -5.26175404 }, 
                      { "nodeid": 1040, "leaf": -0.0302944537 }
                    ]}, 
                    { "nodeid": 616, "depth": 9, "split": "f17", "split_condition": 0.588846684, "yes": 1041, "no": 1042, "missing": 1041 , "children": [
                      { "nodeid": 1041, "leaf": -0.755956888 }, 
                      { "nodeid": 1042, "leaf": 3.73318934 }
                    ]}
                  ]}
                ]}
              ]}
            ]}, 
            { "nodeid": 42, "depth": 5, "split": "f16", "split_condition": 1.18758678, "yes": 85, "no": 86, "missing": 85 , "children": [
              { "nodeid": 85, "depth": 6, "split": "f6", "split_condition": 1.52223301, "yes": 171, "no": 172, "missing": 171 , "children": [
                { "nodeid": 171, "depth": 7, "split": "f4", "split_condition": 0.601548672, "yes": 333, "no": 334, "missing": 333 , "children": [
                  { "nodeid": 333, "depth": 8, "split": "f17", "split_condition": 0.827383518, "yes": 617, "no": 618, "missing": 617 , "children": [
                    { "nodeid": 617, "depth": 9, "split": "f19", "split_condition": -0.132967398, "yes": 1043, "no": 1044, "missing": 1043 , "children": [
                      { "nodeid": 1043, "leaf": -5.98408794 }, 
                      { "nodeid": 1044, "leaf": -0.921729505 }
                    ]}, 
                    { "nodeid": 618, "depth": 9, "split": "f18", "split_condition": 0.318639994, "yes": 1045, "no": 1046, "missing": 1045 , "children": [
                      { "nodeid": 1045, "leaf": -1.1631757 }, 
                      { "nodeid": 1046, "leaf": 3.53994536 }
                    ]}
                  ]}, 
                  { "nodeid": 334, "depth": 8, "split": "f6", "split_condition": -0.640849948, "yes": 619, "no": 620, "missing": 619 , "children": [
                    { "nodeid": 619, "depth": 9, "split": "f12", "split_condition": -0.333507121, "yes": 1047, "no": 1048, "missing": 1047 , "children": [
                      { "nodeid": 1047, "leaf": -9.42622852 }, 
                      { "nodeid": 1048, "leaf": 2.12243891 }
                    ]}, 
                    { "nodeid": 620, "depth": 9, "split": "f16", "split_condition": -0.27082628, "yes": 1049, "no": 1050, "missing": 1049 , "children": [
                      { "nodeid": 1049, "leaf": -0.531376302 }, 
                      { "nodeid": 1050, "leaf": 6.82982588 }
                    ]}
                  ]}
                ]}, 
                { "nodeid": 172, "depth": 7, "split": "f13", "split_condition": 1.44427121, "yes": 335, "no": 336, "missing": 335 , "children": [
                  { "nodeid": 335, "depth": 8, "split": "f2", "split_condition": -0.876305819, "yes": 621, "no": 622, "missing": 621 , "children": [
                    { "nodeid": 621, "depth": 9, "split": "f2", "split_condition": -1.10952616, "yes": 1051, "no": 1052, "missing": 1051 , "children": [
                      { "nodeid": 1051, "leaf": 0.281105042 }, 
                      { "nodeid": 1052, "leaf": -0.885339379 }
                    ]}, 
                    { "nodeid": 622, "depth": 9, "split": "f6", "split_condition": 2.5747838, "yes": 1053, "no": 1054, "missing": 1053 , "children": [
                      { "nodeid": 1053, "leaf": 11.5958815 }, 
                      { "nodeid": 1054, "leaf": 1.39340532 }
                    ]}
                  ]}, 
                  { "nodeid": 336, "depth": 8, "split": "f5", "split_condition": 0.344266415, "yes": 623, "no": 624, "missing": 623 , "children": [
                    { "nodeid": 623, "leaf": -3.30600166 }, 
                    { "nodeid": 624, "leaf": 4.29210806 }
                  ]}
                ]}
              ]}, 
              { "nodeid": 86, "depth": 6, "split": "f6", "split_condition": 0.193237692, "yes": 173, "no": 174, "missing": 173 , "children": [
                { "nodeid": 173, "depth": 7, "split": "f18", "split_condition": 1.35021007, "yes": 337, "no": 338, "missing": 337 , "children": [
                  { "nodeid": 337, "depth": 8, "split": "f18", "split_condition": -1.24976707, "yes": 625, "no": 626, "missing": 625 , "children": [
                    { "nodeid": 625, "depth": 9, "split": "f2", "split_condition": 0.228642851, "yes": 1055, "no": 1056, "missing": 1055 , "children": [
                      { "nodeid": 1055, "leaf": -13.5880375 }, 
                      { "nodeid": 1056, "leaf": -0.903262794 }
                    ]}, 
                    { "nodeid": 626, "depth": 9, "split": "f14", "split_condition": 0.428578913, "yes": 1057, "no": 1058, "missing": 1057 , "children": [
                      { "nodeid": 1057, "leaf": 1.59091103 }, 
                      { "nodeid": 1058, "leaf": -4.32635832 }
                    ]}
                  ]}, 
                  { "nodeid": 338, "depth": 8, "split": "f5", "split_condition": -1.04624009, "yes": 627, "no": 628, "missing": 627 , "children": [
                    { "nodeid": 627, "leaf": 3.1927762 }, 
                    { "nodeid": 628, "leaf": 14.1751528 }
                  ]}
                ]}, 
                { "nodeid": 174, "depth": 7, "split": "f2", "split_condition": -0.0857135132, "yes": 339, "no": 340, "missing": 339 , "children": [
                  { "nodeid": 339, "depth": 8, "split": "f18", "split_condition": 0.646165848, "yes": 629, "no": 630, "missing": 629 , "children": [
                    { "nodeid": 629, "depth": 9, "split": "f2", "split_condition": -1.17408633, "yes": 1059, "no": 1060, "missing": 1059 , "children": [
                      { "nodeid": 1059, "leaf": -6.96910572 }, 
                      { "nodeid": 1060, "leaf": 1.3592695 }
                    ]}, 
                    { "nodeid": 630, "depth": 9, "split": "f14", "split_condition": -0.802375555, "yes": 1061, "no": 1062, "missing": 1061 , "children": [
                      { "nodeid": 1061, "leaf": 1.94240248 }, 
                      { "nodeid": 1062, "leaf": 9.72903347 }
                    ]}
                  ]}, 
                  { "nodeid": 340, "depth": 8, "split": "f8", "split_condition": -1.23530126, "yes": 631, "no": 632, "missing": 631 , "children": [
                    { "nodeid": 631, "leaf": -1.75405884 }, 
                    { "nodeid": 632, "depth": 9, "split": "f12", "split_condition": -1.26919913, "yes": 1063, "no": 1064, "missing": 1063 , "children": [
                      { "nodeid": 1063, "leaf": 2.48719883 }, 
                      { "nodeid": 1064, "leaf": 16.5460796 }
                    ]}
                  ]}
                ]}
              ]}
            ]}
          ]}
        ]}, 
        { "nodeid": 10, "depth": 3, "split": "f15", "split_condition": -0.210326701, "yes": 21, "no": 22, "missing": 21 , "children": [
          { "nodeid": 21, "depth": 4, "split": "f6", "split_condition": -0.207656026, "yes": 43, "no": 44, "missing": 43 , "children": [
            { "nodeid": 43, "depth": 5, "split": "f14", "split_condition": -0.0706904531, "yes": 87, "no": 88, "missing": 87 , "children": [
              { "nodeid": 87, "depth": 6, "split": "f2", "split_condition": -0.0412804335, "yes": 175, "no": 176, "missing": 175 , "children": [
                { "nodeid": 175, "depth": 7, "split": "f9", "split_condition": 0.891790032, "yes": 341, "no": 342, "missing": 341 , "children": [
                  { "nodeid": 341, "depth": 8, "split": "f19", "split_condition": -0.913925171, "yes": 633, "no": 634, "missing": 633 , "children": [
                    { "nodeid": 633, "depth": 9, "split": "f15", "split_condition": -1.04257011, "yes": 1065, "no": 1066, "missing": 1065 , "children": [
                      { "nodeid": 1065, "leaf": -4.32147598 }, 
                      { "nodeid": 1066, "leaf": -19.1225605 }
                    ]}, 
                    { "nodeid": 634, "depth": 9, "split": "f17", "split_condition": 1.21350145, "yes": 1067, "no": 1068, "missing": 1067 , "children": [
                      { "nodeid": 1067, "leaf": -9.91490936 }, 
                      { "nodeid": 1068, "leaf": -3.7455883 }
                    ]}
                  ]}, 
                  { "nodeid": 342, "depth": 8, "split": "f17", "split_condition": 1.10075772, "yes": 635, "no": 636, "missing": 635 , "children": [
                    { "nodeid": 635, "depth": 9, "split": "f6", "split_condition": -1.00911689, "yes": 1069, "no": 1070, "missing": 1069 , "children": [
                      { "nodeid": 1069, "leaf": -8.30411243 }, 
                      { "nodeid": 1070, "leaf": -2.71345592 }
                    ]}, 
                    { "nodeid": 636, "depth": 9, "split": "f4", "split_condition": 0.353025377, "yes": 1071, "no": 1072, "missing": 1071 , "children": [
                      { "nodeid": 1071, "leaf": -0.0201070141 }, 
                      { "nodeid": 1072, "leaf": 4.47239494 }
                    ]}
                  ]}
                ]}, 
                { "nodeid": 176, "depth": 7, "split": "f16", "split_condition": 0.68901825, "yes": 343, "no": 344, "missing": 343 , "children": [
                  { "nodeid": 343, "depth": 8, "split": "f8", "split_condition": 0.523775339, "yes": 637, "no": 638, "missing": 637 , "children": [
                    { "nodeid": 637, "depth": 9, "split": "f4", "split_condition": 0.485417604, "yes": 1073, "no": 1074, "missing": 1073 , "children": [
                      { "nodeid": 1073, "leaf": -9.20126247 }, 
                      { "nodeid": 1074, "leaf": -2.28120089 }
                    ]}, 
                    { "nodeid": 638, "depth": 9, "split": "f15", "split_condition": -1.13787413, "yes": 1075, "no": 1076, "missing": 1075 , "children": [
                      { "nodeid": 1075, "leaf": -9.05838871 }, 
                      { "nodeid": 1076, "leaf": 0.455048233 }
                    ]}
                  ]}, 
                  { "nodeid": 344, "depth": 8, "split": "f8", "split_condition": -0.358665586, "yes": 639, "no": 640, "missing": 639 , "children": [
                    { "nodeid": 639, "depth": 9, "split": "f12", "split_condition": 1.17861867, "yes": 1077, "no": 1078, "missing": 1077 , "children": [
                      { "nodeid": 1077, "leaf": -6.56907368 }, 
                      { "nodeid": 1078, "leaf": 2.91206336 }
                    ]}, 
                    { "nodeid": 640, "depth": 9, "split": "f14", "split_condition": -0.298307151, "yes": 1079, "no": 1080, "missing": 1079 , "children": [
                      { "nodeid": 1079, "leaf": 7.54514074 }, 
                      { "nodeid": 1080, "leaf": -1.44913054 }
                    ]}
                  ]}
                ]}
              ]}, 
              { "nodeid": 88, "depth": 6, "split": "f18", "split_condition": -0.105071537, "yes": 177, "no": 178, "missing": 177 , "children": [
                { "nodeid": 177, "depth": 7, "split": "f12", "split_condition": -0.361327648, "yes": 345, "no": 346, "missing": 345 , "children": [
                  { "nodeid": 345, "depth": 8, "split": "f19", "split_condition": -1.08852506, "yes": 641, "no": 642, "missing": 641 , "children": [
                    { "nodeid": 641, "depth": 9, "split": "f14", "split_condition": 1.07965279, "yes": 1081, "no": 1082, "missing": 1081 , "children": [
                      { "nodeid": 1081, "leaf": -16.3503761 }, 
                      { "nodeid": 1082, "leaf": -2.10898948 }
                    ]}, 
                    { "nodeid": 642, "depth": 9, "split": "f16", "split_condition": 0.377156347, "yes": 1083, "no": 1084, "missing": 1083 , "children": [
                      { "nodeid": 1083, "leaf": -7.03379154 }, 
                      { "nodeid": 1084, "leaf": -1.30472493 }
                    ]}
                  ]}, 
                  { "nodeid": 346, "depth": 8, "split": "f8", "split_condition": 1.05699921, "yes": 643, "no": 644, "missing": 643 , "children": [
                    { "nodeid": 643, "depth": 9, "split": "f2", "split_condition": -0.0386735573, "yes": 1085, "no": 1086, "missing": 1085 , "children": [
                      { "nodeid": 1085, "leaf": -6.30120325 }, 
                      { "nodeid": 1086, "leaf": 0.810265958 }
                    ]}, 
                    { "nodeid": 644, "depth": 9, "split": "f18", "split_condition": -0.903406858, "yes": 1087, "no": 1088, "missing": 1087 , "children": [
                      { "nodeid": 1087, "leaf": -0.365079522 }, 
                      { "nodeid": 1088, "leaf": 8.15842247 }
                    ]}
                  ]}
                ]}, 
                { "nodeid": 178, "depth": 7, "split": "f10", "split_condition": -1.29923737, "yes": 347, "no": 348, "missing": 347 , "children": [
                  { "nodeid": 347, "depth": 8, "split": "f16", "split_condition": 0.705128193, "yes": 645, "no": 646, "missing": 645 , "children": [
                    { "nodeid": 645, "depth": 9, "split": "f18", "split_condition": 1.5797317, "yes": 1089, "no": 1090, "missing": 1089 , "children": [
                      { "nodeid": 1089, "leaf": -10.4685411 }, 
                      { "nodeid": 1090, "leaf": 2.33386683 }
                    ]}, 
                    { "nodeid": 646, "leaf": 5.15193319 }
                  ]}, 
                  { "nodeid": 348, "depth": 8, "split": "f6", "split_condition": -0.729375482, "yes": 647, "no": 648, "missing": 647 , "children": [
                    { "nodeid": 647, "depth": 9, "split": "f2", "split_condition": 0.937917054, "yes": 1091, "no": 1092, "missing": 1091 , "children": [
                      { "nodeid": 1091, "leaf": -0.7620489 }, 
                      { "nodeid": 1092, "leaf": 10.7294035 }
                    ]}, 
                    { "nodeid": 648, "depth": 9, "split": "f8", "split_condition": 1.28938913, "yes": 1093, "no": 1094, "missing": 1093 , "children": [
                      { "nodeid": 1093, "leaf": 5.43814039 }, 
                      { "nodeid": 1094, "leaf": 13.1074553 }
                    ]}
                  ]}
                ]}
              ]}
            ]}, 
            { "nodeid": 44, "depth": 5, "split": "f10", "split_condition": -0.333712637, "yes": 89, "no": 90, "missing": 89 , "children": [
              { "nodeid": 89, "depth": 6, "split": "f2", "split_condition": -0.448900163, "yes": 179, "no": 180, "missing": 179 , "children": [
                { "nodeid": 179, "depth": 7, "split": "f15", "split_condition": -1.67560637, "yes": 349, "no": 350, "missing": 349 , "children": [
                  { "nodeid": 349, "depth": 8, "split": "f18", "split_condition": -0.660342515, "yes": 649, "no": 650, "missing": 649 , "children": [
                    { "nodeid": 649, "depth": 9, "split": "f8", "split_condition": 1.01456022, "yes": 1095, "no": 1096, "missing": 1095 , "children": [
                      { "nodeid": 1095, "leaf": -17.6344528 }, 
                      { "nodeid": 1096, "leaf": -4.74549055 }
                    ]}, 
                    { "nodeid": 650, "depth": 9, "split": "f6", "split_condition": 0.449962735, "yes": 1097, "no": 1098, "missing": 1097 , "children": [
                      { "nodeid": 1097, "leaf": -9.95021439 }, 
                      { "nodeid": 1098, "leaf": -1.02108872 }
                    ]}
                  ]}, 
                  { "nodeid": 350, "depth": 8, "split": "f9", "split_condition": 0.673638344, "yes": 651, "no": 652, "missing": 651 , "children": [
                    { "nodeid": 651, "depth": 9, "split": "f19", "split_condition": -1.22011113, "yes": 1099, "no": 1100, "missing": 1099 , "children": [
                      { "nodeid": 1099, "leaf": -14.2717276 }, 
                      { "nodeid": 1100, "leaf": -4.21266365 }
                    ]}, 
                    { "nodeid": 652, "depth": 9, "split": "f8", "split_condition": 0.150830269, "yes": 1101, "no": 1102, "missing": 1101 , "children": [
                      { "nodeid": 1101, "leaf": -2.77849746 }, 
                      { "nodeid": 1102, "leaf": 5.38474512 }
                    ]}
                  ]}
                ]}, 
                { "nodeid": 180, "depth": 7, "split": "f5", "split_condition": 1.02035928, "yes": 351, "no": 352, "missing": 351 , "children": [
                  { "nodeid": 351, "depth": 8, "split": "f9", "split_condition": 1.2640152, "yes": 653, "no": 654, "missing": 653 , "children": [
                    { "nodeid": 653, "depth": 9, "split": "f17", "split_condition": 1.35219312, "yes": 1103, "no": 1104, "missing": 1103 , "children": [
                      { "nodeid": 1103, "leaf": -3.45768356 }, 
                      { "nodeid": 1104, "leaf": 4.76763296 }
                    ]}, 
                    { "nodeid": 654, "depth": 9, "split": "f15", "split_condition": -0.418191493, "yes": 1105, "no": 1106, "missing": 1105 , "children": [
                      { "nodeid": 1105, "leaf": 1.89566314 }, 
                      { "nodeid": 1106, "leaf": 11.6334867 }
                    ]}
                  ]}, 
                  { "nodeid": 352, "depth": 8, "split": "f15", "split_condition": -0.426723361, "yes": 655, "no": 656, "missing": 655 , "children": [
                    { "nodeid": 655, "depth": 9, "split": "f12", "split_condition": -0.434433401, "yes": 1107, "no": 1108, "missing": 1107 , "children": [
                      { "nodeid": 1107, "leaf": 1.3182683 }, 
                      { "nodeid": 1108, "leaf": 9.22603226 }
                    ]}, 
                    { "nodeid": 656, "depth": 9, "split": "f5", "split_condition": 1.79114246, "yes": 1109, "no": 1110, "missing": 1109 , "children": [
                      { "nodeid": 1109, "leaf": 0.669747174 }, 
                      { "nodeid": 1110, "leaf": -8.07532406 }
                    ]}
                  ]}
                ]}
              ]}, 
              { "nodeid": 90, "depth": 6, "split": "f16", "split_condition": -1.76512575, "yes": 181, "no": 182, "missing": 181 , "children": [
                { "nodeid": 181, "depth": 7, "split": "f17", "split_condition": 0.332009792, "yes": 353, "no": 354, "missing": 353 , "children": [
                  { "nodeid": 353, "depth": 8, "split": "f13", "split_condition": 0.773724079, "yes": 657, "no": 658, "missing": 657 , "children": [
                    { "nodeid": 657, "depth": 9, "split": "f5", "split_condition": 0.0564733222, "yes": 1111, "no": 1112, "missing": 1111 , "children": [
                      { "nodeid": 1111, "leaf": -14.5611067 }, 
                      { "nodeid": 1112, "leaf": -1.28803527 }
                    ]}, 
                    { "nodeid": 658, "depth": 9, "split": "f2", "split_condition": 0.860934615, "yes": 1113, "no": 1114, "missing": 1113 , "children": [
                      { "nodeid": 1113, "leaf": 1.85726774 }, 
                      { "nodeid": 1114, "leaf": -2.30105495 }
                    ]}
                  ]}, 
                  { "nodeid": 354, "depth": 8, "split": "f9", "split_condition": 0.280284822, "yes": 659, "no": 660, "missing": 659 , "children": [
                    { "nodeid": 659, "depth": 9, "split": "f2", "split_condition": 0.813563824, "yes": 1115, "no": 1116, "missing": 1115 , "children": [
                      { "nodeid": 1115, "leaf": -2.35757518 }, 
                      { "nodeid": 1116, "leaf": -0.647073925 }
                    ]}, 
                    { "nodeid": 660, "depth": 9, "split": "f2", "split_condition": -1.07462645, "yes": 1117, "no": 1118, "missing": 1117 , "children": [
                      { "nodeid": 1117, "leaf": -1.49748492 }, 
                      { "nodeid": 1118, "leaf": 3.49194264 }
                    ]}
                  ]}
                ]}, 
                { "nodeid": 182, "depth": 7, "split": "f2", "split_condition": 1.33587003, "yes": 355, "no": 356, "missing": 355 , "children": [
                  { "nodeid": 355, "depth": 8, "split": "f2", "split_condition": -1.63256598, "yes": 661, "no": 662, "missing": 661 , "children": [
                    { "nodeid": 661, "depth": 9, "split": "f5", "split_condition": 0.478999794, "yes": 1119, "no": 1120, "missing": 1119 , "children": [
                      { "nodeid": 1119, "leaf": -7.82225657 }, 
                      { "nodeid": 1120, "leaf": -0.323950201 }
                    ]}, 
                    { "nodeid": 662, "depth": 9, "split": "f18", "split_condition": 0.168856502, "yes": 1121, "no": 1122, "missing": 1121 , "children": [
                      { "nodeid": 1121, "leaf": 1.46811688 }, 
                      { "nodeid": 1122, "leaf": 6.03660488 }
                    ]}
                  ]}, 
                  { "nodeid": 356, "depth": 8, "split": "f8", "split_condition": 0.314694911, "yes": 663, "no": 664, "missing": 663 , "children": [
                    { "nodeid": 663, "depth": 9, "split": "f14", "split_condition": 0.362553239, "yes": 1123, "no": 1124, "missing": 1123 , "children": [
                      { "nodeid": 1123, "leaf": 1.53047776 }, 
                      { "nodeid": 1124, "leaf": 12.5747404 }
                    ]}, 
                    { "nodeid": 664, "depth": 9, "split": "f19", "split_condition": -0.851845145, "yes": 1125, "no": 1126, "missing": 1125 , "children": [
                      { "nodeid": 1125, "leaf": 2.16344047 }, 
                      { "nodeid": 1126, "leaf": 20.2331409 }
                    ]}
                  ]}
                ]}
              ]}
            ]}
          ]}, 
          { "nodeid": 22, "depth": 4, "split": "f10", "split_condition": 0.174693257, "yes": 45, "no": 46, "missing": 45 , "children": [
            { "nodeid": 45, "depth": 5, "split": "f19", "split_condition": -0.854223907, "yes": 91, "no": 92, "missing": 91 , "children": [
              { "nodeid": 91, "depth": 6, "split": "f2", "split_condition": -0.582809925, "yes": 183, "no": 184, "missing": 183 , "children": [
                { "nodeid": 183, "depth": 7, "split": "f19", "split_condition": -1.54646444, "yes": 357, "no": 358, "missing": 357 , "children": [
                  { "nodeid": 357, "depth": 8, "split": "f10", "split_condition": -0.864205897, "yes": 665, "no": 666, "missing": 665 , "children": [
                    { "nodeid": 665, "depth": 9, "split": "f2", "split_condition": -1.68388617, "yes": 1127, "no": 1128, "missing": 1127 , "children": [
                      { "nodeid": 1127, "leaf": -0.208786011 }, 
                      { "nodeid": 1128, "leaf": -4.0515604 }
                    ]}, 
                    { "nodeid": 666, "depth": 9, "split": "f5", "split_condition": 0.686961949, "yes": 1129, "no": 1130, "missing": 1129 , "children": [
                      { "nodeid": 1129, "leaf": -14.6937838 }, 
                      { "nodeid": 1130, "leaf": -0.683526874 }
                    ]}
                  ]}, 
                  { "nodeid": 358, "depth": 8, "split": "f5", "split_condition": -0.803974032, "yes": 667, "no": 668, "missing": 667 , "children": [
                    { "nodeid": 667, "depth": 9, "split": "f9", "split_condition": 0.501007199, "yes": 1131, "no": 1132, "missing": 1131 , "children": [
                      { "nodeid": 1131, "leaf": -12.3323412 }, 
                      { "nodeid": 1132, "leaf": -3.84032512 }
                    ]}, 
                    { "nodeid": 668, "depth": 9, "split": "f9", "split_condition": 1.05471659, "yes": 1133, "no": 1134, "missing": 1133 , "children": [
                      { "nodeid": 1133, "leaf": -3.16129446 }, 
                      { "nodeid": 1134, "leaf": 3.92791605 }
                    ]}
                  ]}
                ]}, 
                { "nodeid": 184, "depth": 7, "split": "f14", "split_condition": -1.46018302, "yes": 359, "no": 360, "missing": 359 , "children": [
                  { "nodeid": 359, "depth": 8, "split": "f11", "split_condition": -0.976170957, "yes": 669, "no": 670, "missing": 669 , "children": [
                    { "nodeid": 669, "depth": 9, "split": "f2", "split_condition": 0.249964043, "yes": 1135, "no": 1136, "missing": 1135 , "children": [
                      { "nodeid": 1135, "leaf": 3.14216065 }, 
                      { "nodeid": 1136, "leaf": -1.14781725 }
                    ]}, 
                    { "nodeid": 670, "depth": 9, "split": "f10", "split_condition": -1.08497047, "yes": 1137, "no": 1138, "missing": 1137 , "children": [
                      { "nodeid": 1137, "leaf": -13.7618971 }, 
                      { "nodeid": 1138, "leaf": -4.74566269 }
                    ]}
                  ]}, 
                  { "nodeid": 360, "depth": 8, "split": "f19", "split_condition": -1.6283145, "yes": 671, "no": 672, "missing": 671 , "children": [
                    { "nodeid": 671, "depth": 9, "split": "f2", "split_condition": -0.174323931, "yes": 1139, "no": 1140, "missing": 1139 , "children": [
                      { "nodeid": 1139, "leaf": -10.8449659 }, 
                      { "nodeid": 1140, "leaf": -0.994059861 }
                    ]}, 
                    { "nodeid": 672, "depth": 9, "split": "f16", "split_condition": -0.55476284, "yes": 1141, "no": 1142, "missing": 1141 , "children": [
                      { "nodeid": 1141, "leaf": -2.6225481 }, 
                      { "nodeid": 1142, "leaf": 3.48511505 }
                    ]}
                  ]}
                ]}
              ]}, 
              { "nodeid": 92, "depth": 6, "split": "f2", "split_condition": 0.622683823, "yes": 185, "no": 186, "missing": 185 , "children": [
                { "nodeid": 185, "depth": 7, "split": "f14", "split_condition": 0.393203735, "yes": 361, "no": 362, "missing": 361 , "children": [
                  { "nodeid": 361, "depth": 8, "split": "f17", "split_condition": 1.4258846, "yes": 673, "no": 674, "missing": 673 , "children": [
                    { "nodeid": 673, "depth": 9, "split": "f10", "split_condition": -0.865463853, "yes": 1143, "no": 1144, "missing": 1143 , "children": [
                      { "nodeid": 1143, "leaf": -3.52041745 }, 
                      { "nodeid": 1144, "leaf": 0.499011815 }
                    ]}, 
                    { "nodeid": 674, "depth": 9, "split": "f13", "split_condition": -0.481698245, "yes": 1145, "no": 1146, "missing": 1145 , "children": [
                      { "nodeid": 1145, "leaf": 0.622628808 }, 
                      { "nodeid": 1146, "leaf": 9.54545403 }
                    ]}
                  ]}, 
                  { "nodeid": 362, "depth": 8, "split": "f6", "split_condition": 0.616633594, "yes": 675, "no": 676, "missing": 675 , "children": [
                    { "nodeid": 675, "depth": 9, "split": "f18", "split_condition": 0.975083768, "yes": 1147, "no": 1148, "missing": 1147 , "children": [
                      { "nodeid": 1147, "leaf": 1.82158756 }, 
                      { "nodeid": 1148, "leaf": 9.88259888 }
                    ]}, 
                    { "nodeid": 676, "depth": 9, "split": "f5", "split_condition": 0.623927355, "yes": 1149, "no": 1150, "missing": 1149 , "children": [
                      { "nodeid": 1149, "leaf": 7.8079772 }, 
                      { "nodeid": 1150, "leaf": 17.2543221 }
                    ]}
                  ]}
                ]}, 
                { "nodeid": 186, "depth": 7, "split": "f6", "split_condition": -0.0972798467, "yes": 363, "no": 364, "missing": 363 , "children": [
                  { "nodeid": 363, "depth": 8, "split": "f5", "split_condition": -0.750187039, "yes": 677, "no": 678, "missing": 677 , "children": [
                    { "nodeid": 677, "depth": 9, "split": "f10", "split_condition": -0.100187272, "yes": 1151, "no": 1152, "missing": 1151 , "children": [
                      { "nodeid": 1151, "leaf": -3.46998954 }, 
                      { "nodeid": 1152, "leaf": 6.85161066 }
                    ]}, 
                    { "nodeid": 678, "depth": 9, "split": "f16", "split_condition": -1.38758612, "yes": 1153, "no": 1154, "missing": 1153 , "children": [
                      { "nodeid": 1153, "leaf": -3.51798296 }, 
                      { "nodeid": 1154, "leaf": 7.67071676 }
                    ]}
                  ]}, 
                  { "nodeid": 364, "depth": 8, "split": "f4", "split_condition": -1.10456479, "yes": 679, "no": 680, "missing": 679 , "children": [
                    { "nodeid": 679, "depth": 9, "split": "f15", "split_condition": 0.512091935, "yes": 1155, "no": 1156, "missing": 1155 , "children": [
                      { "nodeid": 1155, "leaf": -3.89692378 }, 
                      { "nodeid": 1156, "leaf": 9.09744644 }
                    ]}, 
                    { "nodeid": 680, "depth": 9, "split": "f14", "split_condition": -0.540837646, "yes": 1157, "no": 1158, "missing": 1157 , "children": [
                      { "nodeid": 1157, "leaf": 7.13266087 }, 
                      { "nodeid": 1158, "leaf": 13.6496553 }
                    ]}
                  ]}
                ]}
              ]}
            ]}, 
            { "nodeid": 46, "depth": 5, "split": "f16", "split_condition": 0.303843796, "yes": 93, "no": 94, "missing": 93 , "children": [
              { "nodeid": 93, "depth": 6, "split": "f6", "split_condition": 1.46623135, "yes": 187, "no": 188, "missing": 187 , "children": [
                { "nodeid": 187, "depth": 7, "split": "f18", "split_condition": 0.442226768, "yes": 365, "no": 366, "missing": 365 , "children": [
                  { "nodeid": 365, "depth": 8, "split": "f17", "split_condition": 1.16957676, "yes": 681, "no": 682, "missing": 681 , "children": [
                    { "nodeid": 681, "depth": 9, "split": "f12", "split_condition": 1.20052707, "yes": 1159, "no": 1160, "missing": 1159 , "children": [
                      { "nodeid": 1159, "leaf": 0.00568909524 }, 
                      { "nodeid": 1160, "leaf": 6.73740911 }
                    ]}, 
                    { "nodeid": 682, "depth": 9, "split": "f4", "split_condition": -0.651570678, "yes": 1161, "no": 1162, "missing": 1161 , "children": [
                      { "nodeid": 1161, "leaf": 0.562510848 }, 
                      { "nodeid": 1162, "leaf": 10.4301138 }
                    ]}
                  ]}, 
                  { "nodeid": 366, "depth": 8, "split": "f14", "split_condition": -0.151303947, "yes": 683, "no": 684, "missing": 683 , "children": [
                    { "nodeid": 683, "depth": 9, "split": "f5", "split_condition": -0.336250365, "yes": 1163, "no": 1164, "missing": 1163 , "children": [
                      { "nodeid": 1163, "leaf": -1.23394573 }, 
                      { "nodeid": 1164, "leaf": 6.97741842 }
                    ]}, 
                    { "nodeid": 684, "depth": 9, "split": "f19", "split_condition": -0.874698222, "yes": 1165, "no": 1166, "missing": 1165 , "children": [
                      { "nodeid": 1165, "leaf": 4.81749392 }, 
                      { "nodeid": 1166, "leaf": 12.176465 }
                    ]}
                  ]}
                ]}, 
                { "nodeid": 188, "depth": 7, "split": "f9", "split_condition": 0.724794686, "yes": 367, "no": 368, "missing": 367 , "children": [
                  { "nodeid": 367, "depth": 8, "split": "f8", "split_condition": -0.346368909, "yes": 685, "no": 686, "missing": 685 , "children": [
                    { "nodeid": 685, "depth": 9, "split": "f17", "split_condition": 1.12678766, "yes": 1167, "no": 1168, "missing": 1167 , "children": [
                      { "nodeid": 1167, "leaf": 0.386651605 }, 
                      { "nodeid": 1168, "leaf": 8.73237514 }
                    ]}, 
                    { "nodeid": 686, "depth": 9, "split": "f10", "split_condition": 0.301771104, "yes": 1169, "no": 1170, "missing": 1169 , "children": [
                      { "nodeid": 1169, "leaf": 1.63323462 }, 
                      { "nodeid": 1170, "leaf": 13.7781019 }
                    ]}
                  ]}, 
                  { "nodeid": 368, "depth": 8, "split": "f14", "split_condition": -0.539093554, "yes": 687, "no": 688, "missing": 687 , "children": [
                    { "nodeid": 687, "leaf": 10.4651241 }, 
                    { "nodeid": 688, "depth": 9, "split": "f18", "split_condition": 1.61156166, "yes": 1171, "no": 1172, "missing": 1171 , "children": [
                      { "nodeid": 1171, "leaf": 22.3946323 }, 
                      { "nodeid": 1172, "leaf": 5.24622583 }
                    ]}
                  ]}
                ]}
              ]}, 
              { "nodeid": 94, "depth": 6, "split": "f2", "split_condition": 0.418906331, "yes": 189, "no": 190, "missing": 189 , "children": [
                { "nodeid": 189, "depth": 7, "split": "f8", "split_condition": 0.335318089, "yes": 369, "no": 370, "missing": 369 , "children": [
                  { "nodeid": 369, "depth": 8, "split": "f5", "split_condition": -0.32046321, "yes": 689, "no": 690, "missing": 689 , "children": [
                    { "nodeid": 689, "depth": 9, "split": "f11", "split_condition": -1.14685142, "yes": 1173, "no": 1174, "missing": 1173 , "children": [
                      { "nodeid": 1173, "leaf": -1.94109619 }, 
                      { "nodeid": 1174, "leaf": 4.40578222 }
                    ]}, 
                    { "nodeid": 690, "depth": 9, "split": "f13", "split_condition": -0.211518705, "yes": 1175, "no": 1176, "missing": 1175 , "children": [
                      { "nodeid": 1175, "leaf": 5.19758368 }, 
                      { "nodeid": 1176, "leaf": 11.4527464 }
                    ]}
                  ]}, 
                  { "nodeid": 370, "depth": 8, "split": "f6", "split_condition": -0.0576456748, "yes": 691, "no": 692, "missing": 691 , "children": [
                    { "nodeid": 691, "depth": 9, "split": "f19", "split_condition": -0.583746195, "yes": 1177, "no": 1178, "missing": 1177 , "children": [
                      { "nodeid": 1177, "leaf": 3.07250977 }, 
                      { "nodeid": 1178, "leaf": 10.0330639 }
                    ]}, 
                    { "nodeid": 692, "depth": 9, "split": "f5", "split_condition": -1.08683801, "yes": 1179, "no": 1180, "missing": 1179 , "children": [
                      { "nodeid": 1179, "leaf": 2.4626596 }, 
                      { "nodeid": 1180, "leaf": 17.5188236 }
                    ]}
                  ]}
                ]}, 
                { "nodeid": 190, "depth": 7, "split": "f14", "split_condition": -0.634315491, "yes": 371, "no": 372, "missing": 371 , "children": [
                  { "nodeid": 371, "depth": 8, "split": "f5", "split_condition": -1.26054704, "yes": 693, "no": 694, "missing": 693 , "children": [
                    { "nodeid": 693, "leaf": -4.3900528 }, 
                    { "nodeid": 694, "depth": 9, "split": "f4", "split_condition": 0.0355631784, "yes": 1181, "no": 1182, "missing": 1181 , "children": [
                      { "nodeid": 1181, "leaf": 4.07009792 }, 
                      { "nodeid": 1182, "leaf": 12.8580551 }
                    ]}
                  ]}, 
                  { "nodeid": 372, "depth": 8, "split": "f15", "split_condition": 0.884313643, "yes": 695, "no": 696, "missing": 695 , "children": [
                    { "nodeid": 695, "depth": 9, "split": "f16", "split_condition": 0.789954484, "yes": 1183, "no": 1184, "missing": 1183 , "children": [
                      { "nodeid": 1183, "leaf": 8.20819664 }, 
                      { "nodeid": 1184, "leaf": 16.3516159 }
                    ]}, 
                    { "nodeid": 696, "depth": 9, "split": "f17", "split_condition": -0.230046242, "yes": 1185, "no": 1186, "missing": 1185 , "children": [
                      { "nodeid": 1185, "leaf": 10.0427933 }, 
                      { "nodeid": 1186, "leaf": 21.5633144 }
                    ]}
                  ]}
                ]}
              ]}
            ]}
          ]}
        ]}
      ]}
    ]}, 
    { "nodeid": 2, "depth": 1, "split": "f9", "split_condition": 0.0169263817, "yes": 5, "no": 6, "missing": 5 , "children": [
      { "nodeid": 5, "depth": 2, "split": "f17", "split_condition": 0.6511361, "yes": 11, "no": 12, "missing": 11 , "children": [
        { "nodeid": 11, "depth": 3, "split": "f10", "split_condition": -0.64967978, "yes": 23, "no": 24, "missing": 23 , "children": [
          { "nodeid": 23, "depth": 4, "split": "f9", "split_condition": -0.867848396, "yes": 47, "no": 48, "missing": 47 , "children": [
            { "nodeid": 47, "depth": 5, "split": "f15", "split_condition": -0.451822877, "yes": 95, "no": 96, "missing": 95 , "children": [
              { "nodeid": 95, "depth": 6, "split": "f16", "split_condition": 0.521058798, "yes": 191, "no": 192, "missing": 191 , "children": [
                { "nodeid": 191, "depth": 7, "split": "f11", "split_condition": 0.966669917, "yes": 373, "no": 374, "missing": 373 , "children": [
                  { "nodeid": 373, "depth": 8, "split": "f12", "split_condition": -1.185467, "yes": 697, "no": 698, "missing": 697 , "children": [
                    { "nodeid": 697, "leaf": -9.21103096 }, 
                    { "nodeid": 698, "leaf": -19.275795 }
                  ]}, 
                  { "nodeid": 374, "depth": 8, "split": "f2", "split_condition": -0.702816427, "yes": 699, "no": 700, "missing": 699 , "children": [
                    { "nodeid": 699, "leaf": -8.23286724 }, 
                    { "nodeid": 700, "leaf": 0.617483556 }
                  ]}
                ]}, 
                { "nodeid": 192, "depth": 7, "split": "f2", "split_condition": 2.11569238, "yes": 375, "no": 376, "missing": 375 , "children": [
                  { "nodeid": 375, "depth": 8, "split": "f12", "split_condition": -1.37947106, "yes": 701, "no": 702, "missing": 701 , "children": [
                    { "nodeid": 701, "leaf": -2.45874405 }, 
                    { "nodeid": 702, "leaf": -7.88909292 }
                  ]}, 
                  { "nodeid": 376, "leaf": 1.85074651 }
                ]}
              ]}, 
              { "nodeid": 96, "depth": 6, "split": "f6", "split_condition": 0.588450551, "yes": 193, "no": 194, "missing": 193 , "children": [
                { "nodeid": 193, "depth": 7, "split": "f12", "split_condition": -0.445998847, "yes": 377, "no": 378, "missing": 377 , "children": [
                  { "nodeid": 377, "depth": 8, "split": "f19", "split_condition": 2.04529238, "yes": 703, "no": 704, "missing": 703 , "children": [
                    { "nodeid": 703, "leaf": -10.7098837 }, 
                    { "nodeid": 704, "leaf": -2.66317368 }
                  ]}, 
                  { "nodeid": 378, "depth": 8, "split": "f17", "split_condition": -0.866967201, "yes": 705, "no": 706, "missing": 705 , "children": [
                    { "nodeid": 705, "depth": 9, "split": "f2", "split_condition": 1.20387912, "yes": 1187, "no": 1188, "missing": 1187 , "children": [
                      { "nodeid": 1187, "leaf": -11.0919981 }, 
                      { "nodeid": 1188, "leaf": 1.93561828 }
                    ]}, 
                    { "nodeid": 706, "depth": 9, "split": "f2", "split_condition": 0.321449131, "yes": 1189, "no": 1190, "missing": 1189 , "children": [
                      { "nodeid": 1189, "leaf": -3.71480799 }, 
                      { "nodeid": 1190, "leaf": 2.23778987 }
                    ]}
                  ]}
                ]}, 
                { "nodeid": 194, "depth": 7, "split": "f8", "split_condition": -0.178066015, "yes": 379, "no": 380, "missing": 379 , "children": [
                  { "nodeid": 379, "depth": 8, "split": "f16", "split_condition": -1.16448855, "yes": 707, "no": 708, "missing": 707 , "children": [
                    { "nodeid": 707, "leaf": -4.33466482 }, 
                    { "nodeid": 708, "depth": 9, "split": "f17", "split_condition": -0.818887115, "yes": 1191, "no": 1192, "missing": 1191 , "children": [
                      { "nodeid": 1191, "leaf": -1.06223059 }, 
                      { "nodeid": 1192, "leaf": 2.04019976 }
                    ]}
                  ]}, 
                  { "nodeid": 380, "leaf": 8.72432613 }
