  { "nodeid": 0, "depth": 0, "split": "f1", "split_condition": -0.322990477, "yes": 1, "no": 2, "missing": 1 , "children": [
    { "nodeid": 1, "depth": 1, "split": "f17", "split_condition": -0.326092601, "yes": 3, "no": 4, "missing": 3 , "children": [
      { "nodeid": 3, "depth": 2, "split": "f16", "split_condition": 0.754491091, "yes": 7, "no": 8, "missing": 7 , "children": [
        { "nodeid": 7, "depth": 3, "split": "f15", "split_condition": 0.125877351, "yes": 15, "no": 16, "missing": 15 , "children": [
          { "nodeid": 15, "depth": 4, "split": "f7", "split_condition": -0.607684255, "yes": 31, "no": 32, "missing": 31 , "children": [
            { "nodeid": 31, "depth": 5, "split": "f5", "split_condition": 0.493995667, "yes": 63, "no": 64, "missing": 63 , "children": [
              { "nodeid": 63, "depth": 6, "split": "f2", "split_condition": 0.709973216, "yes": 127, "no": 128, "missing": 127 , "children": [
                { "nodeid": 127, "depth": 7, "split": "f8", "split_condition": -1.63856232, "yes": 253, "no": 254, "missing": 253 , "children": [
                  { "nodeid": 253, "leaf": -3.14670253 }, 
                  { "nodeid": 254, "depth": 8, "split": "f1", "split_condition": -1.65978038, "yes": 479, "no": 480, "missing": 479 , "children": [
                    { "nodeid": 479, "depth": 9, "split": "f7", "split_condition": -0.958781838, "yes": 863, "no": 864, "missing": 863 , "children": [
                      { "nodeid": 863, "leaf": -34.4562416 }, 
                      { "nodeid": 864, "leaf": -12.7079449 }
                    ]}, 
                    { "nodeid": 480, "depth": 9, "split": "f14", "split_condition": 1.32693589, "yes": 865, "no": 866, "missing": 865 , "children": [
                      { "nodeid": 865, "leaf": -21.9419384 }, 
                      { "nodeid": 866, "leaf": -6.28265476 }
                    ]}
                  ]}
                ]}, 
                { "nodeid": 128, "depth": 7, "split": "f8", "split_condition": 0.34207046, "yes": 255, "no": 256, "missing": 255 , "children": [
                  { "nodeid": 255, "depth": 8, "split": "f2", "split_condition": 1.64147854, "yes": 481, "no": 482, "missing": 481 , "children": [
                    { "nodeid": 481, "leaf": -18.0400867 }, 
                    { "nodeid": 482, "leaf": -8.27674294 }
                  ]}, 
                  { "nodeid": 256, "depth": 8, "split": "f12", "split_condition": 0.695326209, "yes": 483, "no": 484, "missing": 483 , "children": [
                    { "nodeid": 483, "depth": 9, "split": "f1", "split_condition": -1.50159526, "yes": 867, "no": 868, "missing": 867 , "children": [
                      { "nodeid": 867, "leaf": -0.66741997 }, 
                      { "nodeid": 868, "leaf": -8.78231525 }
                    ]}, 
                    { "nodeid": 484, "depth": 9, "split": "f1", "split_condition": -1.21043777, "yes": 869, "no": 870, "missing": 869 , "children": [
                      { "nodeid": 869, "leaf": -1.88057601 }, 
                      { "nodeid": 870, "leaf": 0.393467456 }
                    ]}
                  ]}
                ]}
              ]}, 
              { "nodeid": 64, "depth": 6, "split": "f7", "split_condition": -0.704948306, "yes": 129, "no": 130, "missing": 129 , "children": [
                { "nodeid": 129, "depth": 7, "split": "f12", "split_condition": 0.0479018502, "yes": 257, "no": 258, "missing": 257 , "children": [
                  { "nodeid": 257, "depth": 8, "split": "f11", "split_condition": 0.668407917, "yes": 485, "no": 486, "missing": 485 , "children": [
                    { "nodeid": 485, "depth": 9, "split": "f1", "split_condition": -0.716078401, "yes": 871, "no": 872, "missing": 871 , "children": [
                      { "nodeid": 871, "leaf": -20.2805767 }, 
                      { "nodeid": 872, "leaf": -6.79204655 }
                    ]}, 
                    { "nodeid": 486, "depth": 9, "split": "f1", "split_condition": -0.581829786, "yes": 873, "no": 874, "missing": 873 , "children": [
                      { "nodeid": 873, "leaf": -1.57572734 }, 
                      { "nodeid": 874, "leaf": -9.68650818 }
                    ]}
                  ]}, 
                  { "nodeid": 258, "depth": 8, "split": "f18", "split_condition": 0.271532238, "yes": 487, "no": 488, "missing": 487 , "children": [
                    { "nodeid": 487, "depth": 9, "split": "f7", "split_condition": -0.851769209, "yes": 875, "no": 876, "missing": 875 , "children": [
                      { "nodeid": 875, "leaf": -11.47682 }, 
                      { "nodeid": 876, "leaf": -2.53095126 }
                    ]}, 
                    { "nodeid": 488, "depth": 9, "split": "f1", "split_condition": -0.36876893, "yes": 877, "no": 878, "missing": 877 , "children": [
                      { "nodeid": 877, "leaf": -2.47338986 }, 
                      { "nodeid": 878, "leaf": 2.51753449 }
                    ]}
                  ]}
                ]}, 
                { "nodeid": 130, "leaf": 5.54549742 }
              ]}
            ]}, 
            { "nodeid": 32, "depth": 5, "split": "f10", "split_condition": -0.706893444, "yes": 65, "no": 66, "missing": 65 , "children": [
              { "nodeid": 65, "depth": 6, "split": "f3", "split_condition": -0.469200462, "yes": 131, "no": 132, "missing": 131 , "children": [
                { "nodeid": 131, "depth": 7, "split": "f5", "split_condition": -0.425441504, "yes": 259, "no": 260, "missing": 259 , "children": [
                  { "nodeid": 259, "depth": 8, "split": "f8", "split_condition": -1.31050777, "yes": 489, "no": 490, "missing": 489 , "children": [
                    { "nodeid": 489, "leaf": -0.832648456 }, 
                    { "nodeid": 490, "leaf": -11.8214712 }
                  ]}, 
                  { "nodeid": 260, "depth": 8, "split": "f5", "split_condition": 2.04599714, "yes": 491, "no": 492, "missing": 491 , "children": [
                    { "nodeid": 491, "depth": 9, "split": "f2", "split_condition": 1.22091174, "yes": 879, "no": 880, "missing": 879 , "children": [
                      { "nodeid": 879, "leaf": -24.8074493 }, 
                      { "nodeid": 880, "leaf": -5.06923914 }
                    ]}, 
                    { "nodeid": 492, "leaf": -4.37601233 }
                  ]}
                ]}, 
                { "nodeid": 132, "depth": 7, "split": "f16", "split_condition": 0.365084291, "yes": 261, "no": 262, "missing": 261 , "children": [
                  { "nodeid": 261, "depth": 8, "split": "f11", "split_condition": 0.163590491, "yes": 493, "no": 494, "missing": 493 , "children": [
                    { "nodeid": 493, "depth": 9, "split": "f5", "split_condition": 1.19827342, "yes": 881, "no": 882, "missing": 881 , "children": [
                      { "nodeid": 881, "leaf": -17.8466129 }, 
                      { "nodeid": 882, "leaf": -5.66939878 }
                    ]}, 
                    { "nodeid": 494, "depth": 9, "split": "f18", "split_condition": 0.384955168, "yes": 883, "no": 884, "missing": 883 , "children": [
                      { "nodeid": 883, "leaf": -11.1143141 }, 
                      { "nodeid": 884, "leaf": -2.67134643 }
                    ]}
                  ]}, 
                  { "nodeid": 262, "depth": 8, "split": "f18", "split_condition": -0.176523983, "yes": 495, "no": 496, "missing": 495 , "children": [
                    { "nodeid": 495, "leaf": -8.70742702 }, 
                    { "nodeid": 496, "depth": 9, "split": "f0", "split_condition": 0.681725264, "yes": 885, "no": 886, "missing": 885 , "children": [
                      { "nodeid": 885, "leaf": 3.37195015 }, 
                      { "nodeid": 886, "leaf": -2.3656671 }
                    ]}
                  ]}
                ]}
              ]}, 
              { "nodeid": 66, "depth": 6, "split": "f17", "split_condition": -1.52003884, "yes": 133, "no": 134, "missing": 133 , "children": [
                { "nodeid": 133, "depth": 7, "split": "f10", "split_condition": 1.10080671, "yes": 263, "no": 264, "missing": 263 , "children": [
                  { "nodeid": 263, "depth": 8, "split": "f8", "split_condition": 1.19204998, "yes": 497, "no": 498, "missing": 497 , "children": [
                    { "nodeid": 497, "depth": 9, "split": "f18", "split_condition": 1.15105712, "yes": 887, "no": 888, "missing": 887 , "children": [
                      { "nodeid": 887, "leaf": -17.7134075 }, 
                      { "nodeid": 888, "leaf": -8.64561367 }
                    ]}, 
                    { "nodeid": 498, "depth": 9, "split": "f7", "split_condition": -0.404260993, "yes": 889, "no": 890, "missing": 889 , "children": [
                      { "nodeid": 889, "leaf": 0.58852911 }, 
                      { "nodeid": 890, "leaf": -5.09863758 }
                    ]}
                  ]}, 
                  { "nodeid": 264, "depth": 8, "split": "f1", "split_condition": -1.05910873, "yes": 499, "no": 500, "missing": 499 , "children": [
                    { "nodeid": 499, "depth": 9, "split": "f0", "split_condition": 0.375371039, "yes": 891, "no": 892, "missing": 891 , "children": [
                      { "nodeid": 891, "leaf": 3.90119863 }, 
                      { "nodeid": 892, "leaf": 0.194421768 }
                    ]}, 
                    { "nodeid": 500, "leaf": -4.65010691 }
                  ]}
                ]}, 
                { "nodeid": 134, "depth": 7, "split": "f16", "split_condition": -1.06304324, "yes": 265, "no": 266, "missing": 265 , "children": [
                  { "nodeid": 265, "depth": 8, "split": "f3", "split_condition": -1.08545971, "yes": 501, "no": 502, "missing": 501 , "children": [
                    { "nodeid": 501, "leaf": -26.9815617 }, 
                    { "nodeid": 502, "depth": 9, "split": "f18", "split_condition": 0.0446379632, "yes": 893, "no": 894, "missing": 893 , "children": [
                      { "nodeid": 893, "leaf": -14.2140474 }, 
                      { "nodeid": 894, "leaf": -6.6283493 }
                    ]}
                  ]}, 
                  { "nodeid": 266, "depth": 8, "split": "f3", "split_condition": 1.17788804, "yes": 503, "no": 504, "missing": 503 , "children": [
                    { "nodeid": 503, "depth": 9, "split": "f18", "split_condition": 0.975445628, "yes": 895, "no": 896, "missing": 895 , "children": [
                      { "nodeid": 895, "leaf": -7.60492659 }, 
                      { "nodeid": 896, "leaf": -2.05217719 }
                    ]}, 
                    { "nodeid": 504, "depth": 9, "split": "f8", "split_condition": -0.437306613, "yes": 897, "no": 898, "missing": 897 , "children": [
                      { "nodeid": 897, "leaf": -6.18530035 }, 
                      { "nodeid": 898, "leaf": 1.86981511 }
                    ]}
                  ]}
                ]}
              ]}
            ]}
          ]}, 
          { "nodeid": 16, "depth": 4, "split": "f7", "split_condition": 0.895609736, "yes": 33, "no": 34, "missing": 33 , "children": [
            { "nodeid": 33, "depth": 5, "split": "f3", "split_condition": 0.146287948, "yes": 67, "no": 68, "missing": 67 , "children": [
              { "nodeid": 67, "depth": 6, "split": "f10", "split_condition": 1.43355656, "yes": 135, "no": 136, "missing": 135 , "children": [
                { "nodeid": 135, "depth": 7, "split": "f1", "split_condition": -1.03268671, "yes": 267, "no": 268, "missing": 267 , "children": [
                  { "nodeid": 267, "depth": 8, "split": "f18", "split_condition": 0.477428108, "yes": 505, "no": 506, "missing": 505 , "children": [
                    { "nodeid": 505, "depth": 9, "split": "f2", "split_condition": 1.17843938, "yes": 899, "no": 900, "missing": 899 , "children": [
                      { "nodeid": 899, "leaf": -19.114687 }, 
                      { "nodeid": 900, "leaf": -4.48292351 }
                    ]}, 
                    { "nodeid": 506, "depth": 9, "split": "f3", "split_condition": 0.044494532, "yes": 901, "no": 902, "missing": 901 , "children": [
                      { "nodeid": 901, "leaf": -10.1761065 }, 
                      { "nodeid": 902, "leaf": 3.59774399 }
                    ]}
                  ]}, 
                  { "nodeid": 268, "depth": 8, "split": "f2", "split_condition": 0.867720842, "yes": 507, "no": 508, "missing": 507 , "children": [
                    { "nodeid": 507, "depth": 9, "split": "f18", "split_condition": 1.37352371, "yes": 903, "no": 904, "missing": 903 , "children": [
                      { "nodeid": 903, "leaf": -10.9492102 }, 
                      { "nodeid": 904, "leaf": 4.08817434 }
                    ]}, 
                    { "nodeid": 508, "depth": 9, "split": "f0", "split_condition": 0.835018516, "yes": 905, "no": 906, "missing": 905 , "children": [
                      { "nodeid": 905, "leaf": -5.72319555 }, 
                      { "nodeid": 906, "leaf": 4.84970713 }
                    ]}
                  ]}
                ]}, 
                { "nodeid": 136, "depth": 7, "split": "f14", "split_condition": -0.153418526, "yes": 269, "no": 270, "missing": 269 , "children": [
                  { "nodeid": 269, "depth": 8, "split": "f7", "split_condition": 0.303515434, "yes": 509, "no": 510, "missing": 509 , "children": [
                    { "nodeid": 509, "leaf": -10.6901197 }, 
                    { "nodeid": 510, "leaf": -2.53008962 }
                  ]}, 
                  { "nodeid": 270, "depth": 8, "split": "f12", "split_condition": 0.208973646, "yes": 511, "no": 512, "missing": 511 , "children": [
                    { "nodeid": 511, "depth": 9, "split": "f3", "split_condition": -0.871223688, "yes": 907, "no": 908, "missing": 907 , "children": [
                      { "nodeid": 907, "leaf": 1.04317093 }, 
                      { "nodeid": 908, "leaf": -4.13841009 }
                    ]}, 
                    { "nodeid": 512, "depth": 9, "split": "f12", "split_condition": 0.522216082, "yes": 909, "no": 910, "missing": 909 , "children": [
                      { "nodeid": 909, "leaf": 11.0583887 }, 
                      { "nodeid": 910, "leaf": 1.83132875 }
                    ]}
                  ]}
                ]}
              ]}, 
              { "nodeid": 68, "depth": 6, "split": "f17", "split_condition": -0.716387212, "yes": 137, "no": 138, "missing": 137 , "children": [
                { "nodeid": 137, "depth": 7, "split": "f13", "split_condition": 1.9609499, "yes": 271, "no": 272, "missing": 271 , "children": [
                  { "nodeid": 271, "depth": 8, "split": "f1", "split_condition": -1.17988515, "yes": 513, "no": 514, "missing": 513 , "children": [
                    { "nodeid": 513, "depth": 9, "split": "f16", "split_condition": 0.420816183, "yes": 911, "no": 912, "missing": 911 , "children": [
                      { "nodeid": 911, "leaf": -13.305747 }, 
                      { "nodeid": 912, "leaf": -2.82165337 }
                    ]}, 
                    { "nodeid": 514, "depth": 9, "split": "f5", "split_condition": -0.679257154, "yes": 913, "no": 914, "missing": 913 , "children": [
                      { "nodeid": 913, "leaf": -10.432725 }, 
                      { "nodeid": 914, "leaf": -3.71640182 }
                    ]}
                  ]}, 
                  { "nodeid": 272, "depth": 8, "split": "f3", "split_condition": 1.24318612, "yes": 515, "no": 516, "missing": 515 , "children": [
                    { "nodeid": 515, "depth": 9, "split": "f10", "split_condition": -0.108509287, "yes": 915, "no": 916, "missing": 915 , "children": [
                      { "nodeid": 915, "leaf": -2.63937664 }, 
                      { "nodeid": 916, "leaf": 1.1532222 }
                    ]}, 
                    { "nodeid": 516, "leaf": 6.44664335 }
                  ]}
                ]}, 
                { "nodeid": 138, "depth": 7, "split": "f2", "split_condition": -0.354495943, "yes": 273, "no": 274, "missing": 273 , "children": [
                  { "nodeid": 273, "depth": 8, "split": "f5", "split_condition": 0.731238902, "yes": 517, "no": 518, "missing": 517 , "children": [
                    { "nodeid": 517, "depth": 9, "split": "f1", "split_condition": -0.917343855, "yes": 917, "no": 918, "missing": 917 , "children": [
                      { "nodeid": 917, "leaf": -10.3783407 }, 
                      { "nodeid": 918, "leaf": -4.62466478 }
                    ]}, 
                    { "nodeid": 518, "leaf": 3.24900055 }
                  ]}, 
                  { "nodeid": 274, "depth": 8, "split": "f12", "split_condition": 0.977918625, "yes": 519, "no": 520, "missing": 519 , "children": [
                    { "nodeid": 519, "depth": 9, "split": "f7", "split_condition": 0.298327833, "yes": 919, "no": 920, "missing": 919 , "children": [
                      { "nodeid": 919, "leaf": -2.4680953 }, 
                      { "nodeid": 920, "leaf": 4.79476309 }
                    ]}, 
                    { "nodeid": 520, "depth": 9, "split": "f12", "split_condition": 1.45272923, "yes": 921, "no": 922, "missing": 921 , "children": [
                      { "nodeid": 921, "leaf": 7.96651173 }, 
                      { "nodeid": 922, "leaf": 0.266678303 }
                    ]}
                  ]}
                ]}
              ]}
            ]}, 
            { "nodeid": 34, "depth": 5, "split": "f18", "split_condition": 0.68618387, "yes": 69, "no": 70, "missing": 69 , "children": [
              { "nodeid": 69, "depth": 6, "split": "f5", "split_condition": -0.254556805, "yes": 139, "no": 140, "missing": 139 , "children": [
                { "nodeid": 139, "depth": 7, "split": "f2", "split_condition": -0.355737984, "yes": 275, "no": 276, "missing": 275 , "children": [
                  { "nodeid": 275, "depth": 8, "split": "f13", "split_condition": -1.13187766, "yes": 521, "no": 522, "missing": 521 , "children": [
                    { "nodeid": 521, "depth": 9, "split": "f0", "split_condition": 1.25163901, "yes": 923, "no": 924, "missing": 923 , "children": [
                      { "nodeid": 923, "leaf": 1.17821586 }, 
                      { "nodeid": 924, "leaf": 0.0301702507 }
                    ]}, 
                    { "nodeid": 522, "depth": 9, "split": "f1", "split_condition": -0.410212308, "yes": 925, "no": 926, "missing": 925 , "children": [
                      { "nodeid": 925, "leaf": -11.0278997 }, 
                      { "nodeid": 926, "leaf": -0.155611798 }
                    ]}
                  ]}, 
                  { "nodeid": 276, "depth": 8, "split": "f0", "split_condition": 0.50099051, "yes": 523, "no": 524, "missing": 523 , "children": [
                    { "nodeid": 523, "depth": 9, "split": "f3", "split_condition": -0.530221879, "yes": 927, "no": 928, "missing": 927 , "children": [
                      { "nodeid": 927, "leaf": -4.64269114 }, 
                      { "nodeid": 928, "leaf": 5.03511858 }
                    ]}, 
                    { "nodeid": 524, "depth": 9, "split": "f5", "split_condition": -0.632452667, "yes": 929, "no": 930, "missing": 929 , "children": [
                      { "nodeid": 929, "leaf": -9.42963314 }, 
                      { "nodeid": 930, "leaf": -1.80085301 }
                    ]}
                  ]}
                ]}, 
                { "nodeid": 140, "depth": 7, "split": "f17", "split_condition": -2.13146973, "yes": 277, "no": 278, "missing": 277 , "children": [
                  { "nodeid": 277, "depth": 8, "split": "f0", "split_condition": 0.758794665, "yes": 525, "no": 526, "missing": 525 , "children": [
                    { "nodeid": 525, "leaf": -6.48902607 }, 
                    { "nodeid": 526, "leaf": -0.968181252 }
                  ]}, 
                  { "nodeid": 278, "depth": 8, "split": "f1", "split_condition": -1.18332028, "yes": 527, "no": 528, "missing": 527 , "children": [
                    { "nodeid": 527, "depth": 9, "split": "f2", "split_condition": 0.330735475, "yes": 931, "no": 932, "missing": 931 , "children": [
                      { "nodeid": 931, "leaf": -2.24246335 }, 
                      { "nodeid": 932, "leaf": -0.756335139 }
                    ]}, 
                    { "nodeid": 528, "depth": 9, "split": "f16", "split_condition": -1.67251396, "yes": 933, "no": 934, "missing": 933 , "children": [
                      { "nodeid": 933, "leaf": -2.6307919 }, 
                      { "nodeid": 934, "leaf": 5.22218943 }
                    ]}
                  ]}
                ]}
              ]}, 
              { "nodeid": 70, "depth": 6, "split": "f10", "split_condition": -0.00296708569, "yes": 141, "no": 142, "missing": 141 , "children": [
                { "nodeid": 141, "depth": 7, "split": "f3", "split_condition": -0.206810161, "yes": 279, "no": 280, "missing": 279 , "children": [
                  { "nodeid": 279, "depth": 8, "split": "f0", "split_condition": -0.25641188, "yes": 529, "no": 530, "missing": 529 , "children": [
                    { "nodeid": 529, "leaf": 0.13387087 }, 
                    { "nodeid": 530, "leaf": -1.31374526 }
                  ]}, 
                  { "nodeid": 280, "leaf": 5.19697475 }
                ]}, 
                { "nodeid": 142, "depth": 7, "split": "f1", "split_condition": -1.17719889, "yes": 281, "no": 282, "missing": 281 , "children": [
                  { "nodeid": 281, "leaf": 2.26386118 }, 
                  { "nodeid": 282, "leaf": 10.9072924 }
                ]}
              ]}
            ]}
          ]}
        ]}, 
        { "nodeid": 8, "depth": 3, "split": "f7", "split_condition": -0.879571021, "yes": 17, "no": 18, "missing": 17 , "children": [
          { "nodeid": 17, "depth": 4, "split": "f17", "split_condition": -0.747204185, "yes": 35, "no": 36, "missing": 35 , "children": [
            { "nodeid": 35, "depth": 5, "split": "f1", "split_condition": -0.42470637, "yes": 71, "no": 72, "missing": 71 , "children": [
              { "nodeid": 71, "depth": 6, "split": "f2", "split_condition": 1.35934019, "yes": 143, "no": 144, "missing": 143 , "children": [
                { "nodeid": 143, "depth": 7, "split": "f14", "split_condition": 1.56183219, "yes": 283, "no": 284, "missing": 283 , "children": [
                  { "nodeid": 283, "depth": 8, "split": "f10", "split_condition": -0.342196941, "yes": 531, "no": 532, "missing": 531 , "children": [
                    { "nodeid": 531, "leaf": -23.7431011 }, 
                    { "nodeid": 532, "depth": 9, "split": "f18", "split_condition": 0.507262826, "yes": 935, "no": 936, "missing": 935 , "children": [
                      { "nodeid": 935, "leaf": -14.6719255 }, 
                      { "nodeid": 936, "leaf": -6.66761637 }
                    ]}
                  ]}, 
                  { "nodeid": 284, "leaf": -4.23233318 }
                ]}, 
                { "nodeid": 144, "leaf": -0.538968682 }
              ]}, 
              { "nodeid": 72, "depth": 6, "split": "f2", "split_condition": 0.322814226, "yes": 145, "no": 146, "missing": 145 , "children": [
                { "nodeid": 145, "leaf": -4.47577524 }, 
                { "nodeid": 146, "leaf": -1.23659408 }
              ]}
            ]}, 
            { "nodeid": 36, "depth": 5, "split": "f15", "split_condition": -0.583867431, "yes": 73, "no": 74, "missing": 73 , "children": [
              { "nodeid": 73, "leaf": -13.9010696 }, 
              { "nodeid": 74, "depth": 6, "split": "f10", "split_condition": 0.437197268, "yes": 147, "no": 148, "missing": 147 , "children": [
                { "nodeid": 147, "depth": 7, "split": "f0", "split_condition": -1.33065128, "yes": 285, "no": 286, "missing": 285 , "children": [
                  { "nodeid": 285, "leaf": -0.500789106 }, 
                  { "nodeid": 286, "depth": 8, "split": "f15", "split_condition": 0.709485054, "yes": 533, "no": 534, "missing": 533 , "children": [
                    { "nodeid": 533, "leaf": -9.90951347 }, 
                    { "nodeid": 534, "depth": 9, "split": "f0", "split_condition": -0.0755715445, "yes": 937, "no": 938, "missing": 937 , "children": [
                      { "nodeid": 937, "leaf": -0.709989965 }, 
                      { "nodeid": 938, "leaf": -4.18037891 }
                    ]}
                  ]}
                ]}, 
                { "nodeid": 148, "depth": 7, "split": "f2", "split_condition": 0.409968674, "yes": 287, "no": 288, "missing": 287 , "children": [
                  { "nodeid": 287, "leaf": 4.60295916 }, 
                  { "nodeid": 288, "depth": 8, "split": "f0", "split_condition": -0.355400026, "yes": 535, "no": 536, "missing": 535 , "children": [
                    { "nodeid": 535, "leaf": 0.792078018 }, 
                    { "nodeid": 536, "leaf": -0.130125433 }
                  ]}
                ]}
              ]}
            ]}
          ]}, 
          { "nodeid": 18, "depth": 4, "split": "f10", "split_condition": -0.185998753, "yes": 37, "no": 38, "missing": 37 , "children": [
            { "nodeid": 37, "depth": 5, "split": "f18", "split_condition": 0.626414061, "yes": 75, "no": 76, "missing": 75 , "children": [
              { "nodeid": 75, "depth": 6, "split": "f5", "split_condition": -0.245521769, "yes": 149, "no": 150, "missing": 149 , "children": [
                { "nodeid": 149, "depth": 7, "split": "f11", "split_condition": 1.57682872, "yes": 289, "no": 290, "missing": 289 , "children": [
                  { "nodeid": 289, "depth": 8, "split": "f12", "split_condition": 0.253208101, "yes": 537, "no": 538, "missing": 537 , "children": [
                    { "nodeid": 537, "depth": 9, "split": "f12", "split_condition": -0.170473605, "yes": 939, "no": 940, "missing": 939 , "children": [
                      { "nodeid": 939, "leaf": -9.41666603 }, 
                      { "nodeid": 940, "leaf": -2.57284737 }
                    ]}, 
                    { "nodeid": 538, "depth": 9, "split": "f2", "split_condition": 0.113530897, "yes": 941, "no": 942, "missing": 941 , "children": [
                      { "nodeid": 941, "leaf": -17.1727467 }, 
                      { "nodeid": 942, "leaf": -6.47156239 }
                    ]}
                  ]}, 
                  { "nodeid": 290, "leaf": 2.78524661 }
                ]}, 
                { "nodeid": 150, "depth": 7, "split": "f8", "split_condition": -0.102771014, "yes": 291, "no": 292, "missing": 291 , "children": [
                  { "nodeid": 291, "depth": 8, "split": "f0", "split_condition": -1.01399565, "yes": 539, "no": 540, "missing": 539 , "children": [
                    { "nodeid": 539, "depth": 9, "split": "f0", "split_condition": -1.29108655, "yes": 943, "no": 944, "missing": 943 , "children": [
                      { "nodeid": 943, "leaf": 0.0699038506 }, 
                      { "nodeid": 944, "leaf": 0.0182260517 }
                    ]}, 
                    { "nodeid": 540, "depth": 9, "split": "f5", "split_condition": 0.43767488, "yes": 945, "no": 946, "missing": 945 , "children": [
                      { "nodeid": 945, "leaf": -4.26089764 }, 
                      { "nodeid": 946, "leaf": -10.54251 }
                    ]}
                  ]}, 
                  { "nodeid": 292, "depth": 8, "split": "f15", "split_condition": 0.334308237, "yes": 541, "no": 542, "missing": 541 , "children": [
                    { "nodeid": 541, "depth": 9, "split": "f10", "split_condition": -0.453366369, "yes": 947, "no": 948, "missing": 947 , "children": [
                      { "nodeid": 947, "leaf": -5.73944998 }, 
                      { "nodeid": 948, "leaf": 2.11912322 }
                    ]}, 
                    { "nodeid": 542, "depth": 9, "split": "f5", "split_condition": 0.0502206273, "yes": 949, "no": 950, "missing": 949 , "children": [
                      { "nodeid": 949, "leaf": 0.16365014 }, 
                      { "nodeid": 950, "leaf": 3.87104774 }
                    ]}
                  ]}
                ]}
              ]}, 
              { "nodeid": 76, "depth": 6, "split": "f0", "split_condition": -0.887417197, "yes": 151, "no": 152, "missing": 151 , "children": [
                { "nodeid": 151, "depth": 7, "split": "f2", "split_condition": 0.101284266, "yes": 293, "no": 294, "missing": 293 , "children": [
                  { "nodeid": 293, "leaf": -12.9269714 }, 
                  { "nodeid": 294, "depth": 8, "split": "f0", "split_condition": -1.6514554, "yes": 543, "no": 544, "missing": 543 , "children": [
                    { "nodeid": 543, "leaf": -1.79563367 }, 
                    { "nodeid": 544, "leaf": 0.322984368 }
                  ]}
                ]}, 
                { "nodeid": 152, "depth": 7, "split": "f16", "split_condition": 1.07039714, "yes": 295, "no": 296, "missing": 295 , "children": [
                  { "nodeid": 295, "depth": 8, "split": "f0", "split_condition": 0.700401902, "yes": 545, "no": 546, "missing": 545 , "children": [
                    { "nodeid": 545, "depth": 9, "split": "f5", "split_condition": -0.334218323, "yes": 951, "no": 952, "missing": 951 , "children": [
                      { "nodeid": 951, "leaf": 1.74592018 }, 
                      { "nodeid": 952, "leaf": 4.63661528 }
                    ]}, 
                    { "nodeid": 546, "leaf": 8.86305714 }
                  ]}, 
                  { "nodeid": 296, "depth": 8, "split": "f10", "split_condition": -0.782691836, "yes": 547, "no": 548, "missing": 547 , "children": [
                    { "nodeid": 547, "depth": 9, "split": "f5", "split_condition": 0.182504609, "yes": 953, "no": 954, "missing": 953 , "children": [
                      { "nodeid": 953, "leaf": -0.806607723 }, 
                      { "nodeid": 954, "leaf": 1.25757742 }
                    ]}, 
                    { "nodeid": 548, "depth": 9, "split": "f0", "split_condition": 1.59961176, "yes": 955, "no": 956, "missing": 955 , "children": [
                      { "nodeid": 955, "leaf": -3.66812563 }, 
                      { "nodeid": 956, "leaf": -0.935480595 }
                    ]}
                  ]}
                ]}
              ]}
            ]}, 
            { "nodeid": 38, "depth": 5, "split": "f7", "split_condition": 1.17007065, "yes": 77, "no": 78, "missing": 77 , "children": [
              { "nodeid": 77, "depth": 6, "split": "f15", "split_condition": -0.529232502, "yes": 153, "no": 154, "missing": 153 , "children": [
                { "nodeid": 153, "depth": 7, "split": "f2", "split_condition": -0.453705609, "yes": 297, "no": 298, "missing": 297 , "children": [
                  { "nodeid": 297, "depth": 8, "split": "f7", "split_condition": 0.637749434, "yes": 549, "no": 550, "missing": 549 , "children": [
                    { "nodeid": 549, "leaf": -11.5752487 }, 
                    { "nodeid": 550, "leaf": 0.881796658 }
                  ]}, 
                  { "nodeid": 298, "depth": 8, "split": "f8", "split_condition": -0.264895469, "yes": 551, "no": 552, "missing": 551 , "children": [
                    { "nodeid": 551, "depth": 9, "split": "f14", "split_condition": 0.644189239, "yes": 957, "no": 958, "missing": 957 , "children": [
                      { "nodeid": 957, "leaf": 1.20788491 }, 
                      { "nodeid": 958, "leaf": -2.31854749 }
                    ]}, 
                    { "nodeid": 552, "depth": 9, "split": "f15", "split_condition": -1.91385174, "yes": 959, "no": 960, "missing": 959 , "children": [
                      { "nodeid": 959, "leaf": -0.275647372 }, 
                      { "nodeid": 960, "leaf": -6.00503922 }
                    ]}
                  ]}
                ]}, 
                { "nodeid": 154, "depth": 7, "split": "f16", "split_condition": 1.86794496, "yes": 299, "no": 300, "missing": 299 , "children": [
                  { "nodeid": 299, "depth": 8, "split": "f15", "split_condition": 1.00906444, "yes": 553, "no": 554, "missing": 553 , "children": [
                    { "nodeid": 553, "depth": 9, "split": "f8", "split_condition": 1.47440088, "yes": 961, "no": 962, "missing": 961 , "children": [
                      { "nodeid": 961, "leaf": -1.87900603 }, 
                      { "nodeid": 962, "leaf": 9.24006939 }
                    ]}, 
                    { "nodeid": 554, "depth": 9, "split": "f18", "split_condition": 0.584142268, "yes": 963, "no": 964, "missing": 963 , "children": [
                      { "nodeid": 963, "leaf": 1.92091775 }, 
                      { "nodeid": 964, "leaf": 8.25840378 }
                    ]}
                  ]}, 
                  { "nodeid": 300, "depth": 8, "split": "f1", "split_condition": -1.43653917, "yes": 555, "no": 556, "missing": 555 , "children": [
                    { "nodeid": 555, "leaf": -0.0164558422 }, 
                    { "nodeid": 556, "leaf": 10.6618986 }
                  ]}
                ]}
              ]}, 
              { "nodeid": 78, "depth": 6, "split": "f3", "split_condition": -0.149154812, "yes": 155, "no": 156, "missing": 155 , "children": [
                { "nodeid": 155, "depth": 7, "split": "f12", "split_condition": 0.355697364, "yes": 301, "no": 302, "missing": 301 , "children": [
                  { "nodeid": 301, "depth": 8, "split": "f7", "split_condition": 1.26154065, "yes": 557, "no": 558, "missing": 557 , "children": [
                    { "nodeid": 557, "leaf": -6.66812372 }, 
                    { "nodeid": 558, "depth": 9, "split": "f0", "split_condition": -0.08072339, "yes": 965, "no": 966, "missing": 965 , "children": [
                      { "nodeid": 965, "leaf": 0.180210158 }, 
                      { "nodeid": 966, "leaf": -1.33356726 }
                    ]}
                  ]}, 
                  { "nodeid": 302, "depth": 8, "split": "f10", "split_condition": 0.25390476, "yes": 559, "no": 560, "missing": 559 , "children": [
                    { "nodeid": 559, "leaf": -2.57565928 }, 
                    { "nodeid": 560, "depth": 9, "split": "f0", "split_condition": 1.03911495, "yes": 967, "no": 968, "missing": 967 , "children": [
                      { "nodeid": 967, "leaf": 6.56556797 }, 
                      { "nodeid": 968, "leaf": 1.82076287 }
                    ]}
                  ]}
                ]}, 
                { "nodeid": 156, "depth": 7, "split": "f11", "split_condition": 1.51169908, "yes": 303, "no": 304, "missing": 303 , "children": [
                  { "nodeid": 303, "leaf": 16.8106613 }, 
                  { "nodeid": 304, "leaf": 3.09829235 }
                ]}
              ]}
            ]}
          ]}
        ]}
      ]}, 
      { "nodeid": 4, "depth": 2, "split": "f7", "split_condition": -0.979242444, "yes": 9, "no": 10, "missing": 9 , "children": [
        { "nodeid": 9, "depth": 3, "split": "f10", "split_condition": 0.398490191, "yes": 19, "no": 20, "missing": 19 , "children": [
          { "nodeid": 19, "depth": 4, "split": "f17", "split_condition": 1.35648942, "yes": 39, "no": 40, "missing": 39 , "children": [
            { "nodeid": 39, "depth": 5, "split": "f18", "split_condition": 0.333074689, "yes": 79, "no": 80, "missing": 79 , "children": [
              { "nodeid": 79, "depth": 6, "split": "f16", "split_condition": -0.594597936, "yes": 157, "no": 158, "missing": 157 , "children": [
                { "nodeid": 157, "depth": 7, "split": "f11", "split_condition": 1.67518139, "yes": 305, "no": 306, "missing": 305 , "children": [
                  { "nodeid": 305, "depth": 8, "split": "f15", "split_condition": 1.13522208, "yes": 561, "no": 562, "missing": 561 , "children": [
                    { "nodeid": 561, "leaf": -20.2341423 }, 
                    { "nodeid": 562, "leaf": -2.7650001 }
                  ]}, 
                  { "nodeid": 306, "leaf": -1.47997212 }
                ]}, 
                { "nodeid": 158, "depth": 7, "split": "f3", "split_condition": -0.315133929, "yes": 307, "no": 308, "missing": 307 , "children": [
                  { "nodeid": 307, "depth": 8, "split": "f2", "split_condition": 0.172434181, "yes": 563, "no": 564, "missing": 563 , "children": [
                    { "nodeid": 563, "depth": 9, "split": "f17", "split_condition": 1.00628591, "yes": 969, "no": 970, "missing": 969 , "children": [
                      { "nodeid": 969, "leaf": -18.7567654 }, 
                      { "nodeid": 970, "leaf": -3.98075938 }
                    ]}, 
                    { "nodeid": 564, "depth": 9, "split": "f0", "split_condition": 0.526142478, "yes": 971, "no": 972, "missing": 971 , "children": [
                      { "nodeid": 971, "leaf": -11.2926207 }, 
                      { "nodeid": 972, "leaf": -0.990025699 }
                    ]}
                  ]}, 
                  { "nodeid": 308, "depth": 8, "split": "f1", "split_condition": -0.902955055, "yes": 565, "no": 566, "missing": 565 , "children": [
                    { "nodeid": 565, "depth": 9, "split": "f7", "split_condition": -1.61418128, "yes": 973, "no": 974, "missing": 973 , "children": [
                      { "nodeid": 973, "leaf": -5.92880583 }, 
                      { "nodeid": 974, "leaf": -14.458724 }
                    ]}, 
                    { "nodeid": 566, "depth": 9, "split": "f12", "split_condition": -0.504255235, "yes": 975, "no": 976, "missing": 975 , "children": [
                      { "nodeid": 975, "leaf": -11.0636673 }, 
                      { "nodeid": 976, "leaf": -4.50978041 }
                    ]}
                  ]}
                ]}
              ]}, 
              { "nodeid": 80, "depth": 6, "split": "f17", "split_condition": 0.039293848, "yes": 159, "no": 160, "missing": 159 , "children": [
                { "nodeid": 159, "depth": 7, "split": "f5", "split_condition": 0.0916903839, "yes": 309, "no": 310, "missing": 309 , "children": [
                  { "nodeid": 309, "depth": 8, "split": "f1", "split_condition": -0.780560315, "yes": 567, "no": 568, "missing": 567 , "children": [
                    { "nodeid": 567, "leaf": -21.3237667 }, 
                    { "nodeid": 568, "leaf": -6.89423323 }
                  ]}, 
                  { "nodeid": 310, "depth": 8, "split": "f0", "split_condition": 0.641875863, "yes": 569, "no": 570, "missing": 569 , "children": [
                    { "nodeid": 569, "leaf": -5.94051456 }, 
                    { "nodeid": 570, "depth": 9, "split": "f1", "split_condition": -0.813435078, "yes": 977, "no": 978, "missing": 977 , "children": [
                      { "nodeid": 977, "leaf": -0.456298828 }, 
                      { "nodeid": 978, "leaf": -1.976174 }
                    ]}
                  ]}
                ]}, 
                { "nodeid": 160, "depth": 7, "split": "f16", "split_condition": 0.383585542, "yes": 311, "no": 312, "missing": 311 , "children": [
                  { "nodeid": 311, "depth": 8, "split": "f12", "split_condition": 1.72920632, "yes": 571, "no": 572, "missing": 571 , "children": [
                    { "nodeid": 571, "depth": 9, "split": "f15", "split_condition": 1.42254901, "yes": 979, "no": 980, "missing": 979 , "children": [
                      { "nodeid": 979, "leaf": -9.63424206 }, 
                      { "nodeid": 980, "leaf": 0.386126757 }
                    ]}, 
                    { "nodeid": 572, "depth": 9, "split": "f0", "split_condition": 0.166562065, "yes": 981, "no": 982, "missing": 981 , "children": [
                      { "nodeid": 981, "leaf": -1.18247533 }, 
                      { "nodeid": 982, "leaf": 6.70748138 }
                    ]}
                  ]}, 
                  { "nodeid": 312, "depth": 8, "split": "f8", "split_condition": 0.369257689, "yes": 573, "no": 574, "missing": 573 , "children": [
                    { "nodeid": 573, "depth": 9, "split": "f2", "split_condition": 0.04392685, "yes": 983, "no": 984, "missing": 983 , "children": [
                      { "nodeid": 983, "leaf": 1.82102811 }, 
                      { "nodeid": 984, "leaf": 7.57491302 }
                    ]}, 
                    { "nodeid": 574, "leaf": -3.49590468 }
                  ]}
                ]}
              ]}
            ]}, 
            { "nodeid": 40, "depth": 5, "split": "f12", "split_condition": 0.896207392, "yes": 81, "no": 82, "missing": 81 , "children": [
              { "nodeid": 81, "depth": 6, "split": "f12", "split_condition": 0.22745496, "yes": 161, "no": 162, "missing": 161 , "children": [
                { "nodeid": 161, "depth": 7, "split": "f11", "split_condition": 0.624459267, "yes": 313, "no": 314, "missing": 313 , "children": [
                  { "nodeid": 313, "depth": 8, "split": "f7", "split_condition": -1.69108367, "yes": 575, "no": 576, "missing": 575 , "children": [
                    { "nodeid": 575, "leaf": 1.98234594 }, 
                    { "nodeid": 576, "leaf": -4.25765944 }
                  ]}, 
                  { "nodeid": 314, "depth": 8, "split": "f0", "split_condition": -0.293368518, "yes": 577, "no": 578, "missing": 577 , "children": [
                    { "nodeid": 577, "leaf": -0.273952812 }, 
                    { "nodeid": 578, "leaf": 3.88794971 }
                  ]}
                ]}, 
                { "nodeid": 162, "leaf": -8.27101517 }
              ]}, 
              { "nodeid": 82, "depth": 6, "split": "f1", "split_condition": -0.887590945, "yes": 163, "no": 164, "missing": 163 , "children": [
                { "nodeid": 163, "leaf": 2.20335317 }, 
                { "nodeid": 164, "leaf": 9.04927444 }
              ]}
            ]}
          ]}, 
          { "nodeid": 20, "depth": 4, "split": "f15", "split_condition": 0.409444511, "yes": 41, "no": 42, "missing": 41 , "children": [
            { "nodeid": 41, "depth": 5, "split": "f17", "split_condition": 1.09238434, "yes": 83, "no": 84, "missing": 83 , "children": [
              { "nodeid": 83, "depth": 6, "split": "f1", "split_condition": -2.25274515, "yes": 165, "no": 166, "missing": 165 , "children": [
                { "nodeid": 165, "leaf": -21.7738056 }, 
                { "nodeid": 166, "depth": 7, "split": "f16", "split_condition": 0.499735236, "yes": 315, "no": 316, "missing": 315 , "children": [
                  { "nodeid": 315, "depth": 8, "split": "f12", "split_condition": -0.617207289, "yes": 579, "no": 580, "missing": 579 , "children": [
                    { "nodeid": 579, "depth": 9, "split": "f8", "split_condition": 0.646726012, "yes": 985, "no": 986, "missing": 985 , "children": [
                      { "nodeid": 985, "leaf": -5.35064554 }, 
                      { "nodeid": 986, "leaf": 0.401035786 }
                    ]}, 
                    { "nodeid": 580, "depth": 9, "split": "f14", "split_condition": 0.916128993, "yes": 987, "no": 988, "missing": 987 , "children": [
                      { "nodeid": 987, "leaf": -13.5880299 }, 
                      { "nodeid": 988, "leaf": -3.47148013 }
                    ]}
                  ]}, 
                  { "nodeid": 316, "depth": 8, "split": "f5", "split_condition": 1.05112171, "yes": 581, "no": 582, "missing": 581 , "children": [
                    { "nodeid": 581, "depth": 9, "split": "f11", "split_condition": 0.397335708, "yes": 989, "no": 990, "missing": 989 , "children": [
                      { "nodeid": 989, "leaf": -3.00540614 }, 
                      { "nodeid": 990, "leaf": -9.67927742 }
                    ]}, 
                    { "nodeid": 582, "leaf": 2.9219749 }
                  ]}
                ]}
              ]}, 
              { "nodeid": 84, "depth": 6, "split": "f5", "split_condition": -1.50797498, "yes": 167, "no": 168, "missing": 167 , "children": [
                { "nodeid": 167, "leaf": -10.5290365 }, 
                { "nodeid": 168, "depth": 7, "split": "f12", "split_condition": 0.185824186, "yes": 317, "no": 318, "missing": 317 , "children": [
                  { "nodeid": 317, "depth": 8, "split": "f3", "split_condition": 1.14659154, "yes": 583, "no": 584, "missing": 583 , "children": [
                    { "nodeid": 583, "leaf": -1.40840018 }, 
                    { "nodeid": 584, "depth": 9, "split": "f0", "split_condition": 1.39004207, "yes": 991, "no": 992, "missing": 991 , "children": [
                      { "nodeid": 991, "leaf": 0.0710111335 }, 
                      { "nodeid": 992, "leaf": -0.156859592 }
                    ]}
                  ]}, 
                  { "nodeid": 318, "depth": 8, "split": "f10", "split_condition": 1.54037952, "yes": 585, "no": 586, "missing": 585 , "children": [
                    { "nodeid": 585, "leaf": 6.04977989 }, 
                    { "nodeid": 586, "leaf": 2.76438904 }
                  ]}
                ]}
              ]}
            ]}, 
            { "nodeid": 42, "depth": 5, "split": "f16", "split_condition": 0.384448767, "yes": 85, "no": 86, "missing": 85 , "children": [
              { "nodeid": 85, "depth": 6, "split": "f17", "split_condition": 0.258723974, "yes": 169, "no": 170, "missing": 169 , "children": [
                { "nodeid": 169, "depth": 7, "split": "f7", "split_condition": -1.22896171, "yes": 319, "no": 320, "missing": 319 , "children": [
                  { "nodeid": 319, "depth": 8, "split": "f1", "split_condition": -0.504351974, "yes": 587, "no": 588, "missing": 587 , "children": [
                    { "nodeid": 587, "leaf": -9.35100842 }, 
                    { "nodeid": 588, "leaf": -2.67458582 }
                  ]}, 
                  { "nodeid": 320, "leaf": -0.296032161 }
                ]}, 
                { "nodeid": 170, "depth": 7, "split": "f1", "split_condition": -0.918241143, "yes": 321, "no": 322, "missing": 321 , "children": [
                  { "nodeid": 321, "depth": 8, "split": "f7", "split_condition": -1.36361003, "yes": 589, "no": 590, "missing": 589 , "children": [
                    { "nodeid": 589, "leaf": -8.7205925 }, 
                    { "nodeid": 590, "depth": 9, "split": "f0", "split_condition": 0.68756634, "yes": 993, "no": 994, "missing": 993 , "children": [
                      { "nodeid": 993, "leaf": -1.06246603 }, 
                      { "nodeid": 994, "leaf": 1.64373207 }
                    ]}
                  ]}, 
                  { "nodeid": 322, "depth": 8, "split": "f15", "split_condition": 1.24523091, "yes": 591, "no": 592, "missing": 591 , "children": [
                    { "nodeid": 591, "leaf": 9.20423698 }, 
                    { "nodeid": 592, "depth": 9, "split": "f0", "split_condition": -0.130279377, "yes": 995, "no": 996, "missing": 995 , "children": [
                      { "nodeid": 995, "leaf": -0.294754595 }, 
                      { "nodeid": 996, "leaf": 2.50238109 }
                    ]}
                  ]}
                ]}
              ]}, 
              { "nodeid": 86, "depth": 6, "split": "f18", "split_condition": -0.521094322, "yes": 171, "no": 172, "missing": 171 , "children": [
                { "nodeid": 171, "depth": 7, "split": "f0", "split_condition": 0.00631596148, "yes": 323, "no": 324, "missing": 323 , "children": [
                  { "nodeid": 323, "leaf": -1.81381857 }, 
                  { "nodeid": 324, "leaf": 4.72209501 }
                ]}, 
                { "nodeid": 172, "depth": 7, "split": "f15", "split_condition": 1.39020538, "yes": 325, "no": 326, "missing": 325 , "children": [
                  { "nodeid": 325, "leaf": 5.17887974 }, 
                  { "nodeid": 326, "leaf": 13.2914019 }
                ]}
              ]}
            ]}
          ]}
        ]}, 
        { "nodeid": 10, "depth": 3, "split": "f16", "split_condition": -0.389824033, "yes": 21, "no": 22, "missing": 21 , "children": [
          { "nodeid": 21, "depth": 4, "split": "f2", "split_condition": 0.0464308411, "yes": 43, "no": 44, "missing": 43 , "children": [
            { "nodeid": 43, "depth": 5, "split": "f1", "split_condition": -1.05459905, "yes": 87, "no": 88, "missing": 87 , "children": [
              { "nodeid": 87, "depth": 6, "split": "f7", "split_condition": 0.395970047, "yes": 173, "no": 174, "missing": 173 , "children": [
                { "nodeid": 173, "depth": 7, "split": "f14", "split_condition": -1.48105264, "yes": 327, "no": 328, "missing": 327 , "children": [
                  { "nodeid": 327, "leaf": -21.7331066 }, 
                  { "nodeid": 328, "depth": 8, "split": "f17", "split_condition": 1.11376405, "yes": 593, "no": 594, "missing": 593 , "children": [
                    { "nodeid": 593, "depth": 9, "split": "f14", "split_condition": -0.787746727, "yes": 997, "no": 998, "missing": 997 , "children": [
                      { "nodeid": 997, "leaf": -18.1085243 }, 
                      { "nodeid": 998, "leaf": -10.4112425 }
                    ]}, 
                    { "nodeid": 594, "depth": 9, "split": "f7", "split_condition": -0.0326768272, "yes": 999, "no": 1000, "missing": 999 , "children": [
                      { "nodeid": 999, "leaf": -1.17899323 }, 
                      { "nodeid": 1000, "leaf": -8.65584373 }
                    ]}
                  ]}
                ]}, 
                { "nodeid": 174, "depth": 7, "split": "f5", "split_condition": 0.858537734, "yes": 329, "no": 330, "missing": 329 , "children": [
                  { "nodeid": 329, "depth": 8, "split": "f7", "split_condition": 1.90844655, "yes": 595, "no": 596, "missing": 595 , "children": [
                    { "nodeid": 595, "depth": 9, "split": "f8", "split_condition": 1.47970545, "yes": 1001, "no": 1002, "missing": 1001 , "children": [
                      { "nodeid": 1001, "leaf": -10.0626945 }, 
                      { "nodeid": 1002, "leaf": 0.764467478 }
                    ]}, 
                    { "nodeid": 596, "leaf": 5.42984915 }
                  ]}, 
                  { "nodeid": 330, "depth": 8, "split": "f2", "split_condition": -0.985779643, "yes": 597, "no": 598, "missing": 597 , "children": [
                    { "nodeid": 597, "leaf": -3.40867591 }, 
                    { "nodeid": 598, "depth": 9, "split": "f3", "split_condition": -0.524341643, "yes": 1003, "no": 1004, "missing": 1003 , "children": [
                      { "nodeid": 1003, "leaf": 0.151594028 }, 
                      { "nodeid": 1004, "leaf": 4.30269003 }
                    ]}
                  ]}
                ]}
              ]}, 
              { "nodeid": 88, "depth": 6, "split": "f15", "split_condition": 0.332720935, "yes": 175, "no": 176, "missing": 175 , "children": [
                { "nodeid": 175, "depth": 7, "split": "f10", "split_condition": -0.222179204, "yes": 331, "no": 332, "missing": 331 , "children": [
                  { "nodeid": 331, "depth": 8, "split": "f5", "split_condition": 0.842643738, "yes": 599, "no": 600, "missing": 599 , "children": [
                    { "nodeid": 599, "depth": 9, "split": "f18", "split_condition": 1.01715374, "yes": 1005, "no": 1006, "missing": 1005 , "children": [
                      { "nodeid": 1005, "leaf": -13.4075384 }, 
                      { "nodeid": 1006, "leaf": -4.72903442 }
                    ]}, 
                    { "nodeid": 600, "depth": 9, "split": "f0", "split_condition": 0.331084073, "yes": 1007, "no": 1008, "missing": 1007 , "children": [
                      { "nodeid": 1007, "leaf": 4.54577541 }, 
                      { "nodeid": 1008, "leaf": -3.37061357 }
                    ]}
                  ]}, 
                  { "nodeid": 332, "depth": 8, "split": "f1", "split_condition": -0.56389451, "yes": 601, "no": 602, "missing": 601 , "children": [
                    { "nodeid": 601, "depth": 9, "split": "f14", "split_condition": 0.637635827, "yes": 1009, "no": 1010, "missing": 1009 , "children": [
                      { "nodeid": 1009, "leaf": -8.4279604 }, 
                      { "nodeid": 1010, "leaf": -1.67831385 }
                    ]}, 
                    { "nodeid": 602, "depth": 9, "split": "f8", "split_condition": 0.745889068, "yes": 1011, "no": 1012, "missing": 1011 , "children": [
                      { "nodeid": 1011, "leaf": -3.1318326 }, 
                      { "nodeid": 1012, "leaf": 2.36572766 }
                    ]}
                  ]}
                ]}, 
                { "nodeid": 176, "depth": 7, "split": "f17", "split_condition": 0.420491517, "yes": 333, "no": 334, "missing": 333 , "children": [
                  { "nodeid": 333, "depth": 8, "split": "f12", "split_condition": 0.755141735, "yes": 603, "no": 604, "missing": 603 , "children": [
                    { "nodeid": 603, "depth": 9, "split": "f7", "split_condition": 0.937599897, "yes": 1013, "no": 1014, "missing": 1013 , "children": [
                      { "nodeid": 1013, "leaf": -8.43747234 }, 
                      { "nodeid": 1014, "leaf": -1.52293563 }
                    ]}, 
                    { "nodeid": 604, "depth": 9, "split": "f3", "split_condition": 0.888235807, "yes": 1015, "no": 1016, "missing": 1015 , "children": [
                      { "nodeid": 1015, "leaf": -2.56978965 }, 
                      { "nodeid": 1016, "leaf": 4.38050222 }
                    ]}
                  ]}, 
                  { "nodeid": 334, "depth": 8, "split": "f10", "split_condition": -0.281650186, "yes": 605, "no": 606, "missing": 605 , "children": [
                    { "nodeid": 605, "depth": 9, "split": "f12", "split_condition": 1.37432384, "yes": 1017, "no": 1018, "missing": 1017 , "children": [
                      { "nodeid": 1017, "leaf": 0.0459781662 }, 
                      { "nodeid": 1018, "leaf": -9.83782005 }
                    ]}, 
                    { "nodeid": 606, "depth": 9, "split": "f5", "split_condition": -0.708113313, "yes": 1019, "no": 1020, "missing": 1019 , "children": [
                      { "nodeid": 1019, "leaf": -0.985223889 }, 
                      { "nodeid": 1020, "leaf": 5.31361532 }
                    ]}
                  ]}
                ]}
              ]}
            ]}, 
            { "nodeid": 44, "depth": 5, "split": "f18", "split_condition": 0.948104143, "yes": 89, "no": 90, "missing": 89 , "children": [
              { "nodeid": 89, "depth": 6, "split": "f16", "split_condition": -1.17044127, "yes": 177, "no": 178, "missing": 177 , "children": [
                { "nodeid": 177, "depth": 7, "split": "f5", "split_condition": -0.217468157, "yes": 335, "no": 336, "missing": 335 , "children": [
                  { "nodeid": 335, "depth": 8, "split": "f0", "split_condition": 0.499233335, "yes": 607, "no": 608, "missing": 607 , "children": [
                    { "nodeid": 607, "depth": 9, "split": "f15", "split_condition": 0.905444801, "yes": 1021, "no": 1022, "missing": 1021 , "children": [
                      { "nodeid": 1021, "leaf": -15.4435492 }, 
                      { "nodeid": 1022, "leaf": -5.9417429 }
                    ]}, 
                    { "nodeid": 608, "depth": 9, "split": "f7", "split_condition": 0.0974715725, "yes": 1023, "no": 1024, "missing": 1023 , "children": [
                      { "nodeid": 1023, "leaf": 4.42693186 }, 
                      { "nodeid": 1024, "leaf": -2.47942424 }
                    ]}
                  ]}, 
                  { "nodeid": 336, "depth": 8, "split": "f17", "split_condition": 1.21616411, "yes": 609, "no": 610, "missing": 609 , "children": [
                    { "nodeid": 609, "depth": 9, "split": "f3", "split_condition": 0.0184871443, "yes": 1025, "no": 1026, "missing": 1025 , "children": [
                      { "nodeid": 1025, "leaf": -6.67041779 }, 
                      { "nodeid": 1026, "leaf": -0.551670969 }
                    ]}, 
                    { "nodeid": 610, "depth": 9, "split": "f15", "split_condition": 0.560779452, "yes": 1027, "no": 1028, "missing": 1027 , "children": [
                      { "nodeid": 1027, "leaf": 1.5459069 }, 
                      { "nodeid": 1028, "leaf": 7.6685648 }
                    ]}
                  ]}
                ]}, 
                { "nodeid": 178, "depth": 7, "split": "f15", "split_condition": 0.700280905, "yes": 337, "no": 338, "missing": 337 , "children": [
                  { "nodeid": 337, "depth": 8, "split": "f1", "split_condition": -1.4819206, "yes": 611, "no": 612, "missing": 611 , "children": [
                    { "nodeid": 611, "depth": 9, "split": "f5", "split_condition": 1.42096353, "yes": 1029, "no": 1030, "missing": 1029 , "children": [
                      { "nodeid": 1029, "leaf": -9.89159775 }, 
                      { "nodeid": 1030, "leaf": 4.94643879 }
                    ]}, 
                    { "nodeid": 612, "depth": 9, "split": "f7", "split_condition": 0.299094856, "yes": 1031, "no": 1032, "missing": 1031 , "children": [
                      { "nodeid": 1031, "leaf": -3.27646756 }, 
                      { "nodeid": 1032, "leaf": 1.65004373 }
                    ]}
                  ]}, 
                  { "nodeid": 338, "depth": 8, "split": "f12", "split_condition": 0.904250741, "yes": 613, "no": 614, "missing": 613 , "children": [
                    { "nodeid": 613, "depth": 9, "split": "f8", "split_condition": -0.0739867464, "yes": 1033, "no": 1034, "missing": 1033 , "children": [
                      { "nodeid": 1033, "leaf": -1.72018623 }, 
                      { "nodeid": 1034, "leaf": 6.23751163 }
                    ]}, 
                    { "nodeid": 614, "leaf": 15.107439 }
                  ]}
                ]}
              ]}, 
              { "nodeid": 90, "depth": 6, "split": "f2", "split_condition": 1.47820425, "yes": 179, "no": 180, "missing": 179 , "children": [
                { "nodeid": 179, "depth": 7, "split": "f14", "split_condition": -0.635989785, "yes": 339, "no": 340, "missing": 339 , "children": [
                  { "nodeid": 339, "depth": 8, "split": "f14", "split_condition": -1.55530894, "yes": 615, "no": 616, "missing": 615 , "children": [
                    { "nodeid": 615, "leaf": -5.3241663 }, 
                    { "nodeid": 616, "depth": 9, "split": "f2", "split_condition": 0.298422039, "yes": 1035, "no": 1036, "missing": 1035 , "children": [
                      { "nodeid": 1035, "leaf": -2.31742811 }, 
                      { "nodeid": 1036, "leaf": 0.0646438971 }
                    ]}
                  ]}, 
                  { "nodeid": 340, "depth": 8, "split": "f17", "split_condition": -0.00979904458, "yes": 617, "no": 618, "missing": 617 , "children": [
                    { "nodeid": 617, "depth": 9, "split": "f11", "split_condition": 0.725411296, "yes": 1037, "no": 1038, "missing": 1037 , "children": [
                      { "nodeid": 1037, "leaf": 1.2141118 }, 
                      { "nodeid": 1038, "leaf": -4.28060293 }
                    ]}, 
                    { "nodeid": 618, "depth": 9, "split": "f3", "split_condition": -0.571576476, "yes": 1039, "no": 1040, "missing": 1039 , "children": [
                      { "nodeid": 1039, "leaf": 0.921871841 }, 
                      { "nodeid": 1040, "leaf": 8.08704281 }
                    ]}
                  ]}
                ]}, 
                { "nodeid": 180, "depth": 7, "split": "f7", "split_condition": 0.333945334, "yes": 341, "no": 342, "missing": 341 , "children": [
                  { "nodeid": 341, "leaf": 3.33507085 }, 
                  { "nodeid": 342, "leaf": 12.7337971 }
                ]}
              ]}
            ]}
          ]}, 
          { "nodeid": 22, "depth": 4, "split": "f10", "split_condition": -0.104407325, "yes": 45, "no": 46, "missing": 45 , "children": [
            { "nodeid": 45, "depth": 5, "split": "f18", "split_condition": 0.732218027, "yes": 91, "no": 92, "missing": 91 , "children": [
              { "nodeid": 91, "depth": 6, "split": "f14", "split_condition": -0.512658536, "yes": 181, "no": 182, "missing": 181 , "children": [
                { "nodeid": 181, "depth": 7, "split": "f17", "split_condition": 1.86006856, "yes": 343, "no": 344, "missing": 343 , "children": [
                  { "nodeid": 343, "depth": 8, "split": "f2", "split_condition": 0.0337336399, "yes": 619, "no": 620, "missing": 619 , "children": [
                    { "nodeid": 619, "depth": 9, "split": "f15", "split_condition": -1.13509786, "yes": 1041, "no": 1042, "missing": 1041 , "children": [
                      { "nodeid": 1041, "leaf": -19.0349255 }, 
                      { "nodeid": 1042, "leaf": -9.02094364 }
                    ]}, 
                    { "nodeid": 620, "depth": 9, "split": "f17", "split_condition": 0.901972055, "yes": 1043, "no": 1044, "missing": 1043 , "children": [
                      { "nodeid": 1043, "leaf": -6.82731342 }, 
                      { "nodeid": 1044, "leaf": 1.79980743 }
                    ]}
                  ]}, 
                  { "nodeid": 344, "depth": 8, "split": "f12", "split_condition": -0.313332379, "yes": 621, "no": 622, "missing": 621 , "children": [
                    { "nodeid": 621, "leaf": 11.699379 }, 
                    { "nodeid": 622, "depth": 9, "split": "f0", "split_condition": -0.841049552, "yes": 1045, "no": 1046, "missing": 1045 , "children": [
                      { "nodeid": 1045, "leaf": -5.4082818 }, 
                      { "nodeid": 1046, "leaf": 2.00097013 }
                    ]}
                  ]}
                ]}, 
                { "nodeid": 182, "depth": 7, "split": "f3", "split_condition": 0.0607172623, "yes": 345, "no": 346, "missing": 345 , "children": [
                  { "nodeid": 345, "depth": 8, "split": "f15", "split_condition": 0.920581937, "yes": 623, "no": 624, "missing": 623 , "children": [
                    { "nodeid": 623, "depth": 9, "split": "f2", "split_condition": -0.361394644, "yes": 1047, "no": 1048, "missing": 1047 , "children": [
                      { "nodeid": 1047, "leaf": -9.76812363 }, 
                      { "nodeid": 1048, "leaf": -3.43354034 }
                    ]}, 
                    { "nodeid": 624, "depth": 9, "split": "f8", "split_condition": -1.12394881, "yes": 1049, "no": 1050, "missing": 1049 , "children": [
                      { "nodeid": 1049, "leaf": -6.83934879 }, 
                      { "nodeid": 1050, "leaf": 4.82932043 }
                    ]}
                  ]}, 
                  { "nodeid": 346, "depth": 8, "split": "f15", "split_condition": -1.50879431, "yes": 625, "no": 626, "missing": 625 , "children": [
                    { "nodeid": 625, "depth": 9, "split": "f14", "split_condition": 1.11922669, "yes": 1051, "no": 1052, "missing": 1051 , "children": [
                      { "nodeid": 1051, "leaf": -12.7850943 }, 
                      { "nodeid": 1052, "leaf": -1.73095322 }
                    ]}, 
                    { "nodeid": 626, "depth": 9, "split": "f7", "split_condition": 1.19147062, "yes": 1053, "no": 1054, "missing": 1053 , "children": [
                      { "nodeid": 1053, "leaf": 0.809479654 }, 
                      { "nodeid": 1054, "leaf": 8.93407345 }
                    ]}
                  ]}
                ]}
              ]}, 
              { "nodeid": 92, "depth": 6, "split": "f1", "split_condition": -1.14305842, "yes": 183, "no": 184, "missing": 183 , "children": [
                { "nodeid": 183, "depth": 7, "split": "f12", "split_condition": 0.45087266, "yes": 347, "no": 348, "missing": 347 , "children": [
                  { "nodeid": 347, "depth": 8, "split": "f13", "split_condition": 0.85868001, "yes": 627, "no": 628, "missing": 627 , "children": [
                    { "nodeid": 627, "depth": 9, "split": "f1", "split_condition": -1.48191714, "yes": 1055, "no": 1056, "missing": 1055 , "children": [
                      { "nodeid": 1055, "leaf": -8.45265484 }, 
                      { "nodeid": 1056, "leaf": -2.8780396 }
                    ]}, 
                    { "nodeid": 628, "leaf": 2.85419822 }
                  ]}, 
                  { "nodeid": 348, "depth": 8, "split": "f10", "split_condition": -0.759832382, "yes": 629, "no": 630, "missing": 629 , "children": [
                    { "nodeid": 629, "depth": 9, "split": "f0", "split_condition": -0.45624125, "yes": 1057, "no": 1058, "missing": 1057 , "children": [
                      { "nodeid": 1057, "leaf": -2.15614438 }, 
                      { "nodeid": 1058, "leaf": 0.880684316 }
                    ]}, 
                    { "nodeid": 630, "leaf": 7.26025248 }
                  ]}
                ]}, 
                { "nodeid": 184, "depth": 7, "split": "f2", "split_condition": -0.71581775, "yes": 349, "no": 350, "missing": 349 , "children": [
                  { "nodeid": 349, "depth": 8, "split": "f15", "split_condition": -0.345317572, "yes": 631, "no": 632, "missing": 631 , "children": [
                    { "nodeid": 631, "leaf": -5.35140181 }, 
                    { "nodeid": 632, "depth": 9, "split": "f7", "split_condition": 0.0909702554, "yes": 1059, "no": 1060, "missing": 1059 , "children": [
                      { "nodeid": 1059, "leaf": -1.34286249 }, 
                      { "nodeid": 1060, "leaf": 3.42554832 }
                    ]}
                  ]}, 
                  { "nodeid": 350, "depth": 8, "split": "f15", "split_condition": -0.456055135, "yes": 633, "no": 634, "missing": 633 , "children": [
                    { "nodeid": 633, "depth": 9, "split": "f7", "split_condition": -0.0210779049, "yes": 1061, "no": 1062, "missing": 1061 , "children": [
                      { "nodeid": 1061, "leaf": -0.246880695 }, 
                      { "nodeid": 1062, "leaf": 6.12587929 }
                    ]}, 
                    { "nodeid": 634, "depth": 9, "split": "f17", "split_condition": 0.35911727, "yes": 1063, "no": 1064, "missing": 1063 , "children": [
                      { "nodeid": 1063, "leaf": 3.63640571 }, 
                      { "nodeid": 1064, "leaf": 14.2093782 }
                    ]}
                  ]}
                ]}
              ]}
            ]}, 
            { "nodeid": 46, "depth": 5, "split": "f2", "split_condition": 0.442168176, "yes": 93, "no": 94, "missing": 93 , "children": [
              { "nodeid": 93, "depth": 6, "split": "f15", "split_condition": -1.2387253, "yes": 185, "no": 186, "missing": 185 , "children": [
                { "nodeid": 185, "depth": 7, "split": "f16", "split_condition": 1.07328367, "yes": 351, "no": 352, "missing": 351 , "children": [
                  { "nodeid": 351, "depth": 8, "split": "f17", "split_condition": 0.371244073, "yes": 635, "no": 636, "missing": 635 , "children": [
                    { "nodeid": 635, "depth": 9, "split": "f5", "split_condition": -0.307701081, "yes": 1065, "no": 1066, "missing": 1065 , "children": [
                      { "nodeid": 1065, "leaf": -17.4177456 }, 
                      { "nodeid": 1066, "leaf": -8.71309948 }
                    ]}, 
                    { "nodeid": 636, "depth": 9, "split": "f3", "split_condition": 1.61459756, "yes": 1067, "no": 1068, "missing": 1067 , "children": [
                      { "nodeid": 1067, "leaf": -4.66706657 }, 
                      { "nodeid": 1068, "leaf": 6.54716825 }
                    ]}
                  ]}, 
                  { "nodeid": 352, "depth": 8, "split": "f2", "split_condition": -1.16487598, "yes": 637, "no": 638, "missing": 637 , "children": [
                    { "nodeid": 637, "leaf": -6.45417356 }, 
                    { "nodeid": 638, "depth": 9, "split": "f1", "split_condition": -1.02280235, "yes": 1069, "no": 1070, "missing": 1069 , "children": [
                      { "nodeid": 1069, "leaf": 1.64128816 }, 
                      { "nodeid": 1070, "leaf": 6.48296738 }
                    ]}
                  ]}
                ]}, 
                { "nodeid": 186, "depth": 7, "split": "f2", "split_condition": -0.939191163, "yes": 353, "no": 354, "missing": 353 , "children": [
                  { "nodeid": 353, "depth": 8, "split": "f16", "split_condition": 0.673941612, "yes": 639, "no": 640, "missing": 639 , "children": [
                    { "nodeid": 639, "depth": 9, "split": "f5", "split_condition": -0.184247032, "yes": 1071, "no": 1072, "missing": 1071 , "children": [
                      { "nodeid": 1071, "leaf": -7.7327342 }, 
                      { "nodeid": 1072, "leaf": -1.7010119 }
                    ]}, 
                    { "nodeid": 640, "depth": 9, "split": "f10", "split_condition": 0.0284011103, "yes": 1073, "no": 1074, "missing": 1073 , "children": [
                      { "nodeid": 1073, "leaf": -5.89214087 }, 
                      { "nodeid": 1074, "leaf": 4.32489252 }
                    ]}
                  ]}, 
                  { "nodeid": 354, "depth": 8, "split": "f1", "split_condition": -1.01892853, "yes": 641, "no": 642, "missing": 641 , "children": [
                    { "nodeid": 641, "depth": 9, "split": "f10", "split_condition": 0.948117971, "yes": 1075, "no": 1076, "missing": 1075 , "children": [
                      { "nodeid": 1075, "leaf": -2.22544909 }, 
                      { "nodeid": 1076, "leaf": 4.28719091 }
                    ]}, 
                    { "nodeid": 642, "depth": 9, "split": "f14", "split_condition": -0.385238886, "yes": 1077, "no": 1078, "missing": 1077 , "children": [
                      { "nodeid": 1077, "leaf": 0.782410562 }, 
                      { "nodeid": 1078, "leaf": 8.06334972 }
                    ]}
                  ]}
                ]}
              ]}, 
              { "nodeid": 94, "depth": 6, "split": "f15", "split_condition": 1.15197802, "yes": 187, "no": 188, "missing": 187 , "children": [
                { "nodeid": 187, "depth": 7, "split": "f14", "split_condition": 0.498728037, "yes": 355, "no": 356, "missing": 355 , "children": [
                  { "nodeid": 355, "depth": 8, "split": "f1", "split_condition": -0.766296148, "yes": 643, "no": 644, "missing": 643 , "children": [
                    { "nodeid": 643, "depth": 9, "split": "f18", "split_condition": 0.198484421, "yes": 1079, "no": 1080, "missing": 1079 , "children": [
                      { "nodeid": 1079, "leaf": -3.16315746 }, 
                      { "nodeid": 1080, "leaf": 4.76837301 }
                    ]}, 
                    { "nodeid": 644, "depth": 9, "split": "f15", "split_condition": -1.73466134, "yes": 1081, "no": 1082, "missing": 1081 , "children": [
                      { "nodeid": 1081, "leaf": -4.85738087 }, 
                      { "nodeid": 1082, "leaf": 8.84864044 }
                    ]}
                  ]}, 
                  { "nodeid": 356, "depth": 8, "split": "f16", "split_condition": 0.498051226, "yes": 645, "no": 646, "missing": 645 , "children": [
                    { "nodeid": 645, "depth": 9, "split": "f7", "split_condition": -0.272214055, "yes": 1083, "no": 1084, "missing": 1083 , "children": [
                      { "nodeid": 1083, "leaf": -3.80453753 }, 
                      { "nodeid": 1084, "leaf": 7.51789713 }
                    ]}, 
                    { "nodeid": 646, "depth": 9, "split": "f7", "split_condition": 1.34480596, "yes": 1085, "no": 1086, "missing": 1085 , "children": [
                      { "nodeid": 1085, "leaf": 10.5078535 }, 
                      { "nodeid": 1086, "leaf": 23.5019035 }
                    ]}
                  ]}
                ]}, 
                { "nodeid": 188, "depth": 7, "split": "f7", "split_condition": 0.529528558, "yes": 357, "no": 358, "missing": 357 , "children": [
                  { "nodeid": 357, "depth": 8, "split": "f1", "split_condition": -1.14387441, "yes": 647, "no": 648, "missing": 647 , "children": [
                    { "nodeid": 647, "leaf": 4.04041815 }, 
                    { "nodeid": 648, "leaf": 11.6891651 }
                  ]}, 
                  { "nodeid": 358, "depth": 8, "split": "f1", "split_condition": -0.385480165, "yes": 649, "no": 650, "missing": 649 , "children": [
                    { "nodeid": 649, "leaf": 18.9642715 }, 
                    { "nodeid": 650, "leaf": 4.62120295 }
                  ]}
                ]}
              ]}
            ]}
          ]}
        ]}
      ]}
    ]}, 
    { "nodeid": 2, "depth": 1, "split": "f17", "split_condition": -0.0506059453, "yes": 5, "no": 6, "missing": 5 , "children": [
      { "nodeid": 5, "depth": 2, "split": "f1", "split_condition": 1.025949, "yes": 11, "no": 12, "missing": 11 , "children": [
        { "nodeid": 11, "depth": 3, "split": "f7", "split_condition": 0.094030425, "yes": 23, "no": 24, "missing": 23 , "children": [
          { "nodeid": 23, "depth": 4, "split": "f10", "split_condition": -0.123529956, "yes": 47, "no": 48, "missing": 47 , "children": [
            { "nodeid": 47, "depth": 5, "split": "f17", "split_condition": -1.28302789, "yes": 95, "no": 96, "missing": 95 , "children": [
              { "nodeid": 95, "depth": 6, "split": "f14", "split_condition": 1.65281224, "yes": 189, "no": 190, "missing": 189 , "children": [
                { "nodeid": 189, "depth": 7, "split": "f18", "split_condition": -1.20879996, "yes": 359, "no": 360, "missing": 359 , "children": [
                  { "nodeid": 359, "depth": 8, "split": "f11", "split_condition": -0.237690181, "yes": 651, "no": 652, "missing": 651 , "children": [
                    { "nodeid": 651, "leaf": -11.9510641 }, 
                    { "nodeid": 652, "leaf": -27.3703556 }
                  ]}, 
                  { "nodeid": 360, "depth": 8, "split": "f5", "split_condition": 0.55154109, "yes": 653, "no": 654, "missing": 653 , "children": [
                    { "nodeid": 653, "depth": 9, "split": "f11", "split_condition": 0.374577314, "yes": 1087, "no": 1088, "missing": 1087 , "children": [
                      { "nodeid": 1087, "leaf": -11.3300438 }, 
                      { "nodeid": 1088, "leaf": -19.0392113 }
                    ]}, 
                    { "nodeid": 654, "depth": 9, "split": "f8", "split_condition": 0.61120832, "yes": 1089, "no": 1090, "missing": 1089 , "children": [
                      { "nodeid": 1089, "leaf": -8.70123291 }, 
                      { "nodeid": 1090, "leaf": 1.62588334 }
                    ]}
                  ]}
                ]}, 
                { "nodeid": 190, "depth": 7, "split": "f2", "split_condition": 0.880061269, "yes": 361, "no": 362, "missing": 361 , "children": [
                  { "nodeid": 361, "depth": 8, "split": "f0", "split_condition": -0.279284805, "yes": 655, "no": 656, "missing": 655 , "children": [
                    { "nodeid": 655, "leaf": -3.34758759 }, 
                    { "nodeid": 656, "depth": 9, "split": "f0", "split_condition": 0.820392966, "yes": 1091, "no": 1092, "missing": 1091 , "children": [
                      { "nodeid": 1091, "leaf": 0.787950516 }, 
                      { "nodeid": 1092, "leaf": 0.100279033 }
                    ]}
                  ]}, 
                  { "nodeid": 362, "leaf": 6.64615345 }
                ]}
              ]}, 
              { "nodeid": 96, "depth": 6, "split": "f18", "split_condition": 0.566582203, "yes": 191, "no": 192, "missing": 191 , "children": [
                { "nodeid": 191, "depth": 7, "split": "f7", "split_condition": -1.22131205, "yes": 363, "no": 364, "missing": 363 , "children": [
                  { "nodeid": 363, "depth": 8, "split": "f16", "split_condition": 0.745837808, "yes": 657, "no": 658, "missing": 657 , "children": [
                    { "nodeid": 657, "depth": 9, "split": "f13", "split_condition": 0.991219044, "yes": 1093, "no": 1094, "missing": 1093 , "children": [
                      { "nodeid": 1093, "leaf": -14.3811893 }, 
                      { "nodeid": 1094, "leaf": -7.1268754 }
                    ]}, 
                    { "nodeid": 658, "depth": 9, "split": "f13", "split_condition": 0.516763926, "yes": 1095, "no": 1096, "missing": 1095 , "children": [
                      { "nodeid": 1095, "leaf": -2.97613764 }, 
                      { "nodeid": 1096, "leaf": -11.5412483 }
                    ]}
                  ]}, 
                  { "nodeid": 364, "depth": 8, "split": "f14", "split_condition": -0.740538239, "yes": 659, "no": 660, "missing": 659 , "children": [
                    { "nodeid": 659, "depth": 9, "split": "f5", "split_condition": -0.0799191967, "yes": 1097, "no": 1098, "missing": 1097 , "children": [
                      { "nodeid": 1097, "leaf": -14.9323502 }, 
                      { "nodeid": 1098, "leaf": -8.06145382 }
                    ]}, 
                    { "nodeid": 660, "depth": 9, "split": "f2", "split_condition": 0.120365307, "yes": 1099, "no": 1100, "missing": 1099 , "children": [
                      { "nodeid": 1099, "leaf": -6.59023762 }, 
                      { "nodeid": 1100, "leaf": -1.48685062 }
                    ]}
                  ]}
                ]}, 
                { "nodeid": 192, "depth": 7, "split": "f5", "split_condition": 0.575420499, "yes": 365, "no": 366, "missing": 365 , "children": [
                  { "nodeid": 365, "depth": 8, "split": "f16", "split_condition": -0.990979671, "yes": 661, "no": 662, "missing": 661 , "children": [
                    { "nodeid": 661, "depth": 9, "split": "f0", "split_condition": 0.544181824, "yes": 1101, "no": 1102, "missing": 1101 , "children": [
                      { "nodeid": 1101, "leaf": -15.1265669 }, 
                      { "nodeid": 1102, "leaf": -5.37591839 }
                    ]}, 
                    { "nodeid": 662, "depth": 9, "split": "f2", "split_condition": 0.244582891, "yes": 1103, "no": 1104, "missing": 1103 , "children": [
                      { "nodeid": 1103, "leaf": -3.72961211 }, 
                      { "nodeid": 1104, "leaf": 2.84024024 }
                    ]}
                  ]}, 
                  { "nodeid": 366, "depth": 8, "split": "f8", "split_condition": 0.815728784, "yes": 663, "no": 664, "missing": 663 , "children": [
                    { "nodeid": 663, "depth": 9, "split": "f13", "split_condition": 0.409031332, "yes": 1105, "no": 1106, "missing": 1105 , "children": [
                      { "nodeid": 1105, "leaf": 4.30227232 }, 
                      { "nodeid": 1106, "leaf": -4.77357435 }
                    ]}, 
                    { "nodeid": 664, "depth": 9, "split": "f5", "split_condition": 0.608563662, "yes": 1107, "no": 1108, "missing": 1107 , "children": [
                      { "nodeid": 1107, "leaf": 1.72393572 }, 
                      { "nodeid": 1108, "leaf": 10.066186 }
                    ]}
                  ]}
                ]}
              ]}
            ]}, 
            { "nodeid": 48, "depth": 5, "split": "f2", "split_condition": 0.544792056, "yes": 97, "no": 98, "missing": 97 , "children": [
              { "nodeid": 97, "depth": 6, "split": "f16", "split_condition": 0.0491311476, "yes": 193, "no": 194, "missing": 193 , "children": [
                { "nodeid": 193, "depth": 7, "split": "f7", "split_condition": -0.452120423, "yes": 367, "no": 368, "missing": 367 , "children": [
                  { "nodeid": 367, "depth": 8, "split": "f18", "split_condition": -0.0796771571, "yes": 665, "no": 666, "missing": 665 , "children": [
                    { "nodeid": 665, "depth": 9, "split": "f5", "split_condition": 0.627080083, "yes": 1109, "no": 1110, "missing": 1109 , "children": [
                      { "nodeid": 1109, "leaf": -12.725852 }, 
                      { "nodeid": 1110, "leaf": -3.52591181 }
                    ]}, 
                    { "nodeid": 666, "depth": 9, "split": "f0", "split_condition": 0.265393525, "yes": 1111, "no": 1112, "missing": 1111 , "children": [
                      { "nodeid": 1111, "leaf": -8.99846172 }, 
                      { "nodeid": 1112, "leaf": 0.217994019 }
                    ]}
                  ]}, 
                  { "nodeid": 368, "depth": 8, "split": "f14", "split_condition": -0.446665406, "yes": 667, "no": 668, "missing": 667 , "children": [
                    { "nodeid": 667, "depth": 9, "split": "f17", "split_condition": -0.543414712, "yes": 1113, "no": 1114, "missing": 1113 , "children": [
                      { "nodeid": 1113, "leaf": -11.5901794 }, 
                      { "nodeid": 1114, "leaf": 1.11428583 }
                    ]}, 
                    { "nodeid": 668, "depth": 9, "split": "f5", "split_condition": 0.0426279791, "yes": 1115, "no": 1116, "missing": 1115 , "children": [
                      { "nodeid": 1115, "leaf": -3.01479459 }, 
                      { "nodeid": 1116, "leaf": 2.82156587 }
                    ]}
                  ]}
                ]}, 
                { "nodeid": 194, "depth": 7, "split": "f17", "split_condition": -0.575197577, "yes": 369, "no": 370, "missing": 369 , "children": [
                  { "nodeid": 369, "depth": 8, "split": "f14", "split_condition": -0.89135617, "yes": 669, "no": 670, "missing": 669 , "children": [
                    { "nodeid": 669, "depth": 9, "split": "f2", "split_condition": -0.357075661, "yes": 1117, "no": 1118, "missing": 1117 , "children": [
                      { "nodeid": 1117, "leaf": -14.7713346 }, 
                      { "nodeid": 1118, "leaf": -5.57632828 }
                    ]}, 
                    { "nodeid": 670, "depth": 9, "split": "f18", "split_condition": 0.349964648, "yes": 1119, "no": 1120, "missing": 1119 , "children": [
                      { "nodeid": 1119, "leaf": -4.41763735 }, 
                      { "nodeid": 1120, "leaf": 3.80312467 }
                    ]}
                  ]}, 
                  { "nodeid": 370, "depth": 8, "split": "f16", "split_condition": 0.926328778, "yes": 671, "no": 672, "missing": 671 , "children": [
                    { "nodeid": 671, "depth": 9, "split": "f14", "split_condition": 1.05239415, "yes": 1121, "no": 1122, "missing": 1121 , "children": [
                      { "nodeid": 1121, "leaf": -2.14479256 }, 
                      { "nodeid": 1122, "leaf": 6.48597813 }
                    ]}, 
                    { "nodeid": 672, "depth": 9, "split": "f13", "split_condition": 0.633395851, "yes": 1123, "no": 1124, "missing": 1123 , "children": [
                      { "nodeid": 1123, "leaf": 3.07353473 }, 
                      { "nodeid": 1124, "leaf": 10.5131168 }
                    ]}
                  ]}
                ]}
              ]}, 
              { "nodeid": 98, "depth": 6, "split": "f15", "split_condition": 1.57544994, "yes": 195, "no": 196, "missing": 195 , "children": [
                { "nodeid": 195, "depth": 7, "split": "f16", "split_condition": -0.0171034485, "yes": 371, "no": 372, "missing": 371 , "children": [
                  { "nodeid": 371, "depth": 8, "split": "f16", "split_condition": -1.32229114, "yes": 673, "no": 674, "missing": 673 , "children": [
                    { "nodeid": 673, "depth": 9, "split": "f8", "split_condition": 0.714921713, "yes": 1125, "no": 1126, "missing": 1125 , "children": [
                      { "nodeid": 1125, "leaf": -11.1523123 }, 
                      { "nodeid": 1126, "leaf": -0.558619201 }
                    ]}, 
                    { "nodeid": 674, "depth": 9, "split": "f1", "split_condition": -0.0621144995, "yes": 1127, "no": 1128, "missing": 1127 , "children": [
                      { "nodeid": 1127, "leaf": -6.28502417 }, 
                      { "nodeid": 1128, "leaf": 0.555004358 }
                    ]}
                  ]}, 
                  { "nodeid": 372, "depth": 8, "split": "f15", "split_condition": 0.048614122, "yes": 675, "no": 676, "missing": 675 , "children": [
                    { "nodeid": 675, "depth": 9, "split": "f8", "split_condition": 0.674189448, "yes": 1129, "no": 1130, "missing": 1129 , "children": [
                      { "nodeid": 1129, "leaf": -0.541928828 }, 
                      { "nodeid": 1130, "leaf": 5.94592094 }
                    ]}, 
                    { "nodeid": 676, "depth": 9, "split": "f5", "split_condition": -1.53637052, "yes": 1131, "no": 1132, "missing": 1131 , "children": [
                      { "nodeid": 1131, "leaf": -1.85822034 }, 
                      { "nodeid": 1132, "leaf": 9.87225246 }
                    ]}
                  ]}
                ]}, 
                { "nodeid": 196, "depth": 7, "split": "f11", "split_condition": 1.83638895, "yes": 373, "no": 374, "missing": 373 , "children": [
                  { "nodeid": 373, "depth": 8, "split": "f5", "split_condition": 1.86724901, "yes": 677, "no": 678, "missing": 677 , "children": [
                    { "nodeid": 677, "depth": 9, "split": "f0", "split_condition": -0.331478655, "yes": 1133, "no": 1134, "missing": 1133 , "children": [
                      { "nodeid": 1133, "leaf": 4.16949177 }, 
                      { "nodeid": 1134, "leaf": 14.9517546 }
                    ]}, 
                    { "nodeid": 678, "leaf": 3.77404904 }
                  ]}, 
                  { "nodeid": 374, "depth": 8, "split": "f0", "split_condition": -0.00409670919, "yes": 679, "no": 680, "missing": 679 , "children": [
                    { "nodeid": 679, "leaf": -1.61341918 }, 
                    { "nodeid": 680, "leaf": -0.148783013 }
                  ]}
                ]}
              ]}
            ]}
          ]}, 
          { "nodeid": 24, "depth": 4, "split": "f16", "split_condition": -0.0111945979, "yes": 49, "no": 50, "missing": 49 , "children": [
            { "nodeid": 49, "depth": 5, "split": "f10", "split_condition": -0.524362206, "yes": 99, "no": 100, "missing": 99 , "children": [
              { "nodeid": 99, "depth": 6, "split": "f8", "split_condition": -0.194639295, "yes": 197, "no": 198, "missing": 197 , "children": [
                { "nodeid": 197, "depth": 7, "split": "f2", "split_condition": 0.620487094, "yes": 375, "no": 376, "missing": 375 , "children": [
                  { "nodeid": 375, "depth": 8, "split": "f17", "split_condition": -0.193158552, "yes": 681, "no": 682, "missing": 681 , "children": [
                    { "nodeid": 681, "depth": 9, "split": "f10", "split_condition": -0.61559087, "yes": 1135, "no": 1136, "missing": 1135 , "children": [
                      { "nodeid": 1135, "leaf": -13.2622223 }, 
                      { "nodeid": 1136, "leaf": -5.37689257 }
                    ]}, 
                    { "nodeid": 682, "depth": 9, "split": "f8", "split_condition": -1.32077682, "yes": 1137, "no": 1138, "missing": 1137 , "children": [
                      { "nodeid": 1137, "leaf": 3.92806411 }, 
                      { "nodeid": 1138, "leaf": -5.79747725 }
                    ]}
                  ]}, 
                  { "nodeid": 376, "depth": 8, "split": "f8", "split_condition": -0.911430001, "yes": 683, "no": 684, "missing": 683 , "children": [
                    { "nodeid": 683, "depth": 9, "split": "f10", "split_condition": -1.0913291, "yes": 1139, "no": 1140, "missing": 1139 , "children": [
                      { "nodeid": 1139, "leaf": -3.33093309 }, 
                      { "nodeid": 1140, "leaf": 2.51871371 }
                    ]}, 
                    { "nodeid": 684, "depth": 9, "split": "f10", "split_condition": -1.22017813, "yes": 1141, "no": 1142, "missing": 1141 , "children": [
                      { "nodeid": 1141, "leaf": -12.5332232 }, 
                      { "nodeid": 1142, "leaf": -4.71650362 }
                    ]}
                  ]}
                ]}, 
                { "nodeid": 198, "depth": 7, "split": "f17", "split_condition": -0.156646907, "yes": 377, "no": 378, "missing": 377 , "children": [
                  { "nodeid": 377, "depth": 8, "split": "f3", "split_condition": -0.512577057, "yes": 685, "no": 686, "missing": 685 , "children": [
                    { "nodeid": 685, "depth": 9, "split": "f11", "split_condition": -0.988760471, "yes": 1143, "no": 1144, "missing": 1143 , "children": [
                      { "nodeid": 1143, "leaf": 1.67907333 }, 
                      { "nodeid": 1144, "leaf": -8.82423019 }
                    ]}, 
                    { "nodeid": 686, "depth": 9, "split": "f15", "split_condition": -0.325972497, "yes": 1145, "no": 1146, "missing": 1145 , "children": [
                      { "nodeid": 1145, "leaf": -5.52909327 }, 
                      { "nodeid": 1146, "leaf": 0.551739275 }
                    ]}
                  ]}, 
                  { "nodeid": 378, "depth": 8, "split": "f1", "split_condition": 0.136161715, "yes": 687, "no": 688, "missing": 687 , "children": [
                    { "nodeid": 687, "leaf": 0.0439492241 }, 
                    { "nodeid": 688, "leaf": 13.9666748 }
                  ]}
                ]}
              ]}, 
              { "nodeid": 100, "depth": 6, "split": "f2", "split_condition": -0.340237916, "yes": 199, "no": 200, "missing": 199 , "children": [
                { "nodeid": 199, "depth": 7, "split": "f18", "split_condition": 0.20947057, "yes": 379, "no": 380, "missing": 379 , "children": [
                  { "nodeid": 379, "depth": 8, "split": "f14", "split_condition": -0.599265695, "yes": 689, "no": 690, "missing": 689 , "children": [
                    { "nodeid": 689, "leaf": -11.5758848 }, 
                    { "nodeid": 690, "depth": 9, "split": "f10", "split_condition": 0.734243393, "yes": 1147, "no": 1148, "missing": 1147 , "children": [
                      { "nodeid": 1147, "leaf": -7.42759323 }, 
                      { "nodeid": 1148, "leaf": 1.59438753 }
                    ]}
                  ]}, 
                  { "nodeid": 380, "depth": 8, "split": "f15", "split_condition": -1.41282666, "yes": 691, "no": 692, "missing": 691 , "children": [
                    { "nodeid": 691, "leaf": -12.6138363 }, 
                    { "nodeid": 692, "depth": 9, "split": "f17", "split_condition": -0.654440224, "yes": 1149, "no": 1150, "missing": 1149 , "children": [
                      { "nodeid": 1149, "leaf": -2.43221259 }, 
                      { "nodeid": 1150, "leaf": 3.37703323 }
                    ]}
                  ]}
                ]}, 
                { "nodeid": 200, "depth": 7, "split": "f17", "split_condition": -1.34694159, "yes": 381, "no": 382, "missing": 381 , "children": [
                  { "nodeid": 381, "depth": 8, "split": "f15", "split_condition": -0.329085886, "yes": 693, "no": 694, "missing": 693 , "children": [
                    { "nodeid": 693, "depth": 9, "split": "f10", "split_condition": -0.0665040836, "yes": 1151, "no": 1152, "missing": 1151 , "children": [
                      { "nodeid": 1151, "leaf": 0.688846231 }, 
                      { "nodeid": 1152, "leaf": -11.8326616 }
                    ]}, 
                    { "nodeid": 694, "depth": 9, "split": "f2", "split_condition": -0.105011463, "yes": 1153, "no": 1154, "missing": 1153 , "children": [
                      { "nodeid": 1153, "leaf": 8.42802334 }, 
                      { "nodeid": 1154, "leaf": -2.26289868 }
                    ]}
                  ]}, 
                  { "nodeid": 382, "depth": 8, "split": "f18", "split_condition": -1.76181173, "yes": 695, "no": 696, "missing": 695 , "children": [
                    { "nodeid": 695, "depth": 9, "split": "f0", "split_condition": -0.474386454, "yes": 1155, "no": 1156, "missing": 1155 , "children": [
                      { "nodeid": 1155, "leaf": -14.8358479 }, 
                      { "nodeid": 1156, "leaf": -1.84515941 }
                    ]}, 
                    { "nodeid": 696, "depth": 9, "split": "f3", "split_condition": -0.214545041, "yes": 1157, "no": 1158, "missing": 1157 , "children": [
                      { "nodeid": 1157, "leaf": 0.845347047 }, 
                      { "nodeid": 1158, "leaf": 6.80202866 }
                    ]}
                  ]}
                ]}
              ]}
            ]}, 
            { "nodeid": 50, "depth": 5, "split": "f3", "split_condition": 0.123075917, "yes": 101, "no": 102, "missing": 101 , "children": [
              { "nodeid": 101, "depth": 6, "split": "f7", "split_condition": 0.525369942, "yes": 201, "no": 202, "missing": 201 , "children": [
                { "nodeid": 201, "depth": 7, "split": "f8", "split_condition": 0.682401657, "yes": 383, "no": 384, "missing": 383 , "children": [
                  { "nodeid": 383, "depth": 8, "split": "f13", "split_condition": 0.640141726, "yes": 697, "no": 698, "missing": 697 , "children": [
                    { "nodeid": 697, "depth": 9, "split": "f14", "split_condition": -0.142990321, "yes": 1159, "no": 1160, "missing": 1159 , "children": [
                      { "nodeid": 1159, "leaf": -5.24733448 }, 
                      { "nodeid": 1160, "leaf": 0.234959155 }
                    ]}, 
                    { "nodeid": 698, "depth": 9, "split": "f17", "split_condition": -0.241291538, "yes": 1161, "no": 1162, "missing": 1161 , "children": [
                      { "nodeid": 1161, "leaf": -9.39389324 }, 
                      { "nodeid": 1162, "leaf": 2.50520706 }
                    ]}
                  ]}, 
                  { "nodeid": 384, "depth": 8, "split": "f1", "split_condition": 0.441449404, "yes": 699, "no": 700, "missing": 699 , "children": [
                    { "nodeid": 699, "depth": 9, "split": "f0", "split_condition": 0.328627229, "yes": 1163, "no": 1164, "missing": 1163 , "children": [
                      { "nodeid": 1163, "leaf": -1.42919362 }, 
                      { "nodeid": 1164, "leaf": 4.87207651 }
                    ]}, 
                    { "nodeid": 700, "depth": 9, "split": "f1", "split_condition": 0.727564692, "yes": 1165, "no": 1166, "missing": 1165 , "children": [
                      { "nodeid": 1165, "leaf": 9.23063946 }, 
                      { "nodeid": 1166, "leaf": 1.98119354 }
                    ]}
                  ]}
                ]}, 
                { "nodeid": 202, "depth": 7, "split": "f2", "split_condition": 0.633936644, "yes": 385, "no": 386, "missing": 385 , "children": [
                  { "nodeid": 385, "depth": 8, "split": "f15", "split_condition": 0.799978614, "yes": 701, "no": 702, "missing": 701 , "children": [
                    { "nodeid": 701, "depth": 9, "split": "f17", "split_condition": -1.46924448, "yes": 1167, "no": 1168, "missing": 1167 , "children": [
                      { "nodeid": 1167, "leaf": -5.67728186 }, 
                      { "nodeid": 1168, "leaf": 1.21381426 }
                    ]}, 
                    { "nodeid": 702, "depth": 9, "split": "f0", "split_condition": -0.07304658, "yes": 1169, "no": 1170, "missing": 1169 , "children": [
                      { "nodeid": 1169, "leaf": -2.1133194 }, 
                      { "nodeid": 1170, "leaf": 11.0192709 }
                    ]}
                  ]}, 
                  { "nodeid": 386, "depth": 8, "split": "f1", "split_condition": 0.17671068, "yes": 703, "no": 704, "missing": 703 , "children": [
                    { "nodeid": 703, "depth": 9, "split": "f3", "split_condition": -1.43876481, "yes": 1171, "no": 1172, "missing": 1171 , "children": [
                      { "nodeid": 1171, "leaf": -6.67218018 }, 
                      { "nodeid": 1172, "leaf": 4.70800066 }
                    ]}, 
                    { "nodeid": 704, "depth": 9, "split": "f8", "split_condition": 0.0855697691, "yes": 1173, "no": 1174, "missing": 1173 , "children": [
                      { "nodeid": 1173, "leaf": 6.1194067 }, 
                      { "nodeid": 1174, "leaf": 12.414546 }
                    ]}
                  ]}
                ]}
              ]}, 
              { "nodeid": 102, "depth": 6, "split": "f2", "split_condition": -0.451364785, "yes": 203, "no": 204, "missing": 203 , "children": [
                { "nodeid": 203, "depth": 7, "split": "f7", "split_condition": 1.35204518, "yes": 387, "no": 388, "missing": 387 , "children": [
                  { "nodeid": 387, "depth": 8, "split": "f15", "split_condition": -0.445791513, "yes": 705, "no": 706, "missing": 705 , "children": [
                    { "nodeid": 705, "depth": 9, "split": "f10", "split_condition": 1.23167801, "yes": 1175, "no": 1176, "missing": 1175 , "children": [
                      { "nodeid": 1175, "leaf": -5.76229191 }, 
                      { "nodeid": 1176, "leaf": 5.74572468 }
                    ]}, 
                    { "nodeid": 706, "depth": 9, "split": "f14", "split_condition": -0.148189753, "yes": 1177, "no": 1178, "missing": 1177 , "children": [
                      { "nodeid": 1177, "leaf": -0.0807117298 }, 
                      { "nodeid": 1178, "leaf": 6.32164764 }
                    ]}
                  ]}, 
                  { "nodeid": 388, "depth": 8, "split": "f0", "split_condition": -0.809031129, "yes": 707, "no": 708, "missing": 707 , "children": [
                    { "nodeid": 707, "leaf": 3.0727272 }, 
                    { "nodeid": 708, "leaf": 15.5170746 }
                  ]}
                ]}, 
                { "nodeid": 204, "depth": 7, "split": "f18", "split_condition": -1.06754124, "yes": 389, "no": 390, "missing": 389 , "children": [
                  { "nodeid": 389, "depth": 8, "split": "f14", "split_condition": 0.0789660737, "yes": 709, "no": 710, "missing": 709 , "children": [
                    { "nodeid": 709, "depth": 9, "split": "f17", "split_condition": -0.716898322, "yes": 1179, "no": 1180, "missing": 1179 , "children": [
                      { "nodeid": 1179, "leaf": 0.907563627 }, 
                      { "nodeid": 1180, "leaf": -7.41104269 }
                    ]}, 
                    { "nodeid": 710, "depth": 9, "split": "f3", "split_condition": 0.679021239, "yes": 1181, "no": 1182, "missing": 1181 , "children": [
                      { "nodeid": 1181, "leaf": 0.485905319 }, 
                      { "nodeid": 1182, "leaf": 9.38471031 }
                    ]}
                  ]}, 
                  { "nodeid": 390, "depth": 8, "split": "f14", "split_condition": -0.487064898, "yes": 711, "no": 712, "missing": 711 , "children": [
                    { "nodeid": 711, "depth": 9, "split": "f1", "split_condition": 0.106890053, "yes": 1183, "no": 1184, "missing": 1183 , "children": [
                      { "nodeid": 1183, "leaf": 1.85304248 }, 
                      { "nodeid": 1184, "leaf": 8.70787716 }
                    ]}, 
                    { "nodeid": 712, "depth": 9, "split": "f15", "split_condition": 0.561387658, "yes": 1185, "no": 1186, "missing": 1185 , "children": [
                      { "nodeid": 1185, "leaf": 10.4205666 }, 
                      { "nodeid": 1186, "leaf": 18.1810188 }
                    ]}
                  ]}
                ]}
              ]}
            ]}
          ]}
        ]}, 
        { "nodeid": 12, "depth": 3, "split": "f2", "split_condition": 0.00150963245, "yes": 25, "no": 26, "missing": 25 , "children": [
          { "nodeid": 25, "depth": 4, "split": "f10", "split_condition": -0.283084035, "yes": 51, "no": 52, "missing": 51 , "children": [
            { "nodeid": 51, "depth": 5, "split": "f15", "split_condition": -0.620852351, "yes": 103, "no": 104, "missing": 103 , "children": [
              { "nodeid": 103, "depth": 6, "split": "f11", "split_condition": 0.115213096, "yes": 205, "no": 206, "missing": 205 , "children": [
                { "nodeid": 205, "depth": 7, "split": "f12", "split_condition": -0.80297792, "yes": 391, "no": 392, "missing": 391 , "children": [
                  { "nodeid": 391, "depth": 8, "split": "f2", "split_condition": -0.12772426, "yes": 713, "no": 714, "missing": 713 , "children": [
                    { "nodeid": 713, "leaf": -3.09487391 }, 
                    { "nodeid": 714, "leaf": 0.699156702 }
                  ]}, 
                  { "nodeid": 392, "depth": 8, "split": "f18", "split_condition": -0.307483971, "yes": 715, "no": 716, "missing": 715 , "children": [
                    { "nodeid": 715, "leaf": -18.0099926 }, 
                    { "nodeid": 716, "leaf": -7.91656113 }
                  ]}
