  { "nodeid": 0, "depth": 0, "split": "f0", "split_condition": 0.21376124, "yes": 1, "no": 2, "missing": 1 , "children": [
    { "nodeid": 1, "depth": 1, "split": "f11", "split_condition": 2.7718668, "yes": 3, "no": 4, "missing": 3 , "children": [
      { "nodeid": 3, "depth": 2, "split": "f10", "split_condition": -1.04460502, "yes": 7, "no": 8, "missing": 7 , "children": [
        { "nodeid": 7, "depth": 3, "split": "f1", "split_condition": -0.531244576, "yes": 15, "no": 16, "missing": 15 , "children": [
          { "nodeid": 15, "depth": 4, "split": "f17", "split_condition": -0.338638961, "yes": 29, "no": 30, "missing": 29 , "children": [
            { "nodeid": 29, "depth": 5, "split": "f1", "split_condition": -0.573464513, "yes": 53, "no": 54, "missing": 53 , "children": [
              { "nodeid": 53, "depth": 6, "split": "f16", "split_condition": -0.238284051, "yes": 99, "no": 100, "missing": 99 , "children": [
                { "nodeid": 99, "depth": 7, "split": "f10", "split_condition": -1.21965432, "yes": 187, "no": 188, "missing": 187 , "children": [
                  { "nodeid": 187, "depth": 8, "split": "f14", "split_condition": 0.805870533, "yes": 329, "no": 330, "missing": 329 , "children": [
                    { "nodeid": 329, "depth": 9, "split": "f6", "split_condition": -1.12780833, "yes": 529, "no": 530, "missing": 529 , "children": [
                      { "nodeid": 529, "leaf": 0.171681732 }, 
                      { "nodeid": 530, "leaf": -0.193627477 }
                    ]}, 
                    { "nodeid": 330, "depth": 9, "split": "f10", "split_condition": -1.60740042, "yes": 531, "no": 532, "missing": 531 , "children": [
                      { "nodeid": 531, "leaf": -0.00871175155 }, 
                      { "nodeid": 532, "leaf": 0.20305939 }
                    ]}
                  ]}, 
                  { "nodeid": 188, "depth": 8, "split": "f9", "split_condition": 0.0357759073, "yes": 331, "no": 332, "missing": 331 , "children": [
                    { "nodeid": 331, "depth": 9, "split": "f0", "split_condition": -0.179075807, "yes": 533, "no": 534, "missing": 533 , "children": [
                      { "nodeid": 533, "leaf": 0.599014938 }, 
                      { "nodeid": 534, "leaf": 0.150859073 }
                    ]}, 
                    { "nodeid": 332, "depth": 9, "split": "f1", "split_condition": -0.775406122, "yes": 535, "no": 536, "missing": 535 , "children": [
                      { "nodeid": 535, "leaf": 0.0154710775 }, 
                      { "nodeid": 536, "leaf": -0.330700696 }
                    ]}
                  ]}
                ]}, 
                { "nodeid": 100, "depth": 7, "split": "f16", "split_condition": 1.14754772, "yes": 189, "no": 190, "missing": 189 , "children": [
                  { "nodeid": 189, "depth": 8, "split": "f16", "split_condition": 0.221917972, "yes": 333, "no": 334, "missing": 333 , "children": [
                    { "nodeid": 333, "depth": 9, "split": "f11", "split_condition": -0.655771017, "yes": 537, "no": 538, "missing": 537 , "children": [
                      { "nodeid": 537, "leaf": 0.105357818 }, 
                      { "nodeid": 538, "leaf": -0.227111101 }
                    ]}, 
                    { "nodeid": 334, "depth": 9, "split": "f9", "split_condition": 0.55851078, "yes": 539, "no": 540, "missing": 539 , "children": [
                      { "nodeid": 539, "leaf": -0.818693101 }, 
                      { "nodeid": 540, "leaf": 0.0592428222 }
                    ]}
                  ]}, 
                  { "nodeid": 190, "depth": 8, "split": "f17", "split_condition": -0.76320827, "yes": 335, "no": 336, "missing": 335 , "children": [
                    { "nodeid": 335, "depth": 9, "split": "f5", "split_condition": 0.467192888, "yes": 541, "no": 542, "missing": 541 , "children": [
                      { "nodeid": 541, "leaf": 0.0590339676 }, 
                      { "nodeid": 542, "leaf": -0.0640159622 }
                    ]}, 
                    { "nodeid": 336, "depth": 9, "split": "f0", "split_condition": -0.59573859, "yes": 543, "no": 544, "missing": 543 , "children": [
                      { "nodeid": 543, "leaf": 0.461444527 }, 
                      { "nodeid": 544, "leaf": 0.12049675 }
                    ]}
                  ]}
                ]}
              ]}, 
              { "nodeid": 54, "depth": 6, "split": "f16", "split_condition": 0.608321607, "yes": 101, "no": 102, "missing": 101 , "children": [
                { "nodeid": 101, "depth": 7, "split": "f4", "split_condition": 0.445108801, "yes": 191, "no": 192, "missing": 191 , "children": [
                  { "nodeid": 191, "leaf": 0.739084125 }, 
                  { "nodeid": 192, "leaf": 0.189373016 }
                ]}, 
                { "nodeid": 102, "depth": 7, "split": "f0", "split_condition": -1.1703105, "yes": 193, "no": 194, "missing": 193 , "children": [
                  { "nodeid": 193, "leaf": 0.184497029 }, 
                  { "nodeid": 194, "depth": 8, "split": "f0", "split_condition": -0.967779875, "yes": 337, "no": 338, "missing": 337 , "children": [
                    { "nodeid": 337, "leaf": -0.0576473251 }, 
                    { "nodeid": 338, "depth": 9, "split": "f0", "split_condition": -0.736545086, "yes": 545, "no": 546, "missing": 545 , "children": [
                      { "nodeid": 545, "leaf": 0.00722045917 }, 
                      { "nodeid": 546, "leaf": 0.0354452133 }
                    ]}
                  ]}
                ]}
              ]}
            ]}, 
            { "nodeid": 30, "depth": 5, "split": "f15", "split_condition": 0.808277845, "yes": 55, "no": 56, "missing": 55 , "children": [
              { "nodeid": 55, "depth": 6, "split": "f4", "split_condition": 1.62405908, "yes": 103, "no": 104, "missing": 103 , "children": [
                { "nodeid": 103, "depth": 7, "split": "f4", "split_condition": -0.81748414, "yes": 195, "no": 196, "missing": 195 , "children": [
                  { "nodeid": 195, "depth": 8, "split": "f9", "split_condition": 1.27664351, "yes": 339, "no": 340, "missing": 339 , "children": [
                    { "nodeid": 339, "depth": 9, "split": "f4", "split_condition": -1.57750118, "yes": 547, "no": 548, "missing": 547 , "children": [
                      { "nodeid": 547, "leaf": 0.114983372 }, 
                      { "nodeid": 548, "leaf": 0.525417268 }
                    ]}, 
                    { "nodeid": 340, "depth": 9, "split": "f17", "split_condition": 0.577340722, "yes": 549, "no": 550, "missing": 549 , "children": [
                      { "nodeid": 549, "leaf": 0.0679690391 }, 
                      { "nodeid": 550, "leaf": -0.0654882193 }
                    ]}
                  ]}, 
                  { "nodeid": 196, "depth": 8, "split": "f12", "split_condition": 0.827088475, "yes": 341, "no": 342, "missing": 341 , "children": [
                    { "nodeid": 341, "depth": 9, "split": "f5", "split_condition": 0.103382222, "yes": 551, "no": 552, "missing": 551 , "children": [
                      { "nodeid": 551, "leaf": -0.00235831155 }, 
                      { "nodeid": 552, "leaf": 0.26678434 }
                    ]}, 
                    { "nodeid": 342, "depth": 9, "split": "f6", "split_condition": 0.523508668, "yes": 553, "no": 554, "missing": 553 , "children": [
                      { "nodeid": 553, "leaf": -0.287168533 }, 
                      { "nodeid": 554, "leaf": 0.145919025 }
                    ]}
                  ]}
                ]}, 
                { "nodeid": 104, "depth": 7, "split": "f1", "split_condition": -0.815022528, "yes": 197, "no": 198, "missing": 197 , "children": [
                  { "nodeid": 197, "leaf": 1.0322485 }, 
                  { "nodeid": 198, "leaf": 0.0619525909 }
                ]}
              ]}, 
              { "nodeid": 56, "depth": 6, "split": "f1", "split_condition": -1.75787914, "yes": 105, "no": 106, "missing": 105 , "children": [
                { "nodeid": 105, "leaf": -0.695286036 }, 
                { "nodeid": 106, "depth": 7, "split": "f17", "split_condition": 1.32165241, "yes": 199, "no": 200, "missing": 199 , "children": [
                  { "nodeid": 199, "depth": 8, "split": "f16", "split_condition": -0.373166293, "yes": 343, "no": 344, "missing": 343 , "children": [
                    { "nodeid": 343, "depth": 9, "split": "f0", "split_condition": -0.55610168, "yes": 555, "no": 556, "missing": 555 , "children": [
                      { "nodeid": 555, "leaf": 0.00971984863 }, 
                      { "nodeid": 556, "leaf": 0.367190599 }
                    ]}, 
                    { "nodeid": 344, "depth": 9, "split": "f6", "split_condition": -0.401180446, "yes": 557, "no": 558, "missing": 557 , "children": [
                      { "nodeid": 557, "leaf": -0.150823534 }, 
                      { "nodeid": 558, "leaf": 0.074815318 }
                    ]}
                  ]}, 
                  { "nodeid": 200, "depth": 8, "split": "f15", "split_condition": 1.17484915, "yes": 345, "no": 346, "missing": 345 , "children": [
                    { "nodeid": 345, "leaf": -0.453945398 }, 
                    { "nodeid": 346, "depth": 9, "split": "f0", "split_condition": -0.967998743, "yes": 559, "no": 560, "missing": 559 , "children": [
                      { "nodeid": 559, "leaf": -0.0826391876 }, 
                      { "nodeid": 560, "leaf": 0.0754318237 }
                    ]}
                  ]}
                ]}
              ]}
            ]}
          ]}, 
          { "nodeid": 16, "depth": 4, "split": "f1", "split_condition": -0.455200166, "yes": 31, "no": 32, "missing": 31 , "children": [
            { "nodeid": 31, "depth": 5, "split": "f14", "split_condition": 0.181066543, "yes": 57, "no": 58, "missing": 57 , "children": [
              { "nodeid": 57, "depth": 6, "split": "f7", "split_condition": -0.423324883, "yes": 107, "no": 108, "missing": 107 , "children": [
                { "nodeid": 107, "depth": 7, "split": "f5", "split_condition": 0.10111212, "yes": 201, "no": 202, "missing": 201 , "children": [
                  { "nodeid": 201, "depth": 8, "split": "f0", "split_condition": -0.73466301, "yes": 347, "no": 348, "missing": 347 , "children": [
                    { "nodeid": 347, "leaf": 0.00823898334 }, 
                    { "nodeid": 348, "leaf": 0.0335540771 }
                  ]}, 
                  { "nodeid": 202, "leaf": -0.0622827075 }
                ]}, 
                { "nodeid": 108, "depth": 7, "split": "f16", "split_condition": 0.330449104, "yes": 203, "no": 204, "missing": 203 , "children": [
                  { "nodeid": 203, "depth": 8, "split": "f0", "split_condition": -0.372981042, "yes": 349, "no": 350, "missing": 349 , "children": [
                    { "nodeid": 349, "leaf": -0.37165603 }, 
                    { "nodeid": 350, "leaf": -0.0862126872 }
                  ]}, 
                  { "nodeid": 204, "leaf": -0.0572087578 }
                ]}
              ]}, 
              { "nodeid": 58, "depth": 6, "split": "f4", "split_condition": 0.033277154, "yes": 109, "no": 110, "missing": 109 , "children": [
                { "nodeid": 109, "leaf": -1.13198078 }, 
                { "nodeid": 110, "depth": 7, "split": "f0", "split_condition": -0.65090704, "yes": 205, "no": 206, "missing": 205 , "children": [
                  { "nodeid": 205, "leaf": 0.112174988 }, 
                  { "nodeid": 206, "leaf": -0.546697259 }
                ]}
              ]}
            ]}, 
            { "nodeid": 32, "depth": 5, "split": "f5", "split_condition": -0.285831869, "yes": 59, "no": 60, "missing": 59 , "children": [
              { "nodeid": 59, "depth": 6, "split": "f1", "split_condition": -0.190165728, "yes": 111, "no": 112, "missing": 111 , "children": [
                { "nodeid": 111, "depth": 7, "split": "f7", "split_condition": -0.0973357111, "yes": 207, "no": 208, "missing": 207 , "children": [
                  { "nodeid": 207, "depth": 8, "split": "f4", "split_condition": 0.164699882, "yes": 351, "no": 352, "missing": 351 , "children": [
                    { "nodeid": 351, "leaf": 0.252653062 }, 
                    { "nodeid": 352, "leaf": 0.759941757 }
                  ]}, 
                  { "nodeid": 208, "depth": 8, "split": "f1", "split_condition": -0.220582843, "yes": 353, "no": 354, "missing": 353 , "children": [
                    { "nodeid": 353, "depth": 9, "split": "f16", "split_condition": 0.51395905, "yes": 561, "no": 562, "missing": 561 , "children": [
                      { "nodeid": 561, "leaf": -0.145443797 }, 
                      { "nodeid": 562, "leaf": 0.0747696385 }
                    ]}, 
                    { "nodeid": 354, "leaf": 0.475285619 }
                  ]}
                ]}, 
                { "nodeid": 112, "depth": 7, "split": "f1", "split_condition": 0.191558272, "yes": 209, "no": 210, "missing": 209 , "children": [
                  { "nodeid": 209, "depth": 8, "split": "f12", "split_condition": 0.535902143, "yes": 355, "no": 356, "missing": 355 , "children": [
                    { "nodeid": 355, "depth": 9, "split": "f12", "split_condition": -0.229371488, "yes": 563, "no": 564, "missing": 563 , "children": [
                      { "nodeid": 563, "leaf": -0.182690501 }, 
                      { "nodeid": 564, "leaf": -1.04010141 }
                    ]}, 
                    { "nodeid": 356, "depth": 9, "split": "f4", "split_condition": -0.482540786, "yes": 565, "no": 566, "missing": 565 , "children": [
                      { "nodeid": 565, "leaf": 0.5686813 }, 
                      { "nodeid": 566, "leaf": -0.0768448189 }
                    ]}
                  ]}, 
                  { "nodeid": 210, "depth": 8, "split": "f11", "split_condition": 0.592294335, "yes": 357, "no": 358, "missing": 357 , "children": [
                    { "nodeid": 357, "depth": 9, "split": "f7", "split_condition": -1.30185068, "yes": 567, "no": 568, "missing": 567 , "children": [
                      { "nodeid": 567, "leaf": -0.231021121 }, 
                      { "nodeid": 568, "leaf": 0.191489697 }
                    ]}, 
                    { "nodeid": 358, "depth": 9, "split": "f12", "split_condition": -0.0556298792, "yes": 569, "no": 570, "missing": 569 , "children": [
                      { "nodeid": 569, "leaf": 0.0623727106 }, 
                      { "nodeid": 570, "leaf": -0.288535088 }
                    ]}
                  ]}
                ]}
              ]}, 
              { "nodeid": 60, "depth": 6, "split": "f5", "split_condition": 0.174613237, "yes": 113, "no": 114, "missing": 113 , "children": [
                { "nodeid": 113, "depth": 7, "split": "f10", "split_condition": -1.0537107, "yes": 211, "no": 212, "missing": 211 , "children": [
                  { "nodeid": 211, "depth": 8, "split": "f5", "split_condition": 0.123782188, "yes": 359, "no": 360, "missing": 359 , "children": [
                    { "nodeid": 359, "depth": 9, "split": "f16", "split_condition": -0.47462225, "yes": 571, "no": 572, "missing": 571 , "children": [
                      { "nodeid": 571, "leaf": -0.389457703 }, 
                      { "nodeid": 572, "leaf": -0.101450883 }
                    ]}, 
                    { "nodeid": 360, "depth": 9, "split": "f0", "split_condition": -1.18083298, "yes": 573, "no": 574, "missing": 573 , "children": [
                      { "nodeid": 573, "leaf": -0.0736097023 }, 
                      { "nodeid": 574, "leaf": -0.747126341 }
                    ]}
                  ]}, 
                  { "nodeid": 212, "leaf": -1.48654914 }
                ]}, 
                { "nodeid": 114, "depth": 7, "split": "f15", "split_condition": -1.11069417, "yes": 213, "no": 214, "missing": 213 , "children": [
                  { "nodeid": 213, "depth": 8, "split": "f9", "split_condition": 0.0941861421, "yes": 361, "no": 362, "missing": 361 , "children": [
                    { "nodeid": 361, "depth": 9, "split": "f7", "split_condition": -1.14677238, "yes": 575, "no": 576, "missing": 575 , "children": [
                      { "nodeid": 575, "leaf": -0.00124267582 }, 
                      { "nodeid": 576, "leaf": 0.495607138 }
                    ]}, 
                    { "nodeid": 362, "depth": 9, "split": "f10", "split_condition": -1.15967965, "yes": 577, "no": 578, "missing": 577 , "children": [
                      { "nodeid": 577, "leaf": 0.0494981706 }, 
                      { "nodeid": 578, "leaf": -0.494291157 }
                    ]}
                  ]}, 
                  { "nodeid": 214, "depth": 8, "split": "f13", "split_condition": -1.16089678, "yes": 363, "no": 364, "missing": 363 , "children": [
                    { "nodeid": 363, "depth": 9, "split": "f17", "split_condition": 0.106739745, "yes": 579, "no": 580, "missing": 579 , "children": [
                      { "nodeid": 579, "leaf": -0.106708266 }, 
                      { "nodeid": 580, "leaf": 0.652052164 }
                    ]}, 
                    { "nodeid": 364, "depth": 9, "split": "f14", "split_condition": -0.751115799, "yes": 581, "no": 582, "missing": 581 , "children": [
                      { "nodeid": 581, "leaf": 0.124366537 }, 
                      { "nodeid": 582, "leaf": -0.160501808 }
                    ]}
                  ]}
                ]}
              ]}
            ]}
          ]}
        ]}, 
        { "nodeid": 8, "depth": 3, "split": "f15", "split_condition": 1.74256003, "yes": 17, "no": 18, "missing": 17 , "children": [
          { "nodeid": 17, "depth": 4, "split": "f13", "split_condition": 0.292286694, "yes": 33, "no": 34, "missing": 33 , "children": [
            { "nodeid": 33, "depth": 5, "split": "f13", "split_condition": 0.173671216, "yes": 61, "no": 62, "missing": 61 , "children": [
              { "nodeid": 61, "depth": 6, "split": "f13", "split_condition": 0.114225075, "yes": 115, "no": 116, "missing": 115 , "children": [
                { "nodeid": 115, "depth": 7, "split": "f13", "split_condition": 0.0343084112, "yes": 215, "no": 216, "missing": 215 , "children": [
                  { "nodeid": 215, "depth": 8, "split": "f17", "split_condition": -0.802689373, "yes": 365, "no": 366, "missing": 365 , "children": [
                    { "nodeid": 365, "depth": 9, "split": "f4", "split_condition": 0.515173554, "yes": 583, "no": 584, "missing": 583 , "children": [
                      { "nodeid": 583, "leaf": 0.0917281806 }, 
                      { "nodeid": 584, "leaf": -0.0512031876 }
                    ]}, 
                    { "nodeid": 366, "depth": 9, "split": "f4", "split_condition": 1.17871666, "yes": 585, "no": 586, "missing": 585 , "children": [
                      { "nodeid": 585, "leaf": -0.04746731 }, 
                      { "nodeid": 586, "leaf": 0.0796396285 }
                    ]}
                  ]}, 
                  { "nodeid": 216, "depth": 8, "split": "f6", "split_condition": -0.0934486836, "yes": 367, "no": 368, "missing": 367 , "children": [
                    { "nodeid": 367, "depth": 9, "split": "f17", "split_condition": 0.497882366, "yes": 587, "no": 588, "missing": 587 , "children": [
                      { "nodeid": 587, "leaf": -0.499653071 }, 
                      { "nodeid": 588, "leaf": 0.0503416546 }
                    ]}, 
                    { "nodeid": 368, "depth": 9, "split": "f9", "split_condition": -0.194990098, "yes": 589, "no": 590, "missing": 589 , "children": [
                      { "nodeid": 589, "leaf": 0.257092565 }, 
                      { "nodeid": 590, "leaf": -0.189448029 }
                    ]}
                  ]}
                ]}, 
                { "nodeid": 116, "depth": 7, "split": "f17", "split_condition": -0.251180619, "yes": 217, "no": 218, "missing": 217 , "children": [
                  { "nodeid": 217, "depth": 8, "split": "f18", "split_condition": -0.574533403, "yes": 369, "no": 370, "missing": 369 , "children": [
                    { "nodeid": 369, "depth": 9, "split": "f7", "split_condition": 0.695279598, "yes": 591, "no": 592, "missing": 591 , "children": [
                      { "nodeid": 591, "leaf": 0.116464734 }, 
                      { "nodeid": 592, "leaf": 0.645340741 }
                    ]}, 
                    { "nodeid": 370, "depth": 9, "split": "f18", "split_condition": -0.0734815523, "yes": 593, "no": 594, "missing": 593 , "children": [
                      { "nodeid": 593, "leaf": -0.606440961 }, 
                      { "nodeid": 594, "leaf": -0.0564636104 }
                    ]}
                  ]}, 
                  { "nodeid": 218, "depth": 8, "split": "f17", "split_condition": 0.091185987, "yes": 371, "no": 372, "missing": 371 , "children": [
                    { "nodeid": 371, "depth": 9, "split": "f17", "split_condition": -0.0433907025, "yes": 595, "no": 596, "missing": 595 , "children": [
                      { "nodeid": 595, "leaf": 0.239572093 }, 
                      { "nodeid": 596, "leaf": 1.18008077 }
                    ]}, 
                    { "nodeid": 372, "depth": 9, "split": "f0", "split_condition": -0.418589056, "yes": 597, "no": 598, "missing": 597 , "children": [
                      { "nodeid": 597, "leaf": 0.374906272 }, 
                      { "nodeid": 598, "leaf": 0.0085599767 }
                    ]}
                  ]}
                ]}
              ]}, 
              { "nodeid": 62, "depth": 6, "split": "f7", "split_condition": -0.780625105, "yes": 117, "no": 118, "missing": 117 , "children": [
                { "nodeid": 117, "depth": 7, "split": "f4", "split_condition": 0.0925742388, "yes": 219, "no": 220, "missing": 219 , "children": [
                  { "nodeid": 219, "depth": 8, "split": "f12", "split_condition": 0.58570838, "yes": 373, "no": 374, "missing": 373 , "children": [
                    { "nodeid": 373, "depth": 9, "split": "f5", "split_condition": 0.0688794553, "yes": 599, "no": 600, "missing": 599 , "children": [
                      { "nodeid": 599, "leaf": 0.28464064 }, 
                      { "nodeid": 600, "leaf": -0.0346338451 }
                    ]}, 
                    { "nodeid": 374, "leaf": 0.833708405 }
                  ]}, 
                  { "nodeid": 220, "depth": 8, "split": "f12", "split_condition": 0.0916527063, "yes": 375, "no": 376, "missing": 375 , "children": [
                    { "nodeid": 375, "depth": 9, "split": "f11", "split_condition": -0.176535696, "yes": 601, "no": 602, "missing": 601 , "children": [
                      { "nodeid": 601, "leaf": 0.0321159363 }, 
                      { "nodeid": 602, "leaf": 0.311305255 }
                    ]}, 
                    { "nodeid": 376, "depth": 9, "split": "f17", "split_condition": -1.24578905, "yes": 603, "no": 604, "missing": 603 , "children": [
                      { "nodeid": 603, "leaf": 0.103548147 }, 
                      { "nodeid": 604, "leaf": -0.461463839 }
                    ]}
                  ]}
                ]}, 
                { "nodeid": 118, "depth": 7, "split": "f11", "split_condition": -1.69028163, "yes": 221, "no": 222, "missing": 221 , "children": [
                  { "nodeid": 221, "depth": 8, "split": "f0", "split_condition": -0.997840285, "yes": 377, "no": 378, "missing": 377 , "children": [
                    { "nodeid": 377, "leaf": 0.696475446 }, 
                    { "nodeid": 378, "depth": 9, "split": "f0", "split_condition": -0.59940654, "yes": 605, "no": 606, "missing": 605 , "children": [
                      { "nodeid": 605, "leaf": 0.0246810913 }, 
                      { "nodeid": 606, "leaf": 0.14392595 }
                    ]}
                  ]}, 
                  { "nodeid": 222, "depth": 8, "split": "f5", "split_condition": -0.56979382, "yes": 379, "no": 380, "missing": 379 , "children": [
                    { "nodeid": 379, "depth": 9, "split": "f13", "split_condition": 0.188173786, "yes": 607, "no": 608, "missing": 607 , "children": [
                      { "nodeid": 607, "leaf": -0.529704571 }, 
                      { "nodeid": 608, "leaf": 0.119845331 }
                    ]}, 
                    { "nodeid": 380, "depth": 9, "split": "f5", "split_condition": 1.14565921, "yes": 609, "no": 610, "missing": 609 , "children": [
                      { "nodeid": 609, "leaf": -0.389294833 }, 
                      { "nodeid": 610, "leaf": 0.039950911 }
                    ]}
                  ]}
                ]}
              ]}
            ]}, 
            { "nodeid": 34, "depth": 5, "split": "f0", "split_condition": 0.202755839, "yes": 63, "no": 64, "missing": 63 , "children": [
              { "nodeid": 63, "depth": 6, "split": "f7", "split_condition": 0.1399028, "yes": 119, "no": 120, "missing": 119 , "children": [
                { "nodeid": 119, "depth": 7, "split": "f7", "split_condition": -0.506235242, "yes": 223, "no": 224, "missing": 223 , "children": [
                  { "nodeid": 223, "depth": 8, "split": "f16", "split_condition": 0.541779459, "yes": 381, "no": 382, "missing": 381 , "children": [
                    { "nodeid": 381, "depth": 9, "split": "f4", "split_condition": 1.04969525, "yes": 611, "no": 612, "missing": 611 , "children": [
                      { "nodeid": 611, "leaf": 0.0590986572 }, 
                      { "nodeid": 612, "leaf": -0.11568471 }
                    ]}, 
                    { "nodeid": 382, "depth": 9, "split": "f15", "split_condition": 0.0768643692, "yes": 613, "no": 614, "missing": 613 , "children": [
                      { "nodeid": 613, "leaf": -0.022036761 }, 
                      { "nodeid": 614, "leaf": -0.246532872 }
                    ]}
                  ]}, 
                  { "nodeid": 224, "depth": 8, "split": "f13", "split_condition": 0.412841976, "yes": 383, "no": 384, "missing": 383 , "children": [
                    { "nodeid": 383, "depth": 9, "split": "f7", "split_condition": -0.0567514375, "yes": 615, "no": 616, "missing": 615 , "children": [
                      { "nodeid": 615, "leaf": 0.281850398 }, 
                      { "nodeid": 616, "leaf": 0.729471922 }
                    ]}, 
                    { "nodeid": 384, "depth": 9, "split": "f17", "split_condition": -1.17291772, "yes": 617, "no": 618, "missing": 617 , "children": [
                      { "nodeid": 617, "leaf": -0.157927439 }, 
                      { "nodeid": 618, "leaf": 0.152858064 }
                    ]}
                  ]}
                ]}, 
                { "nodeid": 120, "depth": 7, "split": "f12", "split_condition": 0.626600266, "yes": 225, "no": 226, "missing": 225 , "children": [
                  { "nodeid": 225, "depth": 8, "split": "f14", "split_condition": 0.573798597, "yes": 385, "no": 386, "missing": 385 , "children": [
                    { "nodeid": 385, "depth": 9, "split": "f17", "split_condition": 0.00978135504, "yes": 619, "no": 620, "missing": 619 , "children": [
                      { "nodeid": 619, "leaf": 0.0535326302 }, 
                      { "nodeid": 620, "leaf": -0.11557623 }
                    ]}, 
                    { "nodeid": 386, "depth": 9, "split": "f7", "split_condition": 0.201076895, "yes": 621, "no": 622, "missing": 621 , "children": [
                      { "nodeid": 621, "leaf": -0.397078365 }, 
                      { "nodeid": 622, "leaf": 0.13310805 }
                    ]}
                  ]}, 
                  { "nodeid": 226, "depth": 8, "split": "f17", "split_condition": 0.858601689, "yes": 387, "no": 388, "missing": 387 , "children": [
                    { "nodeid": 387, "depth": 9, "split": "f16", "split_condition": 0.324437588, "yes": 623, "no": 624, "missing": 623 , "children": [
                      { "nodeid": 623, "leaf": -0.0710636824 }, 
                      { "nodeid": 624, "leaf": -0.372174203 }
                    ]}, 
                    { "nodeid": 388, "depth": 9, "split": "f17", "split_condition": 1.1979835, "yes": 625, "no": 626, "missing": 625 , "children": [
                      { "nodeid": 625, "leaf": 0.528504431 }, 
                      { "nodeid": 626, "leaf": -0.0504085496 }
                    ]}
                  ]}
                ]}
              ]}, 
              { "nodeid": 64, "depth": 6, "split": "f5", "split_condition": -0.187607065, "yes": 121, "no": 122, "missing": 121 , "children": [
                { "nodeid": 121, "leaf": -0.224714667 }, 
                { "nodeid": 122, "leaf": -0.80575937 }
              ]}
            ]}
          ]}, 
          { "nodeid": 18, "depth": 4, "split": "f10", "split_condition": 0.573859692, "yes": 35, "no": 36, "missing": 35 , "children": [
            { "nodeid": 35, "depth": 5, "split": "f10", "split_condition": 0.552444339, "yes": 65, "no": 66, "missing": 65 , "children": [
              { "nodeid": 65, "depth": 6, "split": "f6", "split_condition": -1.13251352, "yes": 123, "no": 124, "missing": 123 , "children": [
                { "nodeid": 123, "depth": 7, "split": "f17", "split_condition": 1.66700125, "yes": 227, "no": 228, "missing": 227 , "children": [
                  { "nodeid": 227, "depth": 8, "split": "f1", "split_condition": 0.863919199, "yes": 389, "no": 390, "missing": 389 , "children": [
                    { "nodeid": 389, "depth": 9, "split": "f1", "split_condition": -0.799566686, "yes": 627, "no": 628, "missing": 627 , "children": [
                      { "nodeid": 627, "leaf": 0.0539470017 }, 
                      { "nodeid": 628, "leaf": -0.22734189 }
                    ]}, 
                    { "nodeid": 390, "depth": 9, "split": "f4", "split_condition": -0.00947187841, "yes": 629, "no": 630, "missing": 629 , "children": [
                      { "nodeid": 629, "leaf": 0.0519694351 }, 
                      { "nodeid": 630, "leaf": -0.0658391342 }
                    ]}
                  ]}, 
                  { "nodeid": 228, "leaf": 0.410322577 }
                ]}, 
                { "nodeid": 124, "depth": 7, "split": "f12", "split_condition": -1.43423629, "yes": 229, "no": 230, "missing": 229 , "children": [
                  { "nodeid": 229, "depth": 8, "split": "f12", "split_condition": -1.5755713, "yes": 391, "no": 392, "missing": 391 , "children": [
                    { "nodeid": 391, "depth": 9, "split": "f15", "split_condition": 2.02111363, "yes": 631, "no": 632, "missing": 631 , "children": [
                      { "nodeid": 631, "leaf": -0.12439575 }, 
                      { "nodeid": 632, "leaf": 0.120054916 }
                    ]}, 
                    { "nodeid": 392, "leaf": -0.372718811 }
                  ]}, 
                  { "nodeid": 230, "depth": 8, "split": "f6", "split_condition": 0.504340053, "yes": 393, "no": 394, "missing": 393 , "children": [
                    { "nodeid": 393, "depth": 9, "split": "f16", "split_condition": -0.338515043, "yes": 633, "no": 634, "missing": 633 , "children": [
                      { "nodeid": 633, "leaf": 0.11600063 }, 
                      { "nodeid": 634, "leaf": 0.390201211 }
                    ]}, 
                    { "nodeid": 394, "depth": 9, "split": "f10", "split_condition": -0.279845506, "yes": 635, "no": 636, "missing": 635 , "children": [
                      { "nodeid": 635, "leaf": 0.194961473 }, 
                      { "nodeid": 636, "leaf": -0.0439250506 }
                    ]}
                  ]}
                ]}
              ]}, 
              { "nodeid": 66, "leaf": 0.955283344 }
            ]}, 
            { "nodeid": 36, "depth": 5, "split": "f6", "split_condition": -0.205156893, "yes": 67, "no": 68, "missing": 67 , "children": [
              { "nodeid": 67, "depth": 6, "split": "f10", "split_condition": 0.697108865, "yes": 125, "no": 126, "missing": 125 , "children": [
                { "nodeid": 125, "depth": 7, "split": "f0", "split_condition": -0.833010674, "yes": 231, "no": 232, "missing": 231 , "children": [
                  { "nodeid": 231, "leaf": 0.0651107803 }, 
                  { "nodeid": 232, "leaf": -0.342961133 }
                ]}, 
                { "nodeid": 126, "depth": 7, "split": "f7", "split_condition": -0.756362915, "yes": 233, "no": 234, "missing": 233 , "children": [
                  { "nodeid": 233, "depth": 8, "split": "f4", "split_condition": 0.0729899853, "yes": 395, "no": 396, "missing": 395 , "children": [
                    { "nodeid": 395, "leaf": 0.07364095 }, 
                    { "nodeid": 396, "depth": 9, "split": "f0", "split_condition": -0.544651508, "yes": 637, "no": 638, "missing": 637 , "children": [
                      { "nodeid": 637, "leaf": -0.0158313755 }, 
                      { "nodeid": 638, "leaf": 0.00370210013 }
                    ]}
                  ]}, 
                  { "nodeid": 234, "depth": 8, "split": "f9", "split_condition": -2.09797812, "yes": 397, "no": 398, "missing": 397 , "children": [
                    { "nodeid": 397, "leaf": -0.0136230467 }, 
                    { "nodeid": 398, "depth": 9, "split": "f13", "split_condition": -1.21743953, "yes": 639, "no": 640, "missing": 639 , "children": [
                      { "nodeid": 639, "leaf": 0.0438526161 }, 
                      { "nodeid": 640, "leaf": 0.224828392 }
                    ]}
                  ]}
                ]}
              ]}, 
              { "nodeid": 68, "depth": 6, "split": "f16", "split_condition": 0.470897734, "yes": 127, "no": 128, "missing": 127 , "children": [
                { "nodeid": 127, "depth": 7, "split": "f7", "split_condition": 0.177372262, "yes": 235, "no": 236, "missing": 235 , "children": [
                  { "nodeid": 235, "depth": 8, "split": "f14", "split_condition": 0.079817906, "yes": 399, "no": 400, "missing": 399 , "children": [
                    { "nodeid": 399, "depth": 9, "split": "f0", "split_condition": -0.349227101, "yes": 641, "no": 642, "missing": 641 , "children": [
                      { "nodeid": 641, "leaf": -0.0350289978 }, 
                      { "nodeid": 642, "leaf": 0.0749599487 }
                    ]}, 
                    { "nodeid": 400, "depth": 9, "split": "f5", "split_condition": 0.207055971, "yes": 643, "no": 644, "missing": 643 , "children": [
                      { "nodeid": 643, "leaf": -0.101835631 }, 
                      { "nodeid": 644, "leaf": -0.304427236 }
                    ]}
                  ]}, 
                  { "nodeid": 236, "depth": 8, "split": "f7", "split_condition": 1.19644761, "yes": 401, "no": 402, "missing": 401 , "children": [
                    { "nodeid": 401, "depth": 9, "split": "f12", "split_condition": -0.76314199, "yes": 645, "no": 646, "missing": 645 , "children": [
                      { "nodeid": 645, "leaf": -0.0687454268 }, 
                      { "nodeid": 646, "leaf": -0.431137949 }
                    ]}, 
                    { "nodeid": 402, "depth": 9, "split": "f0", "split_condition": -0.390754044, "yes": 647, "no": 648, "missing": 647 , "children": [
                      { "nodeid": 647, "leaf": -0.0982259139 }, 
                      { "nodeid": 648, "leaf": -0.00882568397 }
                    ]}
                  ]}
                ]}, 
                { "nodeid": 128, "depth": 7, "split": "f4", "split_condition": -0.520618975, "yes": 237, "no": 238, "missing": 237 , "children": [
                  { "nodeid": 237, "leaf": 0.27475071 }, 
                  { "nodeid": 238, "depth": 8, "split": "f10", "split_condition": 1.05965316, "yes": 403, "no": 404, "missing": 403 , "children": [
                    { "nodeid": 403, "depth": 9, "split": "f13", "split_condition": 0.0400453359, "yes": 649, "no": 650, "missing": 649 , "children": [
                      { "nodeid": 649, "leaf": 0.0131861372 }, 
                      { "nodeid": 650, "leaf": -0.0539044403 }
                    ]}, 
                    { "nodeid": 404, "leaf": 0.0689964294 }
                  ]}
                ]}
              ]}
            ]}
          ]}
        ]}
      ]}, 
      { "nodeid": 4, "depth": 2, "split": "f7", "split_condition": 0.258018732, "yes": 9, "no": 10, "missing": 9 , "children": [
        { "nodeid": 9, "depth": 3, "split": "f9", "split_condition": -0.708864331, "yes": 19, "no": 20, "missing": 19 , "children": [
          { "nodeid": 19, "leaf": -0.187761441 }, 
          { "nodeid": 20, "leaf": -0.692694068 }
        ]}, 
        { "nodeid": 10, "leaf": 0.0726526901 }
      ]}
    ]}, 
    { "nodeid": 2, "depth": 1, "split": "f6", "split_condition": 1.16041327, "yes": 5, "no": 6, "missing": 5 , "children": [
      { "nodeid": 5, "depth": 2, "split": "f15", "split_condition": 0.00840873085, "yes": 11, "no": 12, "missing": 11 , "children": [
        { "nodeid": 11, "depth": 3, "split": "f15", "split_condition": 0.00148728164, "yes": 21, "no": 22, "missing": 21 , "children": [
          { "nodeid": 21, "depth": 4, "split": "f14", "split_condition": -0.342259616, "yes": 37, "no": 38, "missing": 37 , "children": [
            { "nodeid": 37, "depth": 5, "split": "f14", "split_condition": -0.920796573, "yes": 69, "no": 70, "missing": 69 , "children": [
              { "nodeid": 69, "depth": 6, "split": "f14", "split_condition": -0.965237737, "yes": 129, "no": 130, "missing": 129 , "children": [
                { "nodeid": 129, "depth": 7, "split": "f0", "split_condition": 0.479225039, "yes": 239, "no": 240, "missing": 239 , "children": [
                  { "nodeid": 239, "depth": 8, "split": "f17", "split_condition": -0.231015801, "yes": 405, "no": 406, "missing": 405 , "children": [
                    { "nodeid": 405, "depth": 9, "split": "f4", "split_condition": -0.255067825, "yes": 651, "no": 652, "missing": 651 , "children": [
                      { "nodeid": 651, "leaf": -0.0491546802 }, 
                      { "nodeid": 652, "leaf": 0.661878645 }
                    ]}, 
                    { "nodeid": 406, "depth": 9, "split": "f13", "split_condition": 0.214320451, "yes": 653, "no": 654, "missing": 653 , "children": [
                      { "nodeid": 653, "leaf": 0.12454994 }, 
                      { "nodeid": 654, "leaf": -0.17741923 }
                    ]}
                  ]}, 
                  { "nodeid": 240, "depth": 8, "split": "f17", "split_condition": -0.260253698, "yes": 407, "no": 408, "missing": 407 , "children": [
                    { "nodeid": 407, "depth": 9, "split": "f7", "split_condition": 0.449825317, "yes": 655, "no": 656, "missing": 655 , "children": [
                      { "nodeid": 655, "leaf": -0.0326873958 }, 
                      { "nodeid": 656, "leaf": -0.274759591 }
                    ]}, 
                    { "nodeid": 408, "depth": 9, "split": "f11", "split_condition": 0.840031147, "yes": 657, "no": 658, "missing": 657 , "children": [
                      { "nodeid": 657, "leaf": 0.0860597566 }, 
                      { "nodeid": 658, "leaf": -0.214317322 }
                    ]}
                  ]}
                ]}, 
                { "nodeid": 130, "depth": 7, "split": "f14", "split_condition": -0.957121611, "yes": 241, "no": 242, "missing": 241 , "children": [
                  { "nodeid": 241, "depth": 8, "split": "f0", "split_condition": 0.515435994, "yes": 409, "no": 410, "missing": 409 , "children": [
                    { "nodeid": 409, "leaf": -1.59213972 }, 
                    { "nodeid": 410, "depth": 9, "split": "f7", "split_condition": -1.71264613, "yes": 659, "no": 660, "missing": 659 , "children": [
                      { "nodeid": 659, "leaf": -0.076663211 }, 
                      { "nodeid": 660, "leaf": -0.527897656 }
                    ]}
                  ]}, 
                  { "nodeid": 242, "depth": 8, "split": "f14", "split_condition": -0.928004146, "yes": 411, "no": 412, "missing": 411 , "children": [
                    { "nodeid": 411, "depth": 9, "split": "f17", "split_condition": -0.922180951, "yes": 661, "no": 662, "missing": 661 , "children": [
                      { "nodeid": 661, "leaf": 0.369927973 }, 
                      { "nodeid": 662, "leaf": -0.1438535 }
                    ]}, 
                    { "nodeid": 412, "leaf": -0.568651974 }
                  ]}
                ]}
              ]}, 
              { "nodeid": 70, "depth": 6, "split": "f15", "split_condition": -0.317504644, "yes": 131, "no": 132, "missing": 131 , "children": [
                { "nodeid": 131, "depth": 7, "split": "f15", "split_condition": -0.37862891, "yes": 243, "no": 244, "missing": 243 , "children": [
                  { "nodeid": 243, "depth": 8, "split": "f13", "split_condition": -1.1693995, "yes": 413, "no": 414, "missing": 413 , "children": [
                    { "nodeid": 413, "depth": 9, "split": "f9", "split_condition": 0.364010394, "yes": 663, "no": 664, "missing": 663 , "children": [
                      { "nodeid": 663, "leaf": -0.030237576 }, 
                      { "nodeid": 664, "leaf": -0.378620327 }
                    ]}, 
                    { "nodeid": 414, "depth": 9, "split": "f5", "split_condition": -1.27001357, "yes": 665, "no": 666, "missing": 665 , "children": [
                      { "nodeid": 665, "leaf": -0.189516813 }, 
                      { "nodeid": 666, "leaf": 0.168171614 }
                    ]}
                  ]}, 
                  { "nodeid": 244, "depth": 8, "split": "f10", "split_condition": 0.81169498, "yes": 415, "no": 416, "missing": 415 , "children": [
                    { "nodeid": 415, "depth": 9, "split": "f1", "split_condition": 0.621579349, "yes": 667, "no": 668, "missing": 667 , "children": [
                      { "nodeid": 667, "leaf": 0.211316094 }, 
                      { "nodeid": 668, "leaf": -0.359396994 }
                    ]}, 
                    { "nodeid": 416, "depth": 9, "split": "f0", "split_condition": 0.85852015, "yes": 669, "no": 670, "missing": 669 , "children": [
                      { "nodeid": 669, "leaf": -0.00542678824 }, 
                      { "nodeid": 670, "leaf": -1.23846662 }
                    ]}
                  ]}
                ]}, 
                { "nodeid": 132, "depth": 7, "split": "f18", "split_condition": -0.872667909, "yes": 245, "no": 246, "missing": 245 , "children": [
                  { "nodeid": 245, "depth": 8, "split": "f17", "split_condition": 0.258635581, "yes": 417, "no": 418, "missing": 417 , "children": [
                    { "nodeid": 417, "depth": 9, "split": "f0", "split_condition": 0.681877077, "yes": 671, "no": 672, "missing": 671 , "children": [
                      { "nodeid": 671, "leaf": 0.384853363 }, 
                      { "nodeid": 672, "leaf": 0.00361206057 }
                    ]}, 
                    { "nodeid": 418, "leaf": -0.299711764 }
                  ]}, 
                  { "nodeid": 246, "depth": 8, "split": "f1", "split_condition": 0.32973814, "yes": 419, "no": 420, "missing": 419 , "children": [
                    { "nodeid": 419, "depth": 9, "split": "f6", "split_condition": 0.292484611, "yes": 673, "no": 674, "missing": 673 , "children": [
                      { "nodeid": 673, "leaf": 0.141499907 }, 
                      { "nodeid": 674, "leaf": 0.646943271 }
                    ]}, 
                    { "nodeid": 420, "depth": 9, "split": "f12", "split_condition": -0.370204747, "yes": 675, "no": 676, "missing": 675 , "children": [
                      { "nodeid": 675, "leaf": 0.341987908 }, 
                      { "nodeid": 676, "leaf": 1.40962207 }
                    ]}
                  ]}
                ]}
              ]}
            ]}, 
            { "nodeid": 38, "depth": 5, "split": "f16", "split_condition": -1.56047106, "yes": 71, "no": 72, "missing": 71 , "children": [
              { "nodeid": 71, "depth": 6, "split": "f6", "split_condition": 0.930100024, "yes": 133, "no": 134, "missing": 133 , "children": [
                { "nodeid": 133, "depth": 7, "split": "f14", "split_condition": 2.40483046, "yes": 247, "no": 248, "missing": 247 , "children": [
                  { "nodeid": 247, "depth": 8, "split": "f18", "split_condition": -1.04082024, "yes": 421, "no": 422, "missing": 421 , "children": [
                    { "nodeid": 421, "depth": 9, "split": "f9", "split_condition": -0.48942405, "yes": 677, "no": 678, "missing": 677 , "children": [
                      { "nodeid": 677, "leaf": 0.624548078 }, 
                      { "nodeid": 678, "leaf": 0.0785581619 }
                    ]}, 
                    { "nodeid": 422, "depth": 9, "split": "f12", "split_condition": -0.0349936634, "yes": 679, "no": 680, "missing": 679 , "children": [
                      { "nodeid": 679, "leaf": 0.0928948447 }, 
                      { "nodeid": 680, "leaf": -0.146354228 }
                    ]}
                  ]}, 
                  { "nodeid": 248, "leaf": 0.778881848 }
                ]}, 
                { "nodeid": 134, "depth": 7, "split": "f6", "split_condition": 1.09643686, "yes": 249, "no": 250, "missing": 249 , "children": [
                  { "nodeid": 249, "leaf": 0.68387568 }, 
                  { "nodeid": 250, "leaf": 0.0218269359 }
                ]}
              ]}, 
              { "nodeid": 72, "depth": 6, "split": "f17", "split_condition": -1.14340091, "yes": 135, "no": 136, "missing": 135 , "children": [
                { "nodeid": 135, "depth": 7, "split": "f17", "split_condition": -1.96258771, "yes": 251, "no": 252, "missing": 251 , "children": [
                  { "nodeid": 251, "depth": 8, "split": "f17", "split_condition": -3.00396299, "yes": 423, "no": 424, "missing": 423 , "children": [
                    { "nodeid": 423, "leaf": -0.481613725 }, 
                    { "nodeid": 424, "depth": 9, "split": "f0", "split_condition": 0.510331333, "yes": 681, "no": 682, "missing": 681 , "children": [
                      { "nodeid": 681, "leaf": 0.072838977 }, 
                      { "nodeid": 682, "leaf": -0.161402211 }
                    ]}
                  ]}, 
                  { "nodeid": 252, "depth": 8, "split": "f5", "split_condition": 1.26961935, "yes": 425, "no": 426, "missing": 425 , "children": [
                    { "nodeid": 425, "depth": 9, "split": "f9", "split_condition": -0.623980045, "yes": 683, "no": 684, "missing": 683 , "children": [
                      { "nodeid": 683, "leaf": -0.0332500897 }, 
                      { "nodeid": 684, "leaf": 0.219209865 }
                    ]}, 
                    { "nodeid": 426, "depth": 9, "split": "f16", "split_condition": 0.481523722, "yes": 685, "no": 686, "missing": 685 , "children": [
                      { "nodeid": 685, "leaf": -0.0247016903 }, 
                      { "nodeid": 686, "leaf": -0.417619705 }
                    ]}
                  ]}
                ]}, 
                { "nodeid": 136, "depth": 7, "split": "f17", "split_condition": -0.390101731, "yes": 253, "no": 254, "missing": 253 , "children": [
                  { "nodeid": 253, "depth": 8, "split": "f10", "split_condition": -1.17194462, "yes": 427, "no": 428, "missing": 427 , "children": [
                    { "nodeid": 427, "depth": 9, "split": "f10", "split_condition": -1.49288237, "yes": 687, "no": 688, "missing": 687 , "children": [
                      { "nodeid": 687, "leaf": -0.0930553824 }, 
                      { "nodeid": 688, "leaf": 0.553099692 }
                    ]}, 
                    { "nodeid": 428, "depth": 9, "split": "f0", "split_condition": 0.720706582, "yes": 689, "no": 690, "missing": 689 , "children": [
                      { "nodeid": 689, "leaf": -0.092135191 }, 
                      { "nodeid": 690, "leaf": -0.342636198 }
                    ]}
                  ]}, 
                  { "nodeid": 254, "depth": 8, "split": "f16", "split_condition": -0.104541585, "yes": 429, "no": 430, "missing": 429 , "children": [
                    { "nodeid": 429, "depth": 9, "split": "f16", "split_condition": -0.263994485, "yes": 691, "no": 692, "missing": 691 , "children": [
                      { "nodeid": 691, "leaf": -0.0750715658 }, 
                      { "nodeid": 692, "leaf": -0.409344286 }
                    ]}, 
                    { "nodeid": 430, "depth": 9, "split": "f9", "split_condition": -0.0736793727, "yes": 693, "no": 694, "missing": 693 , "children": [
                      { "nodeid": 693, "leaf": 0.112181619 }, 
                      { "nodeid": 694, "leaf": -0.0838891864 }
                    ]}
                  ]}
                ]}
              ]}
            ]}
          ]}, 
          { "nodeid": 22, "depth": 4, "split": "f11", "split_condition": -1.21299863, "yes": 39, "no": 40, "missing": 39 , "children": [
            { "nodeid": 39, "leaf": -1.1581881 }, 
            { "nodeid": 40, "depth": 5, "split": "f0", "split_condition": 0.736737609, "yes": 73, "no": 74, "missing": 73 , "children": [
              { "nodeid": 73, "depth": 6, "split": "f1", "split_condition": 0.955847025, "yes": 137, "no": 138, "missing": 137 , "children": [
                { "nodeid": 137, "leaf": -0.393330693 }, 
                { "nodeid": 138, "leaf": -0.107621007 }
              ]}, 
              { "nodeid": 74, "depth": 6, "split": "f5", "split_condition": -0.8273893, "yes": 139, "no": 140, "missing": 139 , "children": [
                { "nodeid": 139, "leaf": 0.201786801 }, 
                { "nodeid": 140, "depth": 7, "split": "f0", "split_condition": 1.04896629, "yes": 255, "no": 256, "missing": 255 , "children": [
                  { "nodeid": 255, "leaf": 0.0278244019 }, 
                  { "nodeid": 256, "leaf": -0.0525385551 }
                ]}
              ]}
            ]}
          ]}
        ]}, 
        { "nodeid": 12, "depth": 3, "split": "f15", "split_condition": 0.0844704658, "yes": 23, "no": 24, "missing": 23 , "children": [
          { "nodeid": 23, "depth": 4, "split": "f18", "split_condition": -0.000609725714, "yes": 41, "no": 42, "missing": 41 , "children": [
            { "nodeid": 41, "depth": 5, "split": "f12", "split_condition": -0.337183028, "yes": 75, "no": 76, "missing": 75 , "children": [
              { "nodeid": 75, "depth": 6, "split": "f18", "split_condition": -1.22310352, "yes": 141, "no": 142, "missing": 141 , "children": [
                { "nodeid": 141, "depth": 7, "split": "f0", "split_condition": 0.815928817, "yes": 257, "no": 258, "missing": 257 , "children": [
                  { "nodeid": 257, "leaf": -0.0407379158 }, 
                  { "nodeid": 258, "leaf": 0.219372302 }
                ]}, 
                { "nodeid": 142, "depth": 7, "split": "f1", "split_condition": -0.990021169, "yes": 259, "no": 260, "missing": 259 , "children": [
                  { "nodeid": 259, "leaf": 0.303290814 }, 
                  { "nodeid": 260, "leaf": 1.49605429 }
                ]}
              ]}, 
              { "nodeid": 76, "depth": 6, "split": "f18", "split_condition": -0.115549244, "yes": 143, "no": 144, "missing": 143 , "children": [
                { "nodeid": 143, "depth": 7, "split": "f12", "split_condition": 0.018934872, "yes": 261, "no": 262, "missing": 261 , "children": [
                  { "nodeid": 261, "depth": 8, "split": "f1", "split_condition": 1.87668419, "yes": 431, "no": 432, "missing": 431 , "children": [
                    { "nodeid": 431, "depth": 9, "split": "f1", "split_condition": 1.25095737, "yes": 695, "no": 696, "missing": 695 , "children": [
                      { "nodeid": 695, "leaf": 0.479475707 }, 
                      { "nodeid": 696, "leaf": 0.129112244 }
                    ]}, 
                    { "nodeid": 432, "leaf": -0.0688453689 }
                  ]}, 
                  { "nodeid": 262, "depth": 8, "split": "f16", "split_condition": 0.885627627, "yes": 433, "no": 434, "missing": 433 , "children": [
                    { "nodeid": 433, "depth": 9, "split": "f11", "split_condition": -1.03870869, "yes": 697, "no": 698, "missing": 697 , "children": [
                      { "nodeid": 697, "leaf": -0.0923739597 }, 
                      { "nodeid": 698, "leaf": 0.154698715 }
                    ]}, 
                    { "nodeid": 434, "leaf": -0.324999064 }
                  ]}
                ]}, 
                { "nodeid": 144, "leaf": 0.927812099 }
              ]}
            ]}, 
            { "nodeid": 42, "depth": 5, "split": "f17", "split_condition": -0.811493516, "yes": 77, "no": 78, "missing": 77 , "children": [
              { "nodeid": 77, "depth": 6, "split": "f1", "split_condition": -1.22195089, "yes": 145, "no": 146, "missing": 145 , "children": [
                { "nodeid": 145, "leaf": 0.111665346 }, 
                { "nodeid": 146, "leaf": 0.547419608 }
              ]}, 
              { "nodeid": 78, "depth": 6, "split": "f11", "split_condition": 0.456855118, "yes": 147, "no": 148, "missing": 147 , "children": [
                { "nodeid": 147, "depth": 7, "split": "f5", "split_condition": 1.57206845, "yes": 263, "no": 264, "missing": 263 , "children": [
                  { "nodeid": 263, "depth": 8, "split": "f17", "split_condition": 0.848019361, "yes": 435, "no": 436, "missing": 435 , "children": [
                    { "nodeid": 435, "depth": 9, "split": "f13", "split_condition": 0.586233139, "yes": 699, "no": 700, "missing": 699 , "children": [
                      { "nodeid": 699, "leaf": -0.208160326 }, 
                      { "nodeid": 700, "leaf": -0.621232748 }
                    ]}, 
                    { "nodeid": 436, "depth": 9, "split": "f4", "split_condition": 0.193700239, "yes": 701, "no": 702, "missing": 701 , "children": [
                      { "nodeid": 701, "leaf": 0.155514911 }, 
                      { "nodeid": 702, "leaf": -0.00293604541 }
                    ]}
                  ]}, 
                  { "nodeid": 264, "depth": 8, "split": "f1", "split_condition": -0.115371972, "yes": 437, "no": 438, "missing": 437 , "children": [
                    { "nodeid": 437, "leaf": 0.0184127819 }, 
                    { "nodeid": 438, "leaf": 0.3770625 }
                  ]}
                ]}, 
                { "nodeid": 148, "depth": 7, "split": "f10", "split_condition": -0.202326477, "yes": 265, "no": 266, "missing": 265 , "children": [
                  { "nodeid": 265, "depth": 8, "split": "f18", "split_condition": 1.30359173, "yes": 439, "no": 440, "missing": 439 , "children": [
                    { "nodeid": 439, "leaf": 0.490487814 }, 
                    { "nodeid": 440, "depth": 9, "split": "f0", "split_condition": 1.11540437, "yes": 703, "no": 704, "missing": 703 , "children": [
                      { "nodeid": 703, "leaf": 0.0896484405 }, 
                      { "nodeid": 704, "leaf": -0.0775497481 }
                    ]}
                  ]}, 
                  { "nodeid": 266, "depth": 8, "split": "f1", "split_condition": -1.0050087, "yes": 441, "no": 442, "missing": 441 , "children": [
                    { "nodeid": 441, "leaf": 0.0828745589 }, 
                    { "nodeid": 442, "depth": 9, "split": "f0", "split_condition": 0.346908033, "yes": 705, "no": 706, "missing": 705 , "children": [
                      { "nodeid": 705, "leaf": -0.0691449493 }, 
                      { "nodeid": 706, "leaf": -0.233218893 }
                    ]}
                  ]}
                ]}
              ]}
            ]}
          ]}, 
          { "nodeid": 24, "depth": 4, "split": "f12", "split_condition": 0.362139732, "yes": 43, "no": 44, "missing": 43 , "children": [
            { "nodeid": 43, "depth": 5, "split": "f0", "split_condition": 1.84545588, "yes": 79, "no": 80, "missing": 79 , "children": [
              { "nodeid": 79, "depth": 6, "split": "f9", "split_condition": 0.22999543, "yes": 149, "no": 150, "missing": 149 , "children": [
                { "nodeid": 149, "depth": 7, "split": "f9", "split_condition": 0.18348977, "yes": 267, "no": 268, "missing": 267 , "children": [
                  { "nodeid": 267, "depth": 8, "split": "f6", "split_condition": 0.266873658, "yes": 443, "no": 444, "missing": 443 , "children": [
                    { "nodeid": 443, "depth": 9, "split": "f0", "split_condition": 0.92843473, "yes": 707, "no": 708, "missing": 707 , "children": [
                      { "nodeid": 707, "leaf": 0.0362500697 }, 
                      { "nodeid": 708, "leaf": -0.117974177 }
                    ]}, 
                    { "nodeid": 444, "depth": 9, "split": "f6", "split_condition": 0.37285322, "yes": 709, "no": 710, "missing": 709 , "children": [
                      { "nodeid": 709, "leaf": 0.529818118 }, 
                      { "nodeid": 710, "leaf": 0.0975358635 }
                    ]}
                  ]}, 
                  { "nodeid": 268, "depth": 8, "split": "f16", "split_condition": -1.1737473, "yes": 445, "no": 446, "missing": 445 , "children": [
                    { "nodeid": 445, "depth": 9, "split": "f0", "split_condition": 1.17762566, "yes": 711, "no": 712, "missing": 711 , "children": [
                      { "nodeid": 711, "leaf": -0.20105958 }, 
                      { "nodeid": 712, "leaf": 0.041264344 }
                    ]}, 
                    { "nodeid": 446, "depth": 9, "split": "f0", "split_condition": 0.432385504, "yes": 713, "no": 714, "missing": 713 , "children": [
                      { "nodeid": 713, "leaf": 0.232120275 }, 
                      { "nodeid": 714, "leaf": 0.878355324 }
                    ]}
                  ]}
                ]}, 
                { "nodeid": 150, "depth": 7, "split": "f9", "split_condition": 0.323639393, "yes": 269, "no": 270, "missing": 269 , "children": [
                  { "nodeid": 269, "depth": 8, "split": "f16", "split_condition": 0.32829988, "yes": 447, "no": 448, "missing": 447 , "children": [
                    { "nodeid": 447, "depth": 9, "split": "f18", "split_condition": -0.951604009, "yes": 715, "no": 716, "missing": 715 , "children": [
                      { "nodeid": 715, "leaf": 0.258344024 }, 
                      { "nodeid": 716, "leaf": -0.273613155 }
                    ]}, 
                    { "nodeid": 448, "depth": 9, "split": "f6", "split_condition": 0.643612623, "yes": 717, "no": 718, "missing": 717 , "children": [
                      { "nodeid": 717, "leaf": -0.788355768 }, 
                      { "nodeid": 718, "leaf": 0.00927530881 }
                    ]}
                  ]}, 
                  { "nodeid": 270, "depth": 8, "split": "f14", "split_condition": 0.27010262, "yes": 449, "no": 450, "missing": 449 , "children": [
                    { "nodeid": 449, "depth": 9, "split": "f11", "split_condition": 0.124687999, "yes": 719, "no": 720, "missing": 719 , "children": [
                      { "nodeid": 719, "leaf": -0.0139225246 }, 
                      { "nodeid": 720, "leaf": -0.239903837 }
                    ]}, 
                    { "nodeid": 450, "depth": 9, "split": "f18", "split_condition": -0.255612433, "yes": 721, "no": 722, "missing": 721 , "children": [
                      { "nodeid": 721, "leaf": -0.0799910948 }, 
                      { "nodeid": 722, "leaf": 0.227077603 }
                    ]}
                  ]}
                ]}
              ]}, 
              { "nodeid": 80, "depth": 6, "split": "f0", "split_condition": 1.88689458, "yes": 151, "no": 152, "missing": 151 , "children": [
                { "nodeid": 151, "leaf": -1.18009806 }, 
                { "nodeid": 152, "depth": 7, "split": "f7", "split_condition": -0.196243554, "yes": 271, "no": 272, "missing": 271 , "children": [
                  { "nodeid": 271, "depth": 8, "split": "f0", "split_condition": 2.52301288, "yes": 451, "no": 452, "missing": 451 , "children": [
                    { "nodeid": 451, "depth": 9, "split": "f1", "split_condition": -1.15480685, "yes": 723, "no": 724, "missing": 723 , "children": [
                      { "nodeid": 723, "leaf": -0.0259573311 }, 
                      { "nodeid": 724, "leaf": 0.274710506 }
                    ]}, 
                    { "nodeid": 452, "depth": 9, "split": "f1", "split_condition": -1.07378995, "yes": 725, "no": 726, "missing": 725 , "children": [
                      { "nodeid": 725, "leaf": 0.0465047359 }, 
                      { "nodeid": 726, "leaf": -0.283281893 }
                    ]}
                  ]}, 
                  { "nodeid": 272, "depth": 8, "split": "f7", "split_condition": 0.72502923, "yes": 453, "no": 454, "missing": 453 , "children": [
                    { "nodeid": 453, "depth": 9, "split": "f17", "split_condition": 0.740384579, "yes": 727, "no": 728, "missing": 727 , "children": [
                      { "nodeid": 727, "leaf": -0.603697956 }, 
                      { "nodeid": 728, "leaf": -0.112768032 }
                    ]}, 
                    { "nodeid": 454, "depth": 9, "split": "f9", "split_condition": -0.0875639543, "yes": 729, "no": 730, "missing": 729 , "children": [
                      { "nodeid": 729, "leaf": -0.141407579 }, 
                      { "nodeid": 730, "leaf": 0.0897107348 }
                    ]}
                  ]}
                ]}
              ]}
            ]}, 
            { "nodeid": 44, "depth": 5, "split": "f4", "split_condition": -0.138421699, "yes": 81, "no": 82, "missing": 81 , "children": [
              { "nodeid": 81, "depth": 6, "split": "f4", "split_condition": -0.81271255, "yes": 153, "no": 154, "missing": 153 , "children": [
                { "nodeid": 153, "depth": 7, "split": "f14", "split_condition": -1.66344142, "yes": 273, "no": 274, "missing": 273 , "children": [
                  { "nodeid": 273, "depth": 8, "split": "f0", "split_condition": 0.440559685, "yes": 455, "no": 456, "missing": 455 , "children": [
                    { "nodeid": 455, "leaf": -0.925585091 }, 
                    { "nodeid": 456, "leaf": -0.238491058 }
                  ]}, 
                  { "nodeid": 274, "depth": 8, "split": "f11", "split_condition": -0.468505025, "yes": 457, "no": 458, "missing": 457 , "children": [
                    { "nodeid": 457, "depth": 9, "split": "f0", "split_condition": 0.453455418, "yes": 731, "no": 732, "missing": 731 , "children": [
                      { "nodeid": 731, "leaf": -0.172101393 }, 
                      { "nodeid": 732, "leaf": 0.322751343 }
                    ]}, 
                    { "nodeid": 458, "depth": 9, "split": "f0", "split_condition": 0.483517498, "yes": 733, "no": 734, "missing": 733 , "children": [
                      { "nodeid": 733, "leaf": 0.174262032 }, 
                      { "nodeid": 734, "leaf": -0.0904281959 }
                    ]}
                  ]}
                ]}, 
                { "nodeid": 154, "depth": 7, "split": "f14", "split_condition": 0.491237491, "yes": 275, "no": 276, "missing": 275 , "children": [
                  { "nodeid": 275, "depth": 8, "split": "f6", "split_condition": 0.635486722, "yes": 459, "no": 460, "missing": 459 , "children": [
                    { "nodeid": 459, "depth": 9, "split": "f12", "split_condition": 0.468369424, "yes": 735, "no": 736, "missing": 735 , "children": [
                      { "nodeid": 735, "leaf": 0.8239218 }, 
                      { "nodeid": 736, "leaf": 0.197186857 }
                    ]}, 
                    { "nodeid": 460, "depth": 9, "split": "f4", "split_condition": -0.385803163, "yes": 737, "no": 738, "missing": 737 , "children": [
                      { "nodeid": 737, "leaf": 0.106451035 }, 
                      { "nodeid": 738, "leaf": -0.614272416 }
                    ]}
                  ]}, 
                  { "nodeid": 276, "depth": 8, "split": "f0", "split_condition": 1.3315134, "yes": 461, "no": 462, "missing": 461 , "children": [
                    { "nodeid": 461, "depth": 9, "split": "f7", "split_condition": 0.794576108, "yes": 739, "no": 740, "missing": 739 , "children": [
                      { "nodeid": 739, "leaf": 0.876110017 }, 
                      { "nodeid": 740, "leaf": 0.163505718 }
                    ]}, 
                    { "nodeid": 462, "depth": 9, "split": "f11", "split_condition": 0.128929362, "yes": 741, "no": 742, "missing": 741 , "children": [
                      { "nodeid": 741, "leaf": 0.22039628 }, 
                      { "nodeid": 742, "leaf": -0.330684364 }
                    ]}
                  ]}
                ]}
              ]}, 
              { "nodeid": 82, "depth": 6, "split": "f16", "split_condition": 1.36745191, "yes": 155, "no": 156, "missing": 155 , "children": [
                { "nodeid": 155, "depth": 7, "split": "f13", "split_condition": -0.342831731, "yes": 277, "no": 278, "missing": 277 , "children": [
                  { "nodeid": 277, "depth": 8, "split": "f17", "split_condition": 0.753219247, "yes": 463, "no": 464, "missing": 463 , "children": [
                    { "nodeid": 463, "depth": 9, "split": "f0", "split_condition": 1.64137614, "yes": 743, "no": 744, "missing": 743 , "children": [
                      { "nodeid": 743, "leaf": -0.205254346 }, 
                      { "nodeid": 744, "leaf": 0.226103619 }
                    ]}, 
                    { "nodeid": 464, "depth": 9, "split": "f0", "split_condition": 2.04936576, "yes": 745, "no": 746, "missing": 745 , "children": [
                      { "nodeid": 745, "leaf": 0.270190388 }, 
                      { "nodeid": 746, "leaf": -0.602765262 }
                    ]}
                  ]}, 
                  { "nodeid": 278, "depth": 8, "split": "f12", "split_condition": 2.29911017, "yes": 465, "no": 466, "missing": 465 , "children": [
                    { "nodeid": 465, "depth": 9, "split": "f13", "split_condition": 0.603863597, "yes": 747, "no": 748, "missing": 747 , "children": [
                      { "nodeid": 747, "leaf": 0.180705354 }, 
                      { "nodeid": 748, "leaf": -0.070390068 }
                    ]}, 
                    { "nodeid": 466, "depth": 9, "split": "f1", "split_condition": 1.43824685, "yes": 749, "no": 750, "missing": 749 , "children": [
                      { "nodeid": 749, "leaf": 1.07684505 }, 
                      { "nodeid": 750, "leaf": -0.0338699333 }
                    ]}
                  ]}
                ]}, 
                { "nodeid": 156, "depth": 7, "split": "f16", "split_condition": 1.87487769, "yes": 279, "no": 280, "missing": 279 , "children": [
                  { "nodeid": 279, "depth": 8, "split": "f0", "split_condition": 0.794375777, "yes": 467, "no": 468, "missing": 467 , "children": [
                    { "nodeid": 467, "depth": 9, "split": "f1", "split_condition": 0.218701974, "yes": 751, "no": 752, "missing": 751 , "children": [
                      { "nodeid": 751, "leaf": -0.0327935554 }, 
                      { "nodeid": 752, "leaf": -0.221613318 }
                    ]}, 
                    { "nodeid": 468, "leaf": -0.817498684 }
                  ]}, 
                  { "nodeid": 280, "depth": 8, "split": "f18", "split_condition": -0.0622889549, "yes": 469, "no": 470, "missing": 469 , "children": [
                    { "nodeid": 469, "depth": 9, "split": "f1", "split_condition": 1.97879267, "yes": 753, "no": 754, "missing": 753 , "children": [
                      { "nodeid": 753, "leaf": -0.162977606 }, 
                      { "nodeid": 754, "leaf": -0.00354309077 }
                    ]}, 
                    { "nodeid": 470, "leaf": 0.337389112 }
                  ]}
                ]}
              ]}
            ]}
          ]}
        ]}
      ]}, 
      { "nodeid": 6, "depth": 2, "split": "f4", "split_condition": 0.0293135718, "yes": 13, "no": 14, "missing": 13 , "children": [
        { "nodeid": 13, "depth": 3, "split": "f1", "split_condition": -0.328200102, "yes": 25, "no": 26, "missing": 25 , "children": [
          { "nodeid": 25, "depth": 4, "split": "f1", "split_condition": -0.721177161, "yes": 45, "no": 46, "missing": 45 , "children": [
            { "nodeid": 45, "depth": 5, "split": "f14", "split_condition": -0.49431482, "yes": 83, "no": 84, "missing": 83 , "children": [
              { "nodeid": 83, "depth": 6, "split": "f18", "split_condition": -0.546396375, "yes": 157, "no": 158, "missing": 157 , "children": [
                { "nodeid": 157, "depth": 7, "split": "f17", "split_condition": 0.0328787751, "yes": 281, "no": 282, "missing": 281 , "children": [
                  { "nodeid": 281, "depth": 8, "split": "f4", "split_condition": -0.412176311, "yes": 471, "no": 472, "missing": 471 , "children": [
                    { "nodeid": 471, "leaf": -0.0520385765 }, 
                    { "nodeid": 472, "leaf": -0.192894369 }
                  ]}, 
                  { "nodeid": 282, "leaf": -0.490086168 }
                ]}, 
                { "nodeid": 158, "depth": 7, "split": "f18", "split_condition": 0.19615455, "yes": 283, "no": 284, "missing": 283 , "children": [
                  { "nodeid": 283, "depth": 8, "split": "f5", "split_condition": 0.249652237, "yes": 473, "no": 474, "missing": 473 , "children": [
                    { "nodeid": 473, "depth": 9, "split": "f0", "split_condition": 1.04123092, "yes": 755, "no": 756, "missing": 755 , "children": [
                      { "nodeid": 755, "leaf": 0.0435531624 }, 
                      { "nodeid": 756, "leaf": 0.000424957281 }
                    ]}, 
                    { "nodeid": 474, "leaf": 0.180056766 }
                  ]}, 
                  { "nodeid": 284, "leaf": -0.0818239227 }
                ]}
              ]}, 
              { "nodeid": 84, "depth": 6, "split": "f18", "split_condition": -0.794386625, "yes": 159, "no": 160, "missing": 159 , "children": [
                { "nodeid": 159, "depth": 7, "split": "f4", "split_condition": -0.823884249, "yes": 285, "no": 286, "missing": 285 , "children": [
                  { "nodeid": 285, "depth": 8, "split": "f5", "split_condition": -0.582447052, "yes": 475, "no": 476, "missing": 475 , "children": [
                    { "nodeid": 475, "leaf": 0.180290669 }, 
                    { "nodeid": 476, "leaf": 0.686833501 }
                  ]}, 
                  { "nodeid": 286, "depth": 8, "split": "f0", "split_condition": 0.699648738, "yes": 477, "no": 478, "missing": 477 , "children": [
                    { "nodeid": 477, "leaf": 0.0141860964 }, 
                    { "nodeid": 478, "leaf": -0.0535552986 }
                  ]}
                ]}, 
                { "nodeid": 160, "depth": 7, "split": "f5", "split_condition": -0.131903023, "yes": 287, "no": 288, "missing": 287 , "children": [
                  { "nodeid": 287, "depth": 8, "split": "f1", "split_condition": -0.878199339, "yes": 479, "no": 480, "missing": 479 , "children": [
                    { "nodeid": 479, "depth": 9, "split": "f1", "split_condition": -1.42549407, "yes": 757, "no": 758, "missing": 757 , "children": [
                      { "nodeid": 757, "leaf": -0.0196607988 }, 
                      { "nodeid": 758, "leaf": 0.327170044 }
                    ]}, 
                    { "nodeid": 480, "depth": 9, "split": "f0", "split_condition": 1.59981203, "yes": 759, "no": 760, "missing": 759 , "children": [
                      { "nodeid": 759, "leaf": -0.0982259437 }, 
                      { "nodeid": 760, "leaf": 0.0352561958 }
                    ]}
                  ]}, 
                  { "nodeid": 288, "depth": 8, "split": "f0", "split_condition": 0.287125081, "yes": 481, "no": 482, "missing": 481 , "children": [
                    { "nodeid": 481, "leaf": 0.278863907 }, 
                    { "nodeid": 482, "depth": 9, "split": "f4", "split_condition": -1.29714966, "yes": 761, "no": 762, "missing": 761 , "children": [
                      { "nodeid": 761, "leaf": 0.026482543 }, 
                      { "nodeid": 762, "leaf": -0.243539482 }
                    ]}
                  ]}
                ]}
              ]}
            ]}, 
            { "nodeid": 46, "depth": 5, "split": "f15", "split_condition": 0.673878551, "yes": 85, "no": 86, "missing": 85 , "children": [
              { "nodeid": 85, "depth": 6, "split": "f17", "split_condition": 1.07229924, "yes": 161, "no": 162, "missing": 161 , "children": [
                { "nodeid": 161, "depth": 7, "split": "f0", "split_condition": 1.67744756, "yes": 289, "no": 290, "missing": 289 , "children": [
                  { "nodeid": 289, "depth": 8, "split": "f4", "split_condition": -0.289914936, "yes": 483, "no": 484, "missing": 483 , "children": [
                    { "nodeid": 483, "depth": 9, "split": "f6", "split_condition": 2.15864444, "yes": 763, "no": 764, "missing": 763 , "children": [
                      { "nodeid": 763, "leaf": 0.847470582 }, 
                      { "nodeid": 764, "leaf": 0.293933213 }
                    ]}, 
                    { "nodeid": 484, "leaf": 0.150145724 }
                  ]}, 
                  { "nodeid": 290, "depth": 8, "split": "f0", "split_condition": 2.14221025, "yes": 485, "no": 486, "missing": 485 , "children": [
                    { "nodeid": 485, "leaf": -0.0305328369 }, 
                    { "nodeid": 486, "leaf": 0.175191879 }
                  ]}
                ]}, 
                { "nodeid": 162, "depth": 7, "split": "f10", "split_condition": 0.145865709, "yes": 291, "no": 292, "missing": 291 , "children": [
                  { "nodeid": 291, "leaf": 0.252089441 }, 
                  { "nodeid": 292, "depth": 8, "split": "f0", "split_condition": 1.92783105, "yes": 487, "no": 488, "missing": 487 , "children": [
                    { "nodeid": 487, "leaf": -0.15520224 }, 
                    { "nodeid": 488, "leaf": -0.03383255 }
                  ]}
                ]}
              ]}, 
              { "nodeid": 86, "depth": 6, "split": "f0", "split_condition": 0.344001949, "yes": 163, "no": 164, "missing": 163 , "children": [
                { "nodeid": 163, "leaf": 0.169355392 }, 
                { "nodeid": 164, "depth": 7, "split": "f0", "split_condition": 1.02598751, "yes": 293, "no": 294, "missing": 293 , "children": [
                  { "nodeid": 293, "leaf": -0.292438716 }, 
                  { "nodeid": 294, "leaf": -0.0583778396 }
                ]}
              ]}
            ]}
          ]}, 
          { "nodeid": 26, "depth": 4, "split": "f1", "split_condition": 0.767374277, "yes": 47, "no": 48, "missing": 47 , "children": [
            { "nodeid": 47, "depth": 5, "split": "f6", "split_condition": 1.63854849, "yes": 87, "no": 88, "missing": 87 , "children": [
              { "nodeid": 87, "depth": 6, "split": "f16", "split_condition": 0.0557755455, "yes": 165, "no": 166, "missing": 165 , "children": [
                { "nodeid": 165, "depth": 7, "split": "f16", "split_condition": -0.872882068, "yes": 295, "no": 296, "missing": 295 , "children": [
                  { "nodeid": 295, "leaf": -0.242724895 }, 
                  { "nodeid": 296, "depth": 8, "split": "f14", "split_condition": -0.379934669, "yes": 489, "no": 490, "missing": 489 , "children": [
                    { "nodeid": 489, "depth": 9, "split": "f4", "split_condition": -0.18282488, "yes": 765, "no": 766, "missing": 765 , "children": [
                      { "nodeid": 765, "leaf": -0.0790501907 }, 
                      { "nodeid": 766, "leaf": 0.0673461929 }
                    ]}, 
                    { "nodeid": 490, "depth": 9, "split": "f1", "split_condition": 0.0650319159, "yes": 767, "no": 768, "missing": 767 , "children": [
                      { "nodeid": 767, "leaf": 0.0631998703 }, 
                      { "nodeid": 768, "leaf": 0.237136349 }
                    ]}
                  ]}
                ]}, 
                { "nodeid": 166, "depth": 7, "split": "f1", "split_condition": -0.233593881, "yes": 297, "no": 298, "missing": 297 , "children": [
                  { "nodeid": 297, "leaf": 0.148958847 }, 
                  { "nodeid": 298, "depth": 8, "split": "f9", "split_condition": 1.12734818, "yes": 491, "no": 492, "missing": 491 , "children": [
                    { "nodeid": 491, "depth": 9, "split": "f0", "split_condition": 1.16481066, "yes": 769, "no": 770, "missing": 769 , "children": [
                      { "nodeid": 769, "leaf": -0.774746597 }, 
                      { "nodeid": 770, "leaf": -0.210780174 }
                    ]}, 
                    { "nodeid": 492, "depth": 9, "split": "f0", "split_condition": 0.309163004, "yes": 771, "no": 772, "missing": 771 , "children": [
                      { "nodeid": 771, "leaf": 0.10875956 }, 
                      { "nodeid": 772, "leaf": -0.159202963 }
                    ]}
                  ]}
                ]}
              ]}, 
              { "nodeid": 88, "depth": 6, "split": "f15", "split_condition": -1.04550529, "yes": 167, "no": 168, "missing": 167 , "children": [
                { "nodeid": 167, "depth": 7, "split": "f16", "split_condition": 0.861553311, "yes": 299, "no": 300, "missing": 299 , "children": [
                  { "nodeid": 299, "depth": 8, "split": "f18", "split_condition": -0.260763466, "yes": 493, "no": 494, "missing": 493 , "children": [
                    { "nodeid": 493, "leaf": 0.518120229 }, 
                    { "nodeid": 494, "leaf": 0.140400186 }
                  ]}, 
                  { "nodeid": 300, "depth": 8, "split": "f0", "split_condition": 0.894976437, "yes": 495, "no": 496, "missing": 495 , "children": [
                    { "nodeid": 495, "leaf": -0.260980517 }, 
                    { "nodeid": 496, "leaf": -0.0382766724 }
                  ]}
                ]}, 
                { "nodeid": 168, "depth": 7, "split": "f5", "split_condition": -1.41185927, "yes": 301, "no": 302, "missing": 301 , "children": [
                  { "nodeid": 301, "depth": 8, "split": "f5", "split_condition": -2.86606407, "yes": 497, "no": 498, "missing": 497 , "children": [
                    { "nodeid": 497, "leaf": 0.0326782241 }, 
                    { "nodeid": 498, "leaf": 0.184031114 }
                  ]}, 
                  { "nodeid": 302, "depth": 8, "split": "f17", "split_condition": -0.969949603, "yes": 499, "no": 500, "missing": 499 , "children": [
                    { "nodeid": 499, "depth": 9, "split": "f9", "split_condition": -0.669173837, "yes": 773, "no": 774, "missing": 773 , "children": [
                      { "nodeid": 773, "leaf": -0.032939449 }, 
                      { "nodeid": 774, "leaf": 0.183325648 }
                    ]}, 
                    { "nodeid": 500, "depth": 9, "split": "f4", "split_condition": -0.111706749, "yes": 775, "no": 776, "missing": 775 , "children": [
                      { "nodeid": 775, "leaf": -0.152569383 }, 
                      { "nodeid": 776, "leaf": 0.152060956 }
                    ]}
                  ]}
                ]}
              ]}
            ]}, 
            { "nodeid": 48, "depth": 5, "split": "f14", "split_condition": -0.584646583, "yes": 89, "no": 90, "missing": 89 , "children": [
              { "nodeid": 89, "depth": 6, "split": "f11", "split_condition": 0.159781188, "yes": 169, "no": 170, "missing": 169 , "children": [
                { "nodeid": 169, "depth": 7, "split": "f0", "split_condition": 1.32380629, "yes": 303, "no": 304, "missing": 303 , "children": [
                  { "nodeid": 303, "depth": 8, "split": "f1", "split_condition": 1.48962057, "yes": 501, "no": 502, "missing": 501 , "children": [
                    { "nodeid": 501, "leaf": -0.0870297775 }, 
                    { "nodeid": 502, "leaf": 0.0188144445 }
                  ]}, 
                  { "nodeid": 304, "leaf": 0.212335214 }
                ]}, 
                { "nodeid": 170, "leaf": -0.443932146 }
              ]}, 
              { "nodeid": 90, "depth": 6, "split": "f11", "split_condition": 0.94594723, "yes": 171, "no": 172, "missing": 171 , "children": [
                { "nodeid": 171, "depth": 7, "split": "f1", "split_condition": 0.9865098, "yes": 305, "no": 306, "missing": 305 , "children": [
                  { "nodeid": 305, "depth": 8, "split": "f5", "split_condition": 1.04609895, "yes": 503, "no": 504, "missing": 503 , "children": [
                    { "nodeid": 503, "leaf": 0.687959492 }, 
                    { "nodeid": 504, "leaf": 0.106430054 }
                  ]}, 
                  { "nodeid": 306, "depth": 8, "split": "f11", "split_condition": -0.64948684, "yes": 505, "no": 506, "missing": 505 , "children": [
                    { "nodeid": 505, "depth": 9, "split": "f1", "split_condition": 1.17840433, "yes": 777, "no": 778, "missing": 777 , "children": [
                      { "nodeid": 777, "leaf": -0.0955314636 }, 
                      { "nodeid": 778, "leaf": 0.0175064094 }
                    ]}, 
                    { "nodeid": 506, "depth": 9, "split": "f18", "split_condition": -0.851716042, "yes": 779, "no": 780, "missing": 779 , "children": [
                      { "nodeid": 779, "leaf": 0.111292459 }, 
                      { "nodeid": 780, "leaf": 0.337875098 }
                    ]}
                  ]}
                ]}, 
                { "nodeid": 172, "depth": 7, "split": "f1", "split_condition": 0.799372077, "yes": 307, "no": 308, "missing": 307 , "children": [
                  { "nodeid": 307, "leaf": -0.202099606 }, 
                  { "nodeid": 308, "depth": 8, "split": "f10", "split_condition": 0.397645056, "yes": 507, "no": 508, "missing": 507 , "children": [
                    { "nodeid": 507, "depth": 9, "split": "f0", "split_condition": 0.630622745, "yes": 781, "no": 782, "missing": 781 , "children": [
                      { "nodeid": 781, "leaf": 0.0195686352 }, 
                      { "nodeid": 782, "leaf": -0.00522460928 }
                    ]}, 
                    { "nodeid": 508, "leaf": 0.102790833 }
                  ]}
                ]}
              ]}
            ]}
          ]}
        ]}, 
        { "nodeid": 14, "depth": 3, "split": "f4", "split_condition": 0.428021908, "yes": 27, "no": 28, "missing": 27 , "children": [
          { "nodeid": 27, "depth": 4, "split": "f16", "split_condition": 0.541363299, "yes": 49, "no": 50, "missing": 49 , "children": [
            { "nodeid": 49, "depth": 5, "split": "f6", "split_condition": 1.1910429, "yes": 91, "no": 92, "missing": 91 , "children": [
              { "nodeid": 91, "depth": 6, "split": "f0", "split_condition": 0.645129263, "yes": 173, "no": 174, "missing": 173 , "children": [
                { "nodeid": 173, "leaf": 0.0270111095 }, 
                { "nodeid": 174, "leaf": 1.18221331 }
              ]}, 
              { "nodeid": 92, "depth": 6, "split": "f12", "split_condition": 1.5480063, "yes": 175, "no": 176, "missing": 175 , "children": [
                { "nodeid": 175, "depth": 7, "split": "f10", "split_condition": -1.37217021, "yes": 309, "no": 310, "missing": 309 , "children": [
                  { "nodeid": 309, "depth": 8, "split": "f0", "split_condition": 1.02839005, "yes": 509, "no": 510, "missing": 509 , "children": [
                    { "nodeid": 509, "leaf": 0.171242669 }, 
                    { "nodeid": 510, "leaf": 0.771807492 }
                  ]}, 
                  { "nodeid": 310, "depth": 8, "split": "f11", "split_condition": -1.49059701, "yes": 511, "no": 512, "missing": 511 , "children": [
                    { "nodeid": 511, "leaf": 0.328823 }, 
                    { "nodeid": 512, "depth": 9, "split": "f15", "split_condition": 1.60825717, "yes": 783, "no": 784, "missing": 783 , "children": [
                      { "nodeid": 783, "leaf": -0.102450445 }, 
                      { "nodeid": 784, "leaf": 0.27545777 }
                    ]}
                  ]}
                ]}, 
                { "nodeid": 176, "depth": 7, "split": "f0", "split_condition": 1.0043633, "yes": 311, "no": 312, "missing": 311 , "children": [
                  { "nodeid": 311, "leaf": 0.0935142562 }, 
                  { "nodeid": 312, "leaf": 0.752467752 }
                ]}
              ]}
            ]}, 
            { "nodeid": 50, "depth": 5, "split": "f18", "split_condition": 0.246781319, "yes": 93, "no": 94, "missing": 93 , "children": [
              { "nodeid": 93, "depth": 6, "split": "f14", "split_condition": -0.533723176, "yes": 177, "no": 178, "missing": 177 , "children": [
                { "nodeid": 177, "depth": 7, "split": "f0", "split_condition": 0.979008079, "yes": 313, "no": 314, "missing": 313 , "children": [
                  { "nodeid": 313, "leaf": -0.217858896 }, 
                  { "nodeid": 314, "leaf": 0.000789642334 }
                ]}, 
                { "nodeid": 178, "depth": 7, "split": "f0", "split_condition": 1.04333711, "yes": 315, "no": 316, "missing": 315 , "children": [
                  { "nodeid": 315, "leaf": 0.454903603 }, 
                  { "nodeid": 316, "leaf": 0.0727966353 }
                ]}
              ]}, 
              { "nodeid": 94, "depth": 6, "split": "f4", "split_condition": 0.42073375, "yes": 179, "no": 180, "missing": 179 , "children": [
                { "nodeid": 179, "depth": 7, "split": "f1", "split_condition": -0.581580162, "yes": 317, "no": 318, "missing": 317 , "children": [
                  { "nodeid": 317, "leaf": 0.234896854 }, 
                  { "nodeid": 318, "depth": 8, "split": "f1", "split_condition": 1.75522602, "yes": 513, "no": 514, "missing": 513 , "children": [
                    { "nodeid": 513, "leaf": 1.27432334 }, 
                    { "nodeid": 514, "leaf": 0.306213379 }
                  ]}
                ]}, 
                { "nodeid": 180, "leaf": 0.194848642 }
              ]}
            ]}
          ]}, 
          { "nodeid": 28, "depth": 4, "split": "f11", "split_condition": -1.37550616, "yes": 51, "no": 52, "missing": 51 , "children": [
            { "nodeid": 51, "depth": 5, "split": "f6", "split_condition": 1.50073099, "yes": 95, "no": 96, "missing": 95 , "children": [
              { "nodeid": 95, "leaf": -0.580693662 }, 
              { "nodeid": 96, "depth": 6, "split": "f6", "split_condition": 1.55392849, "yes": 181, "no": 182, "missing": 181 , "children": [
                { "nodeid": 181, "leaf": 0.170645148 }, 
                { "nodeid": 182, "depth": 7, "split": "f4", "split_condition": 1.21110499, "yes": 319, "no": 320, "missing": 319 , "children": [
                  { "nodeid": 319, "leaf": -0.217598468 }, 
                  { "nodeid": 320, "leaf": -0.065024063 }
                ]}
              ]}
            ]}, 
            { "nodeid": 52, "depth": 5, "split": "f13", "split_condition": 0.26284796, "yes": 97, "no": 98, "missing": 97 , "children": [
              { "nodeid": 97, "depth": 6, "split": "f15", "split_condition": -0.32889843, "yes": 183, "no": 184, "missing": 183 , "children": [
                { "nodeid": 183, "depth": 7, "split": "f13", "split_condition": 0.0630927607, "yes": 321, "no": 322, "missing": 321 , "children": [
                  { "nodeid": 321, "depth": 8, "split": "f15", "split_condition": -0.669553041, "yes": 515, "no": 516, "missing": 515 , "children": [
                    { "nodeid": 515, "depth": 9, "split": "f11", "split_condition": -0.205372065, "yes": 785, "no": 786, "missing": 785 , "children": [
                      { "nodeid": 785, "leaf": 0.201536253 }, 
                      { "nodeid": 786, "leaf": -0.00473200111 }
                    ]}, 
                    { "nodeid": 516, "depth": 9, "split": "f12", "split_condition": 0.35784632, "yes": 787, "no": 788, "missing": 787 , "children": [
                      { "nodeid": 787, "leaf": -0.0474285297 }, 
                      { "nodeid": 788, "leaf": -0.349074453 }
                    ]}
                  ]}, 
                  { "nodeid": 322, "depth": 8, "split": "f4", "split_condition": 0.808508396, "yes": 517, "no": 518, "missing": 517 , "children": [
                    { "nodeid": 517, "leaf": 0.0518346131 }, 
                    { "nodeid": 518, "leaf": -0.765142262 }
                  ]}
                ]}, 
                { "nodeid": 184, "depth": 7, "split": "f7", "split_condition": -0.635421455, "yes": 323, "no": 324, "missing": 323 , "children": [
                  { "nodeid": 323, "depth": 8, "split": "f5", "split_condition": -0.275956273, "yes": 519, "no": 520, "missing": 519 , "children": [
                    { "nodeid": 519, "depth": 9, "split": "f0", "split_condition": 0.453993231, "yes": 789, "no": 790, "missing": 789 , "children": [
                      { "nodeid": 789, "leaf": -0.0294067394 }, 
                      { "nodeid": 790, "leaf": 0.126570642 }
                    ]}, 
                    { "nodeid": 520, "depth": 9, "split": "f5", "split_condition": 0.377401114, "yes": 791, "no": 792, "missing": 791 , "children": [
                      { "nodeid": 791, "leaf": -0.315443486 }, 
                      { "nodeid": 792, "leaf": -0.0936363265 }
                    ]}
                  ]}, 
                  { "nodeid": 324, "depth": 8, "split": "f16", "split_condition": 0.915797114, "yes": 521, "no": 522, "missing": 521 , "children": [
                    { "nodeid": 521, "depth": 9, "split": "f14", "split_condition": -0.751177013, "yes": 793, "no": 794, "missing": 793 , "children": [
                      { "nodeid": 793, "leaf": 0.0142606525 }, 
                      { "nodeid": 794, "leaf": 0.328551233 }
                    ]}, 
                    { "nodeid": 522, "depth": 9, "split": "f11", "split_condition": -0.351432681, "yes": 795, "no": 796, "missing": 795 , "children": [
                      { "nodeid": 795, "leaf": 0.079820253 }, 
                      { "nodeid": 796, "leaf": -0.126769409 }
                    ]}
                  ]}
                ]}
              ]}, 
              { "nodeid": 98, "depth": 6, "split": "f1", "split_condition": 0.280009776, "yes": 185, "no": 186, "missing": 185 , "children": [
                { "nodeid": 185, "depth": 7, "split": "f5", "split_condition": -0.148186624, "yes": 325, "no": 326, "missing": 325 , "children": [
                  { "nodeid": 325, "depth": 8, "split": "f0", "split_condition": 0.315018147, "yes": 523, "no": 524, "missing": 523 , "children": [
                    { "nodeid": 523, "leaf": -0.468071759 }, 
                    { "nodeid": 524, "depth": 9, "split": "f1", "split_condition": -1.0327549, "yes": 797, "no": 798, "missing": 797 , "children": [
                      { "nodeid": 797, "leaf": -0.202064782 }, 
                      { "nodeid": 798, "leaf": 0.154025659 }
                    ]}
                  ]}, 
                  { "nodeid": 326, "depth": 8, "split": "f15", "split_condition": 1.34398842, "yes": 525, "no": 526, "missing": 525 , "children": [
                    { "nodeid": 525, "depth": 9, "split": "f9", "split_condition": 0.375552058, "yes": 799, "no": 800, "missing": 799 , "children": [
                      { "nodeid": 799, "leaf": 0.389066547 }, 
                      { "nodeid": 800, "leaf": 0.0881224722 }
                    ]}, 
                    { "nodeid": 526, "leaf": -0.163640812 }
                  ]}
                ]}, 
                { "nodeid": 186, "depth": 7, "split": "f7", "split_condition": -1.2586174, "yes": 327, "no": 328, "missing": 327 , "children": [
                  { "nodeid": 327, "leaf": -0.112360671 }, 
                  { "nodeid": 328, "depth": 8, "split": "f4", "split_condition": 1.24368429, "yes": 527, "no": 528, "missing": 527 , "children": [
                    { "nodeid": 527, "depth": 9, "split": "f5", "split_condition": 0.0264006481, "yes": 801, "no": 802, "missing": 801 , "children": [
                      { "nodeid": 801, "leaf": 0.340044677 }, 
                      { "nodeid": 802, "leaf": 0.952225506 }
                    ]}, 
                    { "nodeid": 528, "depth": 9, "split": "f4", "split_condition": 2.25158525, "yes": 803, "no": 804, "missing": 803 , "children": [
                      { "nodeid": 803, "leaf": 0.213034704 }, 
                      { "nodeid": 804, "leaf": -0.0189147945 }
                    ]}
                  ]}
                ]}
              ]}
            ]}
          ]}
        ]}
      ]}
    ]}
  ]}