  { "nodeid": 0, "depth": 0, "split": "f1", "split_condition": -0.312030107, "yes": 1, "no": 2, "missing": 1 , "children": [
    { "nodeid": 1, "depth": 1, "split": "f19", "split_condition": -0.711522698, "yes": 3, "no": 4, "missing": 3 , "children": [
      { "nodeid": 3, "depth": 2, "split": "f9", "split_condition": 0.184245005, "yes": 7, "no": 8, "missing": 7 , "children": [
        { "nodeid": 7, "depth": 3, "split": "f3", "split_condition": 0.0188080762, "yes": 15, "no": 16, "missing": 15 , "children": [
          { "nodeid": 15, "depth": 4, "split": "f18", "split_condition": -0.471068174, "yes": 31, "no": 32, "missing": 31 , "children": [
            { "nodeid": 31, "depth": 5, "split": "f16", "split_condition": -1.77479196, "yes": 63, "no": 64, "missing": 63 , "children": [
              { "nodeid": 63, "leaf": -17.8372784 }, 
              { "nodeid": 64, "depth": 6, "split": "f6", "split_condition": 0.778569281, "yes": 127, "no": 128, "missing": 127 , "children": [
                { "nodeid": 127, "depth": 7, "split": "f11", "split_condition": 1.75410235, "yes": 245, "no": 246, "missing": 245 , "children": [
                  { "nodeid": 245, "depth": 8, "split": "f0", "split_condition": -1.53912926, "yes": 447, "no": 448, "missing": 447 , "children": [
                    { "nodeid": 447, "leaf": -1.37762761 }, 
                    { "nodeid": 448, "depth": 9, "split": "f14", "split_condition": 1.40312111, "yes": 743, "no": 744, "missing": 743 , "children": [
                      { "nodeid": 743, "leaf": -9.14067173 }, 
                      { "nodeid": 744, "leaf": -4.42505312 }
                    ]}
                  ]}, 
                  { "nodeid": 246, "depth": 8, "split": "f1", "split_condition": -0.957185626, "yes": 449, "no": 450, "missing": 449 , "children": [
                    { "nodeid": 449, "leaf": -3.29360056 }, 
                    { "nodeid": 450, "leaf": -0.549465477 }
                  ]}
                ]}, 
                { "nodeid": 128, "depth": 7, "split": "f12", "split_condition": 0.606561601, "yes": 247, "no": 248, "missing": 247 , "children": [
                  { "nodeid": 247, "depth": 8, "split": "f5", "split_condition": 1.04640388, "yes": 451, "no": 452, "missing": 451 , "children": [
                    { "nodeid": 451, "leaf": -4.27806234 }, 
                    { "nodeid": 452, "leaf": -0.349951178 }
                  ]}, 
                  { "nodeid": 248, "depth": 8, "split": "f1", "split_condition": -0.92116493, "yes": 453, "no": 454, "missing": 453 , "children": [
                    { "nodeid": 453, "leaf": 0.763769627 }, 
                    { "nodeid": 454, "depth": 9, "split": "f0", "split_condition": -1.24729359, "yes": 745, "no": 746, "missing": 745 , "children": [
                      { "nodeid": 745, "leaf": -0.211291701 }, 
                      { "nodeid": 746, "leaf": -0.95089215 }
                    ]}
                  ]}
                ]}
              ]}
            ]}, 
            { "nodeid": 32, "depth": 5, "split": "f10", "split_condition": -0.384868473, "yes": 65, "no": 66, "missing": 65 , "children": [
              { "nodeid": 65, "depth": 6, "split": "f3", "split_condition": -1.11375582, "yes": 129, "no": 130, "missing": 129 , "children": [
                { "nodeid": 129, "depth": 7, "split": "f1", "split_condition": -1.77571297, "yes": 249, "no": 250, "missing": 249 , "children": [
                  { "nodeid": 249, "leaf": -3.12617707 }, 
                  { "nodeid": 250, "depth": 8, "split": "f6", "split_condition": 0.642303646, "yes": 455, "no": 456, "missing": 455 , "children": [
                    { "nodeid": 455, "leaf": -11.7187567 }, 
                    { "nodeid": 456, "leaf": -4.76854897 }
                  ]}
                ]}, 
                { "nodeid": 130, "depth": 7, "split": "f6", "split_condition": -1.62787414, "yes": 251, "no": 252, "missing": 251 , "children": [
                  { "nodeid": 251, "leaf": -9.54483128 }, 
                  { "nodeid": 252, "depth": 8, "split": "f16", "split_condition": 0.920793235, "yes": 457, "no": 458, "missing": 457 , "children": [
                    { "nodeid": 457, "depth": 9, "split": "f17", "split_condition": 1.58337975, "yes": 747, "no": 748, "missing": 747 , "children": [
                      { "nodeid": 747, "leaf": -5.44746637 }, 
                      { "nodeid": 748, "leaf": -1.18846941 }
                    ]}, 
                    { "nodeid": 458, "depth": 9, "split": "f9", "split_condition": -0.178384781, "yes": 749, "no": 750, "missing": 749 , "children": [
                      { "nodeid": 749, "leaf": -2.68700004 }, 
                      { "nodeid": 750, "leaf": 0.0131434919 }
                    ]}
                  ]}
                ]}
              ]}, 
              { "nodeid": 66, "depth": 6, "split": "f1", "split_condition": -1.69671011, "yes": 131, "no": 132, "missing": 131 , "children": [
                { "nodeid": 131, "depth": 7, "split": "f5", "split_condition": 0.215257734, "yes": 253, "no": 254, "missing": 253 , "children": [
                  { "nodeid": 253, "depth": 8, "split": "f10", "split_condition": 1.360744, "yes": 459, "no": 460, "missing": 459 , "children": [
                    { "nodeid": 459, "leaf": -9.80812931 }, 
                    { "nodeid": 460, "leaf": -2.74228668 }
                  ]}, 
                  { "nodeid": 254, "depth": 8, "split": "f9", "split_condition": -0.0295456368, "yes": 461, "no": 462, "missing": 461 , "children": [
                    { "nodeid": 461, "leaf": -3.6650064 }, 
                    { "nodeid": 462, "leaf": -0.632473171 }
                  ]}
                ]}, 
                { "nodeid": 132, "depth": 7, "split": "f4", "split_condition": -0.318454325, "yes": 255, "no": 256, "missing": 255 , "children": [
                  { "nodeid": 255, "depth": 8, "split": "f14", "split_condition": 0.389478266, "yes": 463, "no": 464, "missing": 463 , "children": [
                    { "nodeid": 463, "leaf": -6.10204458 }, 
                    { "nodeid": 464, "depth": 9, "split": "f3", "split_condition": -0.445824057, "yes": 751, "no": 752, "missing": 751 , "children": [
                      { "nodeid": 751, "leaf": -3.51875544 }, 
                      { "nodeid": 752, "leaf": -0.644007385 }
                    ]}
                  ]}, 
                  { "nodeid": 256, "depth": 8, "split": "f14", "split_condition": -0.219177872, "yes": 465, "no": 466, "missing": 465 , "children": [
                    { "nodeid": 465, "depth": 9, "split": "f19", "split_condition": -1.0312109, "yes": 753, "no": 754, "missing": 753 , "children": [
                      { "nodeid": 753, "leaf": -4.82033587 }, 
                      { "nodeid": 754, "leaf": 0.0291101839 }
                    ]}, 
                    { "nodeid": 466, "depth": 9, "split": "f5", "split_condition": -0.587283254, "yes": 755, "no": 756, "missing": 755 , "children": [
                      { "nodeid": 755, "leaf": -2.69593596 }, 
                      { "nodeid": 756, "leaf": 0.868276238 }
                    ]}
                  ]}
                ]}
              ]}
            ]}
          ]}, 
          { "nodeid": 16, "depth": 4, "split": "f19", "split_condition": -1.88060689, "yes": 33, "no": 34, "missing": 33 , "children": [
            { "nodeid": 33, "depth": 5, "split": "f1", "split_condition": -0.409098715, "yes": 67, "no": 68, "missing": 67 , "children": [
              { "nodeid": 67, "depth": 6, "split": "f16", "split_condition": 0.919385791, "yes": 133, "no": 134, "missing": 133 , "children": [
                { "nodeid": 133, "depth": 7, "split": "f3", "split_condition": 2.29388905, "yes": 257, "no": 258, "missing": 257 , "children": [
                  { "nodeid": 257, "leaf": -8.90891933 }, 
                  { "nodeid": 258, "leaf": -2.22623444 }
                ]}, 
                { "nodeid": 134, "depth": 7, "split": "f12", "split_condition": 1.12140262, "yes": 259, "no": 260, "missing": 259 , "children": [
                  { "nodeid": 259, "leaf": -3.70473146 }, 
                  { "nodeid": 260, "leaf": -0.729850769 }
                ]}
              ]}, 
              { "nodeid": 68, "leaf": -0.362095654 }
            ]}, 
            { "nodeid": 34, "depth": 5, "split": "f6", "split_condition": -0.301859796, "yes": 69, "no": 70, "missing": 69 , "children": [
              { "nodeid": 69, "depth": 6, "split": "f18", "split_condition": -0.306029677, "yes": 135, "no": 136, "missing": 135 , "children": [
                { "nodeid": 135, "depth": 7, "split": "f5", "split_condition": 1.18507648, "yes": 261, "no": 262, "missing": 261 , "children": [
                  { "nodeid": 261, "leaf": -8.14751244 }, 
                  { "nodeid": 262, "leaf": -2.21159053 }
                ]}, 
                { "nodeid": 136, "depth": 7, "split": "f1", "split_condition": -0.687829018, "yes": 263, "no": 264, "missing": 263 , "children": [
                  { "nodeid": 263, "depth": 8, "split": "f11", "split_condition": 0.337989092, "yes": 467, "no": 468, "missing": 467 , "children": [
                    { "nodeid": 467, "depth": 9, "split": "f4", "split_condition": 0.0503124781, "yes": 757, "no": 758, "missing": 757 , "children": [
                      { "nodeid": 757, "leaf": -6.98683786 }, 
                      { "nodeid": 758, "leaf": -2.47500443 }
                    ]}, 
                    { "nodeid": 468, "depth": 9, "split": "f4", "split_condition": -0.78688699, "yes": 759, "no": 760, "missing": 759 , "children": [
                      { "nodeid": 759, "leaf": 1.61118984 }, 
                      { "nodeid": 760, "leaf": -1.66291487 }
                    ]}
                  ]}, 
                  { "nodeid": 264, "depth": 8, "split": "f10", "split_condition": -0.231785417, "yes": 469, "no": 470, "missing": 469 , "children": [
                    { "nodeid": 469, "depth": 9, "split": "f4", "split_condition": -0.252071828, "yes": 761, "no": 762, "missing": 761 , "children": [
                      { "nodeid": 761, "leaf": -3.3670392 }, 
                      { "nodeid": 762, "leaf": -0.680397451 }
                    ]}, 
                    { "nodeid": 470, "depth": 9, "split": "f6", "split_condition": -1.1333462, "yes": 763, "no": 764, "missing": 763 , "children": [
                      { "nodeid": 763, "leaf": -0.435275376 }, 
                      { "nodeid": 764, "leaf": 2.76318812 }
                    ]}
                  ]}
                ]}
              ]}, 
              { "nodeid": 70, "depth": 6, "split": "f5", "split_condition": -0.629140139, "yes": 137, "no": 138, "missing": 137 , "children": [
                { "nodeid": 137, "depth": 7, "split": "f11", "split_condition": -0.824906826, "yes": 265, "no": 266, "missing": 265 , "children": [
                  { "nodeid": 265, "depth": 8, "split": "f10", "split_condition": -2.12342453, "yes": 471, "no": 472, "missing": 471 , "children": [
                    { "nodeid": 471, "leaf": -5.11709595 }, 
                    { "nodeid": 472, "depth": 9, "split": "f11", "split_condition": -1.03177977, "yes": 765, "no": 766, "missing": 765 , "children": [
                      { "nodeid": 765, "leaf": -0.553593576 }, 
                      { "nodeid": 766, "leaf": 1.51326132 }
                    ]}
                  ]}, 
                  { "nodeid": 266, "depth": 8, "split": "f10", "split_condition": 0.738764703, "yes": 473, "no": 474, "missing": 473 , "children": [
                    { "nodeid": 473, "depth": 9, "split": "f18", "split_condition": 1.5625782, "yes": 767, "no": 768, "missing": 767 , "children": [
                      { "nodeid": 767, "leaf": -5.99132252 }, 
                      { "nodeid": 768, "leaf": -1.20560443 }
                    ]}, 
                    { "nodeid": 474, "depth": 9, "split": "f11", "split_condition": -0.168855637, "yes": 769, "no": 770, "missing": 769 , "children": [
                      { "nodeid": 769, "leaf": -2.80478263 }, 
                      { "nodeid": 770, "leaf": -0.631415367 }
                    ]}
                  ]}
                ]}, 
                { "nodeid": 138, "depth": 7, "split": "f10", "split_condition": 1.64338541, "yes": 267, "no": 268, "missing": 267 , "children": [
                  { "nodeid": 267, "depth": 8, "split": "f16", "split_condition": 1.17036843, "yes": 475, "no": 476, "missing": 475 , "children": [
                    { "nodeid": 475, "depth": 9, "split": "f3", "split_condition": 2.44925213, "yes": 771, "no": 772, "missing": 771 , "children": [
                      { "nodeid": 771, "leaf": -1.3824538 }, 
                      { "nodeid": 772, "leaf": 2.95377064 }
                    ]}, 
                    { "nodeid": 476, "depth": 9, "split": "f17", "split_condition": -0.730772257, "yes": 773, "no": 774, "missing": 773 , "children": [
                      { "nodeid": 773, "leaf": -0.387549847 }, 
                      { "nodeid": 774, "leaf": 2.173594 }
                    ]}
                  ]}, 
                  { "nodeid": 268, "depth": 8, "split": "f1", "split_condition": -0.638907731, "yes": 477, "no": 478, "missing": 477 , "children": [
                    { "nodeid": 477, "depth": 9, "split": "f1", "split_condition": -1.19287074, "yes": 775, "no": 776, "missing": 775 , "children": [
                      { "nodeid": 775, "leaf": 1.33313334 }, 
                      { "nodeid": 776, "leaf": 5.11676979 }
                    ]}, 
                    { "nodeid": 478, "leaf": -1.51742709 }
                  ]}
                ]}
              ]}
            ]}
          ]}
        ]}, 
        { "nodeid": 8, "depth": 3, "split": "f1", "split_condition": -1.31455183, "yes": 17, "no": 18, "missing": 17 , "children": [
          { "nodeid": 17, "depth": 4, "split": "f3", "split_condition": 0.0993184596, "yes": 35, "no": 36, "missing": 35 , "children": [
            { "nodeid": 35, "depth": 5, "split": "f18", "split_condition": 1.50529313, "yes": 71, "no": 72, "missing": 71 , "children": [
              { "nodeid": 71, "depth": 6, "split": "f0", "split_condition": 1.29228973, "yes": 139, "no": 140, "missing": 139 , "children": [
                { "nodeid": 139, "depth": 7, "split": "f14", "split_condition": -1.73302865, "yes": 269, "no": 270, "missing": 269 , "children": [
                  { "nodeid": 269, "leaf": -1.26776969 }, 
                  { "nodeid": 270, "depth": 8, "split": "f1", "split_condition": -2.0302906, "yes": 479, "no": 480, "missing": 479 , "children": [
                    { "nodeid": 479, "leaf": -3.13998985 }, 
                    { "nodeid": 480, "depth": 9, "split": "f13", "split_condition": 1.01732862, "yes": 777, "no": 778, "missing": 777 , "children": [
                      { "nodeid": 777, "leaf": -8.10823441 }, 
                      { "nodeid": 778, "leaf": -2.746696 }
                    ]}
                  ]}
                ]}, 
                { "nodeid": 140, "depth": 7, "split": "f1", "split_condition": -1.34498429, "yes": 271, "no": 272, "missing": 271 , "children": [
                  { "nodeid": 271, "leaf": -3.15392017 }, 
                  { "nodeid": 272, "leaf": -0.635191381 }
                ]}
              ]}, 
              { "nodeid": 72, "depth": 6, "split": "f0", "split_condition": 0.508414268, "yes": 141, "no": 142, "missing": 141 , "children": [
                { "nodeid": 141, "leaf": -0.558876812 }, 
                { "nodeid": 142, "leaf": 1.52439904 }
              ]}
            ]}, 
            { "nodeid": 36, "depth": 5, "split": "f16", "split_condition": -0.499623775, "yes": 73, "no": 74, "missing": 73 , "children": [
              { "nodeid": 73, "depth": 6, "split": "f17", "split_condition": -0.955598235, "yes": 143, "no": 144, "missing": 143 , "children": [
                { "nodeid": 143, "leaf": -9.01197815 }, 
                { "nodeid": 144, "depth": 7, "split": "f6", "split_condition": 0.391952634, "yes": 273, "no": 274, "missing": 273 , "children": [
                  { "nodeid": 273, "depth": 8, "split": "f4", "split_condition": 0.521335542, "yes": 481, "no": 482, "missing": 481 , "children": [
                    { "nodeid": 481, "leaf": -1.85673523 }, 
                    { "nodeid": 482, "leaf": -0.359077454 }
                  ]}, 
                  { "nodeid": 274, "leaf": -4.26094723 }
                ]}
              ]}, 
              { "nodeid": 74, "depth": 6, "split": "f18", "split_condition": -0.470549881, "yes": 145, "no": 146, "missing": 145 , "children": [
                { "nodeid": 145, "depth": 7, "split": "f0", "split_condition": 1.22773635, "yes": 275, "no": 276, "missing": 275 , "children": [
                  { "nodeid": 275, "depth": 8, "split": "f9", "split_condition": 1.54864609, "yes": 483, "no": 484, "missing": 483 , "children": [
                    { "nodeid": 483, "depth": 9, "split": "f0", "split_condition": 0.596822858, "yes": 779, "no": 780, "missing": 779 , "children": [
                      { "nodeid": 779, "leaf": -4.44658136 }, 
                      { "nodeid": 780, "leaf": -0.920040309 }
                    ]}, 
                    { "nodeid": 484, "leaf": -0.692586601 }
                  ]}, 
                  { "nodeid": 276, "leaf": 1.80033386 }
                ]}, 
                { "nodeid": 146, "depth": 7, "split": "f14", "split_condition": -0.370785713, "yes": 277, "no": 278, "missing": 277 , "children": [
                  { "nodeid": 277, "leaf": 4.17340612 }, 
                  { "nodeid": 278, "depth": 8, "split": "f17", "split_condition": -0.732012033, "yes": 485, "no": 486, "missing": 485 , "children": [
                    { "nodeid": 485, "depth": 9, "split": "f0", "split_condition": 0.0717243105, "yes": 781, "no": 782, "missing": 781 , "children": [
                      { "nodeid": 781, "leaf": 2.04959655 }, 
                      { "nodeid": 782, "leaf": 0.514125466 }
                    ]}, 
                    { "nodeid": 486, "depth": 9, "split": "f3", "split_condition": 0.550951242, "yes": 783, "no": 784, "missing": 783 , "children": [
                      { "nodeid": 783, "leaf": -0.513409972 }, 
                      { "nodeid": 784, "leaf": -2.19938183 }
                    ]}
                  ]}
                ]}
              ]}
            ]}
          ]}, 
          { "nodeid": 18, "depth": 4, "split": "f6", "split_condition": -0.275832355, "yes": 37, "no": 38, "missing": 37 , "children": [
            { "nodeid": 37, "depth": 5, "split": "f19", "split_condition": -1.39294338, "yes": 75, "no": 76, "missing": 75 , "children": [
              { "nodeid": 75, "depth": 6, "split": "f12", "split_condition": 1.38834202, "yes": 147, "no": 148, "missing": 147 , "children": [
                { "nodeid": 147, "depth": 7, "split": "f3", "split_condition": 0.436530024, "yes": 279, "no": 280, "missing": 279 , "children": [
                  { "nodeid": 279, "depth": 8, "split": "f0", "split_condition": -1.14874363, "yes": 487, "no": 488, "missing": 487 , "children": [
                    { "nodeid": 487, "leaf": -1.19540107 }, 
                    { "nodeid": 488, "depth": 9, "split": "f12", "split_condition": -0.492546797, "yes": 785, "no": 786, "missing": 785 , "children": [
                      { "nodeid": 785, "leaf": -2.85742879 }, 
                      { "nodeid": 786, "leaf": -8.53840256 }
                    ]}
                  ]}, 
                  { "nodeid": 280, "depth": 8, "split": "f6", "split_condition": -0.823151112, "yes": 489, "no": 490, "missing": 489 , "children": [
                    { "nodeid": 489, "leaf": -4.97598219 }, 
                    { "nodeid": 490, "leaf": -2.01479244 }
                  ]}
                ]}, 
                { "nodeid": 148, "depth": 7, "split": "f3", "split_condition": 1.55192876, "yes": 281, "no": 282, "missing": 281 , "children": [
                  { "nodeid": 281, "depth": 8, "split": "f0", "split_condition": 0.540117741, "yes": 491, "no": 492, "missing": 491 , "children": [
                    { "nodeid": 491, "leaf": -2.48067236 }, 
                    { "nodeid": 492, "leaf": -0.571556091 }
                  ]}, 
                  { "nodeid": 282, "leaf": 0.324105173 }
                ]}
              ]}, 
              { "nodeid": 76, "depth": 6, "split": "f6", "split_condition": -0.333203107, "yes": 149, "no": 150, "missing": 149 , "children": [
                { "nodeid": 149, "depth": 7, "split": "f4", "split_condition": -0.374491751, "yes": 283, "no": 284, "missing": 283 , "children": [
                  { "nodeid": 283, "depth": 8, "split": "f3", "split_condition": 1.65343201, "yes": 493, "no": 494, "missing": 493 , "children": [
                    { "nodeid": 493, "depth": 9, "split": "f18", "split_condition": -0.547858775, "yes": 787, "no": 788, "missing": 787 , "children": [
                      { "nodeid": 787, "leaf": -1.31140304 }, 
                      { "nodeid": 788, "leaf": -4.47426987 }
                    ]}, 
                    { "nodeid": 494, "leaf": 0.572668612 }
                  ]}, 
                  { "nodeid": 284, "depth": 8, "split": "f5", "split_condition": -0.113241851, "yes": 495, "no": 496, "missing": 495 , "children": [
                    { "nodeid": 495, "depth": 9, "split": "f0", "split_condition": -0.609774709, "yes": 789, "no": 790, "missing": 789 , "children": [
                      { "nodeid": 789, "leaf": -3.86707735 }, 
                      { "nodeid": 790, "leaf": -0.370709896 }
                    ]}, 
                    { "nodeid": 496, "depth": 9, "split": "f6", "split_condition": -0.851090431, "yes": 791, "no": 792, "missing": 791 , "children": [
                      { "nodeid": 791, "leaf": -1.55109537 }, 
                      { "nodeid": 792, "leaf": 2.47990274 }
                    ]}
                  ]}
                ]}, 
                { "nodeid": 150, "leaf": -6.4980979 }
              ]}
            ]}, 
            { "nodeid": 38, "depth": 5, "split": "f19", "split_condition": -1.54631042, "yes": 77, "no": 78, "missing": 77 , "children": [
              { "nodeid": 77, "depth": 6, "split": "f9", "split_condition": 0.334738791, "yes": 151, "no": 152, "missing": 151 , "children": [
                { "nodeid": 151, "depth": 7, "split": "f0", "split_condition": 0.834121943, "yes": 285, "no": 286, "missing": 285 , "children": [
                  { "nodeid": 285, "leaf": 2.47109365 }, 
                  { "nodeid": 286, "leaf": -0.747486889 }
                ]}, 
                { "nodeid": 152, "depth": 7, "split": "f13", "split_condition": 0.899700642, "yes": 287, "no": 288, "missing": 287 , "children": [
                  { "nodeid": 287, "depth": 8, "split": "f18", "split_condition": -0.25924623, "yes": 497, "no": 498, "missing": 497 , "children": [
                    { "nodeid": 497, "depth": 9, "split": "f12", "split_condition": 0.524428129, "yes": 793, "no": 794, "missing": 793 , "children": [
                      { "nodeid": 793, "leaf": -7.40120077 }, 
                      { "nodeid": 794, "leaf": -2.36461425 }
                    ]}, 
                    { "nodeid": 498, "depth": 9, "split": "f9", "split_condition": 1.15082145, "yes": 795, "no": 796, "missing": 795 , "children": [
                      { "nodeid": 795, "leaf": -3.41881871 }, 
                      { "nodeid": 796, "leaf": -0.668472111 }
                    ]}
                  ]}, 
                  { "nodeid": 288, "depth": 8, "split": "f3", "split_condition": 0.0342691652, "yes": 499, "no": 500, "missing": 499 , "children": [
                    { "nodeid": 499, "depth": 9, "split": "f1", "split_condition": -0.900355458, "yes": 797, "no": 798, "missing": 797 , "children": [
                      { "nodeid": 797, "leaf": 1.62045896 }, 
                      { "nodeid": 798, "leaf": 0.280675232 }
                    ]}, 
                    { "nodeid": 500, "depth": 9, "split": "f5", "split_condition": 0.630144954, "yes": 799, "no": 800, "missing": 799 , "children": [
                      { "nodeid": 799, "leaf": -0.914365113 }, 
                      { "nodeid": 800, "leaf": -0.105238296 }
                    ]}
                  ]}
                ]}
              ]}, 
              { "nodeid": 78, "depth": 6, "split": "f17", "split_condition": 0.624465704, "yes": 153, "no": 154, "missing": 153 , "children": [
                { "nodeid": 153, "depth": 7, "split": "f6", "split_condition": 1.32389641, "yes": 289, "no": 290, "missing": 289 , "children": [
                  { "nodeid": 289, "depth": 8, "split": "f16", "split_condition": -0.235934719, "yes": 501, "no": 502, "missing": 501 , "children": [
                    { "nodeid": 501, "depth": 9, "split": "f10", "split_condition": 0.975467682, "yes": 801, "no": 802, "missing": 801 , "children": [
                      { "nodeid": 801, "leaf": -2.15439773 }, 
                      { "nodeid": 802, "leaf": 1.78585804 }
                    ]}, 
                    { "nodeid": 502, "depth": 9, "split": "f4", "split_condition": 0.104838692, "yes": 803, "no": 804, "missing": 803 , "children": [
                      { "nodeid": 803, "leaf": -0.216932997 }, 
                      { "nodeid": 804, "leaf": 2.57817793 }
                    ]}
                  ]}, 
                  { "nodeid": 290, "depth": 8, "split": "f18", "split_condition": -0.251477659, "yes": 503, "no": 504, "missing": 503 , "children": [
                    { "nodeid": 503, "depth": 9, "split": "f6", "split_condition": 1.94391298, "yes": 805, "no": 806, "missing": 805 , "children": [
                      { "nodeid": 805, "leaf": -0.852428555 }, 
                      { "nodeid": 806, "leaf": 1.50122082 }
                    ]}, 
                    { "nodeid": 504, "leaf": 5.26639414 }
                  ]}
                ]}, 
                { "nodeid": 154, "depth": 7, "split": "f16", "split_condition": -1.04938257, "yes": 291, "no": 292, "missing": 291 , "children": [
                  { "nodeid": 291, "depth": 8, "split": "f4", "split_condition": -1.4057163, "yes": 505, "no": 506, "missing": 505 , "children": [
                    { "nodeid": 505, "leaf": -2.16331267 }, 
                    { "nodeid": 506, "depth": 9, "split": "f14", "split_condition": 0.0434476808, "yes": 807, "no": 808, "missing": 807 , "children": [
                      { "nodeid": 807, "leaf": 1.50030577 }, 
                      { "nodeid": 808, "leaf": -0.132722601 }
                    ]}
                  ]}, 
                  { "nodeid": 292, "depth": 8, "split": "f5", "split_condition": -0.670489609, "yes": 507, "no": 508, "missing": 507 , "children": [
                    { "nodeid": 507, "depth": 9, "split": "f0", "split_condition": 1.83117807, "yes": 809, "no": 810, "missing": 809 , "children": [
                      { "nodeid": 809, "leaf": 0.805838227 }, 
                      { "nodeid": 810, "leaf": -1.01953971 }
                    ]}, 
                    { "nodeid": 508, "depth": 9, "split": "f4", "split_condition": 0.472447783, "yes": 811, "no": 812, "missing": 811 , "children": [
                      { "nodeid": 811, "leaf": 3.07584119 }, 
                      { "nodeid": 812, "leaf": 5.56369972 }
                    ]}
                  ]}
                ]}
              ]}
            ]}
          ]}
        ]}
      ]}, 
      { "nodeid": 4, "depth": 2, "split": "f1", "split_condition": -1.66372681, "yes": 9, "no": 10, "missing": 9 , "children": [
        { "nodeid": 9, "depth": 3, "split": "f9", "split_condition": 0.517488003, "yes": 19, "no": 20, "missing": 19 , "children": [
          { "nodeid": 19, "depth": 4, "split": "f5", "split_condition": -1.0192616, "yes": 39, "no": 40, "missing": 39 , "children": [
            { "nodeid": 39, "depth": 5, "split": "f3", "split_condition": -0.321353018, "yes": 79, "no": 80, "missing": 79 , "children": [
              { "nodeid": 79, "leaf": -11.7931423 }, 
              { "nodeid": 80, "depth": 6, "split": "f11", "split_condition": -0.945176959, "yes": 155, "no": 156, "missing": 155 , "children": [
                { "nodeid": 155, "depth": 7, "split": "f1", "split_condition": -1.81848884, "yes": 293, "no": 294, "missing": 293 , "children": [
                  { "nodeid": 293, "depth": 8, "split": "f0", "split_condition": -0.56921643, "yes": 509, "no": 510, "missing": 509 , "children": [
                    { "nodeid": 509, "leaf": -0.273562342 }, 
                    { "nodeid": 510, "leaf": 0.740437329 }
                  ]}, 
                  { "nodeid": 294, "leaf": -2.08449864 }
                ]}, 
                { "nodeid": 156, "depth": 7, "split": "f14", "split_condition": 0.163197115, "yes": 295, "no": 296, "missing": 295 , "children": [
                  { "nodeid": 295, "depth": 8, "split": "f0", "split_condition": 1.14350343, "yes": 511, "no": 512, "missing": 511 , "children": [
                    { "nodeid": 511, "depth": 9, "split": "f3", "split_condition": -0.20676589, "yes": 813, "no": 814, "missing": 813 , "children": [
                      { "nodeid": 813, "leaf": -0.882971942 }, 
                      { "nodeid": 814, "leaf": -4.67119932 }
                    ]}, 
                    { "nodeid": 512, "leaf": -1.43421781 }
                  ]}, 
                  { "nodeid": 296, "leaf": -7.50290155 }
                ]}
              ]}
            ]}, 
            { "nodeid": 40, "depth": 5, "split": "f6", "split_condition": -1.00934124, "yes": 81, "no": 82, "missing": 81 , "children": [
              { "nodeid": 81, "depth": 6, "split": "f16", "split_condition": 0.393644929, "yes": 157, "no": 158, "missing": 157 , "children": [
                { "nodeid": 157, "depth": 7, "split": "f19", "split_condition": 0.251564771, "yes": 297, "no": 298, "missing": 297 , "children": [
                  { "nodeid": 297, "leaf": -10.271944 }, 
                  { "nodeid": 298, "depth": 8, "split": "f13", "split_condition": -0.0313897729, "yes": 513, "no": 514, "missing": 513 , "children": [
                    { "nodeid": 513, "depth": 9, "split": "f3", "split_condition": 0.862320602, "yes": 815, "no": 816, "missing": 815 , "children": [
                      { "nodeid": 815, "leaf": -8.08546352 }, 
                      { "nodeid": 816, "leaf": -2.12733316 }
                    ]}, 
                    { "nodeid": 514, "depth": 9, "split": "f12", "split_condition": -0.328189909, "yes": 817, "no": 818, "missing": 817 , "children": [
                      { "nodeid": 817, "leaf": -4.07618856 }, 
                      { "nodeid": 818, "leaf": -1.57727492 }
                    ]}
                  ]}
                ]}, 
                { "nodeid": 158, "depth": 7, "split": "f1", "split_condition": -2.20648336, "yes": 299, "no": 300, "missing": 299 , "children": [
                  { "nodeid": 299, "leaf": 2.17776489 }, 
                  { "nodeid": 300, "depth": 8, "split": "f0", "split_condition": 0.890772462, "yes": 515, "no": 516, "missing": 515 , "children": [
                    { "nodeid": 515, "leaf": -2.62875533 }, 
                    { "nodeid": 516, "leaf": -0.394708246 }
                  ]}
                ]}
              ]}, 
              { "nodeid": 82, "depth": 6, "split": "f9", "split_condition": -1.04965854, "yes": 159, "no": 160, "missing": 159 , "children": [
                { "nodeid": 159, "depth": 7, "split": "f10", "split_condition": -0.626898944, "yes": 301, "no": 302, "missing": 301 , "children": [
                  { "nodeid": 301, "leaf": -11.7485857 }, 
                  { "nodeid": 302, "depth": 8, "split": "f1", "split_condition": -1.97990346, "yes": 517, "no": 518, "missing": 517 , "children": [
                    { "nodeid": 517, "depth": 9, "split": "f18", "split_condition": -0.393048406, "yes": 819, "no": 820, "missing": 819 , "children": [
                      { "nodeid": 819, "leaf": -2.13471198 }, 
                      { "nodeid": 820, "leaf": -6.03258753 }
                    ]}, 
                    { "nodeid": 518, "depth": 9, "split": "f9", "split_condition": -1.47145259, "yes": 821, "no": 822, "missing": 821 , "children": [
                      { "nodeid": 821, "leaf": -3.41506553 }, 
                      { "nodeid": 822, "leaf": -0.0953858942 }
                    ]}
                  ]}
                ]}, 
                { "nodeid": 160, "depth": 7, "split": "f12", "split_condition": -0.94751054, "yes": 303, "no": 304, "missing": 303 , "children": [
                  { "nodeid": 303, "depth": 8, "split": "f10", "split_condition": 1.02889752, "yes": 519, "no": 520, "missing": 519 , "children": [
                    { "nodeid": 519, "depth": 9, "split": "f3", "split_condition": -1.1861155, "yes": 823, "no": 824, "missing": 823 , "children": [
                      { "nodeid": 823, "leaf": -2.24776769 }, 
                      { "nodeid": 824, "leaf": -7.71544027 }
                    ]}, 
                    { "nodeid": 520, "depth": 9, "split": "f3", "split_condition": -0.861317396, "yes": 825, "no": 826, "missing": 825 , "children": [
                      { "nodeid": 825, "leaf": 0.107596897 }, 
                      { "nodeid": 826, "leaf": -1.46590531 }
                    ]}
                  ]}, 
                  { "nodeid": 304, "depth": 8, "split": "f4", "split_condition": 0.866115928, "yes": 521, "no": 522, "missing": 521 , "children": [
                    { "nodeid": 521, "depth": 9, "split": "f1", "split_condition": -2.33625531, "yes": 827, "no": 828, "missing": 827 , "children": [
                      { "nodeid": 827, "leaf": -5.23515463 }, 
                      { "nodeid": 828, "leaf": -1.89749646 }
                    ]}, 
                    { "nodeid": 522, "depth": 9, "split": "f6", "split_condition": 0.441324532, "yes": 829, "no": 830, "missing": 829 , "children": [
                      { "nodeid": 829, "leaf": -0.287305951 }, 
                      { "nodeid": 830, "leaf": 1.6019882 }
                    ]}
                  ]}
                ]}
              ]}
            ]}
          ]}, 
          { "nodeid": 20, "depth": 4, "split": "f16", "split_condition": -0.765586972, "yes": 41, "no": 42, "missing": 41 , "children": [
            { "nodeid": 41, "depth": 5, "split": "f19", "split_condition": 0.132519826, "yes": 83, "no": 84, "missing": 83 , "children": [
              { "nodeid": 83, "leaf": -8.7257309 }, 
              { "nodeid": 84, "depth": 6, "split": "f14", "split_condition": -0.618008971, "yes": 161, "no": 162, "missing": 161 , "children": [
                { "nodeid": 161, "depth": 7, "split": "f1", "split_condition": -2.04705334, "yes": 305, "no": 306, "missing": 305 , "children": [
                  { "nodeid": 305, "leaf": 0.653102338 }, 
                  { "nodeid": 306, "leaf": -1.0686096 }
                ]}, 
                { "nodeid": 162, "depth": 7, "split": "f18", "split_condition": 0.860075951, "yes": 307, "no": 308, "missing": 307 , "children": [
                  { "nodeid": 307, "leaf": -4.90461826 }, 
                  { "nodeid": 308, "leaf": -2.20686531 }
                ]}
              ]}
            ]}, 
            { "nodeid": 42, "depth": 5, "split": "f1", "split_condition": -2.41395903, "yes": 85, "no": 86, "missing": 85 , "children": [
              { "nodeid": 85, "depth": 6, "split": "f6", "split_condition": 1.23712552, "yes": 163, "no": 164, "missing": 163 , "children": [
                { "nodeid": 163, "depth": 7, "split": "f9", "split_condition": 1.73503518, "yes": 309, "no": 310, "missing": 309 , "children": [
                  { "nodeid": 309, "depth": 8, "split": "f17", "split_condition": 1.21945667, "yes": 523, "no": 524, "missing": 523 , "children": [
                    { "nodeid": 523, "depth": 9, "split": "f1", "split_condition": -2.43703842, "yes": 831, "no": 832, "missing": 831 , "children": [
                      { "nodeid": 831, "leaf": -6.10918379 }, 
                      { "nodeid": 832, "leaf": -1.60088885 }
                    ]}, 
                    { "nodeid": 524, "leaf": -1.39150465 }
                  ]}, 
                  { "nodeid": 310, "leaf": -1.03029001 }
                ]}, 
                { "nodeid": 164, "leaf": 0.358164996 }
              ]}, 
              { "nodeid": 86, "depth": 6, "split": "f1", "split_condition": -1.76183629, "yes": 165, "no": 166, "missing": 165 , "children": [
                { "nodeid": 165, "depth": 7, "split": "f6", "split_condition": 0.300200462, "yes": 311, "no": 312, "missing": 311 , "children": [
                  { "nodeid": 311, "depth": 8, "split": "f3", "split_condition": 0.742183328, "yes": 525, "no": 526, "missing": 525 , "children": [
                    { "nodeid": 525, "depth": 9, "split": "f0", "split_condition": 0.159938261, "yes": 833, "no": 834, "missing": 833 , "children": [
                      { "nodeid": 833, "leaf": -2.24213243 }, 
                      { "nodeid": 834, "leaf": 0.758539557 }
                    ]}, 
                    { "nodeid": 526, "depth": 9, "split": "f4", "split_condition": -1.17964447, "yes": 835, "no": 836, "missing": 835 , "children": [
                      { "nodeid": 835, "leaf": -0.84062165 }, 
                      { "nodeid": 836, "leaf": 3.7428925 }
                    ]}
                  ]}, 
                  { "nodeid": 312, "depth": 8, "split": "f9", "split_condition": 1.03001392, "yes": 527, "no": 528, "missing": 527 , "children": [
                    { "nodeid": 527, "depth": 9, "split": "f1", "split_condition": -2.03124714, "yes": 837, "no": 838, "missing": 837 , "children": [
                      { "nodeid": 837, "leaf": 0.116973497 }, 
                      { "nodeid": 838, "leaf": 1.41097641 }
                    ]}, 
                    { "nodeid": 528, "depth": 9, "split": "f3", "split_condition": -0.631169319, "yes": 839, "no": 840, "missing": 839 , "children": [
                      { "nodeid": 839, "leaf": 1.4321692 }, 
                      { "nodeid": 840, "leaf": 6.05005884 }
                    ]}
                  ]}
                ]}, 
                { "nodeid": 166, "depth": 7, "split": "f5", "split_condition": -1.24348617, "yes": 313, "no": 314, "missing": 313 , "children": [
                  { "nodeid": 313, "depth": 8, "split": "f0", "split_condition": -2.1382699, "yes": 529, "no": 530, "missing": 529 , "children": [
                    { "nodeid": 529, "leaf": 0.10842514 }, 
                    { "nodeid": 530, "leaf": 0.558658123 }
                  ]}, 
                  { "nodeid": 314, "depth": 8, "split": "f4", "split_condition": -0.412246585, "yes": 531, "no": 532, "missing": 531 , "children": [
                    { "nodeid": 531, "depth": 9, "split": "f6", "split_condition": 0.806039214, "yes": 841, "no": 842, "missing": 841 , "children": [
                      { "nodeid": 841, "leaf": -3.97722507 }, 
                      { "nodeid": 842, "leaf": -1.46309209 }
                    ]}, 
                    { "nodeid": 532, "depth": 9, "split": "f0", "split_condition": -0.771011233, "yes": 843, "no": 844, "missing": 843 , "children": [
                      { "nodeid": 843, "leaf": -0.0948467255 }, 
                      { "nodeid": 844, "leaf": -1.59612644 }
                    ]}
                  ]}
                ]}
              ]}
            ]}
          ]}
        ]}, 
        { "nodeid": 10, "depth": 3, "split": "f17", "split_condition": -0.705407023, "yes": 21, "no": 22, "missing": 21 , "children": [
          { "nodeid": 21, "depth": 4, "split": "f9", "split_condition": 1.2493093, "yes": 43, "no": 44, "missing": 43 , "children": [
            { "nodeid": 43, "depth": 5, "split": "f3", "split_condition": 0.709741712, "yes": 87, "no": 88, "missing": 87 , "children": [
              { "nodeid": 87, "depth": 6, "split": "f19", "split_condition": 2.00113678, "yes": 167, "no": 168, "missing": 167 , "children": [
                { "nodeid": 167, "depth": 7, "split": "f16", "split_condition": 0.837265015, "yes": 315, "no": 316, "missing": 315 , "children": [
                  { "nodeid": 315, "depth": 8, "split": "f18", "split_condition": 0.913193226, "yes": 533, "no": 534, "missing": 533 , "children": [
                    { "nodeid": 533, "depth": 9, "split": "f16", "split_condition": -1.01054692, "yes": 845, "no": 846, "missing": 845 , "children": [
                      { "nodeid": 845, "leaf": -7.18229914 }, 
                      { "nodeid": 846, "leaf": -4.11984015 }
                    ]}, 
                    { "nodeid": 534, "depth": 9, "split": "f5", "split_condition": -0.702758908, "yes": 847, "no": 848, "missing": 847 , "children": [
                      { "nodeid": 847, "leaf": -5.49650812 }, 
                      { "nodeid": 848, "leaf": -0.772446573 }
                    ]}
                  ]}, 
                  { "nodeid": 316, "depth": 8, "split": "f17", "split_condition": -2.21787071, "yes": 535, "no": 536, "missing": 535 , "children": [
                    { "nodeid": 535, "depth": 9, "split": "f1", "split_condition": -1.25279915, "yes": 849, "no": 850, "missing": 849 , "children": [
                      { "nodeid": 849, "leaf": -1.75680315 }, 
                      { "nodeid": 850, "leaf": -6.47211456 }
                    ]}, 
                    { "nodeid": 536, "depth": 9, "split": "f19", "split_condition": 1.30602145, "yes": 851, "no": 852, "missing": 851 , "children": [
                      { "nodeid": 851, "leaf": -0.97623843 }, 
                      { "nodeid": 852, "leaf": 4.77148914 }
                    ]}
                  ]}
                ]}, 
                { "nodeid": 168, "depth": 7, "split": "f0", "split_condition": -0.329670578, "yes": 317, "no": 318, "missing": 317 , "children": [
                  { "nodeid": 317, "depth": 8, "split": "f0", "split_condition": -0.871469617, "yes": 537, "no": 538, "missing": 537 , "children": [
                    { "nodeid": 537, "leaf": -0.522505701 }, 
                    { "nodeid": 538, "leaf": 0.347011566 }
                  ]}, 
                  { "nodeid": 318, "depth": 8, "split": "f6", "split_condition": 0.423828542, "yes": 539, "no": 540, "missing": 539 , "children": [
                    { "nodeid": 539, "leaf": 1.23303211 }, 
                    { "nodeid": 540, "leaf": 4.33032465 }
                  ]}
                ]}
              ]}, 
              { "nodeid": 88, "depth": 6, "split": "f17", "split_condition": -1.47838926, "yes": 169, "no": 170, "missing": 169 , "children": [
                { "nodeid": 169, "depth": 7, "split": "f9", "split_condition": 0.779451072, "yes": 319, "no": 320, "missing": 319 , "children": [
                  { "nodeid": 319, "depth": 8, "split": "f12", "split_condition": -0.682359993, "yes": 541, "no": 542, "missing": 541 , "children": [
                    { "nodeid": 541, "depth": 9, "split": "f0", "split_condition": 0.821111977, "yes": 853, "no": 854, "missing": 853 , "children": [
                      { "nodeid": 853, "leaf": 0.234967425 }, 
                      { "nodeid": 854, "leaf": -2.14196634 }
                    ]}, 
                    { "nodeid": 542, "depth": 9, "split": "f14", "split_condition": -0.805518627, "yes": 855, "no": 856, "missing": 855 , "children": [
                      { "nodeid": 855, "leaf": -1.81290329 }, 
                      { "nodeid": 856, "leaf": -5.85045004 }
                    ]}
                  ]}, 
                  { "nodeid": 320, "leaf": 2.37960505 }
                ]}, 
                { "nodeid": 170, "depth": 7, "split": "f5", "split_condition": 0.832212389, "yes": 321, "no": 322, "missing": 321 , "children": [
                  { "nodeid": 321, "depth": 8, "split": "f19", "split_condition": 1.14023829, "yes": 543, "no": 544, "missing": 543 , "children": [
                    { "nodeid": 543, "depth": 9, "split": "f18", "split_condition": -0.829119205, "yes": 857, "no": 858, "missing": 857 , "children": [
                      { "nodeid": 857, "leaf": -3.85158396 }, 
                      { "nodeid": 858, "leaf": -1.01973772 }
                    ]}, 
                    { "nodeid": 544, "depth": 9, "split": "f5", "split_condition": 0.346345156, "yes": 859, "no": 860, "missing": 859 , "children": [
                      { "nodeid": 859, "leaf": 2.20829511 }, 
                      { "nodeid": 860, "leaf": 0.110123955 }
                    ]}
                  ]}, 
                  { "nodeid": 322, "depth": 8, "split": "f6", "split_condition": -1.02251387, "yes": 545, "no": 546, "missing": 545 , "children": [
                    { "nodeid": 545, "depth": 9, "split": "f0", "split_condition": -0.239287585, "yes": 861, "no": 862, "missing": 861 , "children": [
                      { "nodeid": 861, "leaf": -2.62722993 }, 
                      { "nodeid": 862, "leaf": 0.0142904287 }
                    ]}, 
                    { "nodeid": 546, "depth": 9, "split": "f4", "split_condition": -1.04058623, "yes": 863, "no": 864, "missing": 863 , "children": [
                      { "nodeid": 863, "leaf": -2.03971553 }, 
                      { "nodeid": 864, "leaf": 3.57113194 }
                    ]}
                  ]}
                ]}
              ]}
            ]}, 
            { "nodeid": 44, "depth": 5, "split": "f19", "split_condition": 0.765330136, "yes": 89, "no": 90, "missing": 89 , "children": [
              { "nodeid": 89, "depth": 6, "split": "f1", "split_condition": -0.966465235, "yes": 171, "no": 172, "missing": 171 , "children": [
                { "nodeid": 171, "depth": 7, "split": "f14", "split_condition": 1.32058144, "yes": 323, "no": 324, "missing": 323 , "children": [
                  { "nodeid": 323, "depth": 8, "split": "f3", "split_condition": 0.522688508, "yes": 547, "no": 548, "missing": 547 , "children": [
                    { "nodeid": 547, "leaf": 3.79239154 }, 
                    { "nodeid": 548, "leaf": 1.16157424 }
                  ]}, 
                  { "nodeid": 324, "depth": 8, "split": "f0", "split_condition": -0.029648304, "yes": 549, "no": 550, "missing": 549 , "children": [
                    { "nodeid": 549, "leaf": -1.12438893 }, 
                    { "nodeid": 550, "leaf": 0.499593347 }
                  ]}
                ]}, 
                { "nodeid": 172, "depth": 7, "split": "f6", "split_condition": -2.4489584, "yes": 325, "no": 326, "missing": 325 , "children": [
                  { "nodeid": 325, "leaf": -6.06159973 }, 
                  { "nodeid": 326, "depth": 8, "split": "f3", "split_condition": 1.70706773, "yes": 551, "no": 552, "missing": 551 , "children": [
                    { "nodeid": 551, "depth": 9, "split": "f16", "split_condition": -0.266419798, "yes": 865, "no": 866, "missing": 865 , "children": [
                      { "nodeid": 865, "leaf": -0.0629794523 }, 
                      { "nodeid": 866, "leaf": -2.00480247 }
                    ]}, 
                    { "nodeid": 552, "leaf": 2.39068866 }
                  ]}
                ]}
              ]}, 
              { "nodeid": 90, "depth": 6, "split": "f6", "split_condition": -0.776963234, "yes": 173, "no": 174, "missing": 173 , "children": [
                { "nodeid": 173, "depth": 7, "split": "f0", "split_condition": -0.442389458, "yes": 327, "no": 328, "missing": 327 , "children": [
                  { "nodeid": 327, "leaf": -0.23483257 }, 
                  { "nodeid": 328, "leaf": 0.346263885 }
                ]}, 
                { "nodeid": 174, "depth": 7, "split": "f6", "split_condition": 0.125176236, "yes": 329, "no": 330, "missing": 329 , "children": [
                  { "nodeid": 329, "depth": 8, "split": "f3", "split_condition": -0.62895596, "yes": 553, "no": 554, "missing": 553 , "children": [
                    { "nodeid": 553, "leaf": 1.73833358 }, 
                    { "nodeid": 554, "leaf": 6.42207193 }
                  ]}, 
                  { "nodeid": 330, "depth": 8, "split": "f14", "split_condition": -0.483532846, "yes": 555, "no": 556, "missing": 555 , "children": [
                    { "nodeid": 555, "leaf": 0.635546863 }, 
                    { "nodeid": 556, "leaf": 3.15192842 }
                  ]}
                ]}
              ]}
            ]}
          ]}, 
          { "nodeid": 22, "depth": 4, "split": "f6", "split_condition": -0.304303169, "yes": 45, "no": 46, "missing": 45 , "children": [
            { "nodeid": 45, "depth": 5, "split": "f18", "split_condition": -0.200121105, "yes": 91, "no": 92, "missing": 91 , "children": [
              { "nodeid": 91, "depth": 6, "split": "f9", "split_condition": -0.404962063, "yes": 175, "no": 176, "missing": 175 , "children": [
                { "nodeid": 175, "depth": 7, "split": "f10", "split_condition": 0.230668455, "yes": 331, "no": 332, "missing": 331 , "children": [
                  { "nodeid": 331, "depth": 8, "split": "f13", "split_condition": 1.48313212, "yes": 557, "no": 558, "missing": 557 , "children": [
                    { "nodeid": 557, "depth": 9, "split": "f16", "split_condition": 1.76797342, "yes": 867, "no": 868, "missing": 867 , "children": [
                      { "nodeid": 867, "leaf": -6.79216623 }, 
                      { "nodeid": 868, "leaf": 1.10261524 }
                    ]}, 
                    { "nodeid": 558, "depth": 9, "split": "f0", "split_condition": 0.543546498, "yes": 869, "no": 870, "missing": 869 , "children": [
                      { "nodeid": 869, "leaf": -0.431678832 }, 
                      { "nodeid": 870, "leaf": 3.79913139 }
                    ]}
                  ]}, 
                  { "nodeid": 332, "depth": 8, "split": "f14", "split_condition": -0.387802839, "yes": 559, "no": 560, "missing": 559 , "children": [
                    { "nodeid": 559, "depth": 9, "split": "f18", "split_condition": -0.359920025, "yes": 871, "no": 872, "missing": 871 , "children": [
                      { "nodeid": 871, "leaf": -5.14997816 }, 
                      { "nodeid": 872, "leaf": 0.0303350631 }
                    ]}, 
                    { "nodeid": 560, "depth": 9, "split": "f6", "split_condition": -1.52243197, "yes": 873, "no": 874, "missing": 873 , "children": [
                      { "nodeid": 873, "leaf": -2.81112838 }, 
                      { "nodeid": 874, "leaf": 1.17921972 }
                    ]}
                  ]}
                ]}, 
                { "nodeid": 176, "depth": 7, "split": "f19", "split_condition": 0.470731765, "yes": 333, "no": 334, "missing": 333 , "children": [
                  { "nodeid": 333, "depth": 8, "split": "f19", "split_condition": -0.0217121355, "yes": 561, "no": 562, "missing": 561 , "children": [
                    { "nodeid": 561, "depth": 9, "split": "f1", "split_condition": -0.425246239, "yes": 875, "no": 876, "missing": 875 , "children": [
                      { "nodeid": 875, "leaf": -2.47592616 }, 
                      { "nodeid": 876, "leaf": 0.646677315 }
                    ]}, 
                    { "nodeid": 562, "depth": 9, "split": "f4", "split_condition": 1.37921369, "yes": 877, "no": 878, "missing": 877 , "children": [
                      { "nodeid": 877, "leaf": -4.91521931 }, 
                      { "nodeid": 878, "leaf": 1.85942388 }
                    ]}
                  ]}, 
                  { "nodeid": 334, "depth": 8, "split": "f16", "split_condition": 0.256571263, "yes": 563, "no": 564, "missing": 563 , "children": [
                    { "nodeid": 563, "depth": 9, "split": "f17", "split_condition": 1.35114384, "yes": 879, "no": 880, "missing": 879 , "children": [
                      { "nodeid": 879, "leaf": -2.62698865 }, 
                      { "nodeid": 880, "leaf": 1.70709038 }
                    ]}, 
                    { "nodeid": 564, "depth": 9, "split": "f10", "split_condition": 1.00728011, "yes": 881, "no": 882, "missing": 881 , "children": [
                      { "nodeid": 881, "leaf": 1.33529544 }, 
                      { "nodeid": 882, "leaf": 6.0587039 }
                    ]}
                  ]}
                ]}
              ]}, 
              { "nodeid": 92, "depth": 6, "split": "f9", "split_condition": 1.14087856, "yes": 177, "no": 178, "missing": 177 , "children": [
                { "nodeid": 177, "depth": 7, "split": "f6", "split_condition": -2.46437907, "yes": 335, "no": 336, "missing": 335 , "children": [
                  { "nodeid": 335, "depth": 8, "split": "f3", "split_condition": -0.957036257, "yes": 565, "no": 566, "missing": 565 , "children": [
                    { "nodeid": 565, "leaf": -0.75701791 }, 
                    { "nodeid": 566, "leaf": -7.44893885 }
                  ]}, 
                  { "nodeid": 336, "depth": 8, "split": "f9", "split_condition": -1.17421353, "yes": 567, "no": 568, "missing": 567 , "children": [
                    { "nodeid": 567, "depth": 9, "split": "f3", "split_condition": 0.318927467, "yes": 883, "no": 884, "missing": 883 , "children": [
                      { "nodeid": 883, "leaf": -5.16643238 }, 
                      { "nodeid": 884, "leaf": 0.184850588 }
                    ]}, 
                    { "nodeid": 568, "depth": 9, "split": "f18", "split_condition": 1.04631376, "yes": 885, "no": 886, "missing": 885 , "children": [
                      { "nodeid": 885, "leaf": -0.601771533 }, 
                      { "nodeid": 886, "leaf": 1.55839944 }
                    ]}
                  ]}
                ]}, 
                { "nodeid": 178, "depth": 7, "split": "f12", "split_condition": 1.11642742, "yes": 337, "no": 338, "missing": 337 , "children": [
                  { "nodeid": 337, "depth": 8, "split": "f14", "split_condition": 0.0437543243, "yes": 569, "no": 570, "missing": 569 , "children": [
                    { "nodeid": 569, "depth": 9, "split": "f9", "split_condition": 1.55365205, "yes": 887, "no": 888, "missing": 887 , "children": [
                      { "nodeid": 887, "leaf": -1.24541676 }, 
                      { "nodeid": 888, "leaf": 1.74491143 }
                    ]}, 
                    { "nodeid": 570, "depth": 9, "split": "f16", "split_condition": 0.955382347, "yes": 889, "no": 890, "missing": 889 , "children": [
                      { "nodeid": 889, "leaf": 2.6709671 }, 
                      { "nodeid": 890, "leaf": 6.76092148 }
                    ]}
                  ]}, 
                  { "nodeid": 338, "depth": 8, "split": "f14", "split_condition": -0.2135818, "yes": 571, "no": 572, "missing": 571 , "children": [
                    { "nodeid": 571, "leaf": 2.36864948 }, 
                    { "nodeid": 572, "leaf": 8.70061779 }
                  ]}
                ]}
              ]}
            ]}, 
            { "nodeid": 46, "depth": 5, "split": "f16", "split_condition": -1.11568415, "yes": 93, "no": 94, "missing": 93 , "children": [
              { "nodeid": 93, "depth": 6, "split": "f3", "split_condition": -1.63752675, "yes": 179, "no": 180, "missing": 179 , "children": [
                { "nodeid": 179, "leaf": -9.5411644 }, 
                { "nodeid": 180, "depth": 7, "split": "f10", "split_condition": -0.695387363, "yes": 339, "no": 340, "missing": 339 , "children": [
                  { "nodeid": 339, "depth": 8, "split": "f9", "split_condition": 1.32667077, "yes": 573, "no": 574, "missing": 573 , "children": [
                    { "nodeid": 573, "depth": 9, "split": "f16", "split_condition": -1.56008029, "yes": 891, "no": 892, "missing": 891 , "children": [
                      { "nodeid": 891, "leaf": -6.46763992 }, 
                      { "nodeid": 892, "leaf": -3.32401848 }
                    ]}, 
                    { "nodeid": 574, "depth": 9, "split": "f0", "split_condition": -0.0666864067, "yes": 893, "no": 894, "missing": 893 , "children": [
                      { "nodeid": 893, "leaf": -0.11946249 }, 
                      { "nodeid": 894, "leaf": 1.7871598 }
                    ]}
                  ]}, 
                  { "nodeid": 340, "depth": 8, "split": "f5", "split_condition": -1.1477623, "yes": 575, "no": 576, "missing": 575 , "children": [
                    { "nodeid": 575, "depth": 9, "split": "f4", "split_condition": 0.493563771, "yes": 895, "no": 896, "missing": 895 , "children": [
                      { "nodeid": 895, "leaf": -5.51711369 }, 
                      { "nodeid": 896, "leaf": -0.921880424 }
                    ]}, 
                    { "nodeid": 576, "depth": 9, "split": "f9", "split_condition": -1.58038402, "yes": 897, "no": 898, "missing": 897 , "children": [
                      { "nodeid": 897, "leaf": -5.04448795 }, 
                      { "nodeid": 898, "leaf": 0.248351142 }
                    ]}
                  ]}
                ]}
              ]}, 
              { "nodeid": 94, "depth": 6, "split": "f5", "split_condition": 0.635922909, "yes": 181, "no": 182, "missing": 181 , "children": [
                { "nodeid": 181, "depth": 7, "split": "f18", "split_condition": 0.359610379, "yes": 341, "no": 342, "missing": 341 , "children": [
                  { "nodeid": 341, "depth": 8, "split": "f14", "split_condition": -0.82586503, "yes": 577, "no": 578, "missing": 577 , "children": [
                    { "nodeid": 577, "depth": 9, "split": "f3", "split_condition": -1.43992174, "yes": 899, "no": 900, "missing": 899 , "children": [
                      { "nodeid": 899, "leaf": -7.3145113 }, 
                      { "nodeid": 900, "leaf": -2.29591894 }
                    ]}, 
                    { "nodeid": 578, "depth": 9, "split": "f9", "split_condition": -1.16462874, "yes": 901, "no": 902, "missing": 901 , "children": [
                      { "nodeid": 901, "leaf": -2.50074005 }, 
                      { "nodeid": 902, "leaf": 1.09624183 }
                    ]}
                  ]}, 
                  { "nodeid": 342, "depth": 8, "split": "f3", "split_condition": 0.673716962, "yes": 579, "no": 580, "missing": 579 , "children": [
                    { "nodeid": 579, "depth": 9, "split": "f9", "split_condition": 1.37189603, "yes": 903, "no": 904, "missing": 903 , "children": [
                      { "nodeid": 903, "leaf": 1.13718498 }, 
                      { "nodeid": 904, "leaf": 5.00565481 }
                    ]}, 
                    { "nodeid": 580, "depth": 9, "split": "f16", "split_condition": 0.907660484, "yes": 905, "no": 906, "missing": 905 , "children": [
                      { "nodeid": 905, "leaf": 3.04780674 }, 
                      { "nodeid": 906, "leaf": 6.92870665 }
                    ]}
                  ]}
                ]}, 
                { "nodeid": 182, "depth": 7, "split": "f10", "split_condition": 0.427498937, "yes": 343, "no": 344, "missing": 343 , "children": [
                  { "nodeid": 343, "depth": 8, "split": "f14", "split_condition": 1.28591347, "yes": 581, "no": 582, "missing": 581 , "children": [
                    { "nodeid": 581, "depth": 9, "split": "f1", "split_condition": -1.39945316, "yes": 907, "no": 908, "missing": 907 , "children": [
                      { "nodeid": 907, "leaf": -1.96586502 }, 
                      { "nodeid": 908, "leaf": 2.29758883 }
                    ]}, 
                    { "nodeid": 582, "depth": 9, "split": "f6", "split_condition": -0.00987177715, "yes": 909, "no": 910, "missing": 909 , "children": [
                      { "nodeid": 909, "leaf": 0.276276797 }, 
                      { "nodeid": 910, "leaf": 8.51371765 }
                    ]}
                  ]}, 
                  { "nodeid": 344, "depth": 8, "split": "f6", "split_condition": 0.660788774, "yes": 583, "no": 584, "missing": 583 , "children": [
                    { "nodeid": 583, "depth": 9, "split": "f18", "split_condition": -0.193007857, "yes": 911, "no": 912, "missing": 911 , "children": [
                      { "nodeid": 911, "leaf": 1.04278743 }, 
                      { "nodeid": 912, "leaf": 4.51810789 }
                    ]}, 
                    { "nodeid": 584, "depth": 9, "split": "f18", "split_condition": -0.144621626, "yes": 913, "no": 914, "missing": 913 , "children": [
                      { "nodeid": 913, "leaf": 4.23949003 }, 
                      { "nodeid": 914, "leaf": 9.03936481 }
                    ]}
                  ]}
                ]}
              ]}
            ]}
          ]}
        ]}
      ]}
    ]}, 
    { "nodeid": 2, "depth": 1, "split": "f19", "split_condition": -0.84443903, "yes": 5, "no": 6, "missing": 5 , "children": [
      { "nodeid": 5, "depth": 2, "split": "f6", "split_condition": 0.588524342, "yes": 11, "no": 12, "missing": 11 , "children": [
        { "nodeid": 11, "depth": 3, "split": "f17", "split_condition": 1.0662992, "yes": 23, "no": 24, "missing": 23 , "children": [
          { "nodeid": 23, "depth": 4, "split": "f1", "split_condition": 1.29707861, "yes": 47, "no": 48, "missing": 47 , "children": [
            { "nodeid": 47, "depth": 5, "split": "f16", "split_condition": 0.278710961, "yes": 95, "no": 96, "missing": 95 , "children": [
              { "nodeid": 95, "depth": 6, "split": "f4", "split_condition": -0.0407617353, "yes": 183, "no": 184, "missing": 183 , "children": [
                { "nodeid": 183, "depth": 7, "split": "f18", "split_condition": -0.532205284, "yes": 345, "no": 346, "missing": 345 , "children": [
                  { "nodeid": 345, "depth": 8, "split": "f10", "split_condition": 0.0620083511, "yes": 585, "no": 586, "missing": 585 , "children": [
                    { "nodeid": 585, "depth": 9, "split": "f0", "split_condition": 1.85221601, "yes": 915, "no": 916, "missing": 915 , "children": [
                      { "nodeid": 915, "leaf": -10.3909016 }, 
                      { "nodeid": 916, "leaf": 0.280225366 }
                    ]}, 
                    { "nodeid": 586, "depth": 9, "split": "f3", "split_condition": 0.299295604, "yes": 917, "no": 918, "missing": 917 , "children": [
                      { "nodeid": 917, "leaf": -7.6071167 }, 
                      { "nodeid": 918, "leaf": -2.65375495 }
                    ]}
                  ]}, 
                  { "nodeid": 346, "depth": 8, "split": "f3", "split_condition": 0.833881736, "yes": 587, "no": 588, "missing": 587 , "children": [
                    { "nodeid": 587, "depth": 9, "split": "f5", "split_condition": 1.20587611, "yes": 919, "no": 920, "missing": 919 , "children": [
                      { "nodeid": 919, "leaf": -5.51217794 }, 
                      { "nodeid": 920, "leaf": -0.127390966 }
                    ]}, 
                    { "nodeid": 588, "depth": 9, "split": "f16", "split_condition": -1.0274601, "yes": 921, "no": 922, "missing": 921 , "children": [
                      { "nodeid": 921, "leaf": -5.79527426 }, 
                      { "nodeid": 922, "leaf": 0.149521887 }
                    ]}
                  ]}
                ]}, 
                { "nodeid": 184, "depth": 7, "split": "f19", "split_condition": -1.70236528, "yes": 347, "no": 348, "missing": 347 , "children": [
                  { "nodeid": 347, "depth": 8, "split": "f9", "split_condition": 0.768640876, "yes": 589, "no": 590, "missing": 589 , "children": [
                    { "nodeid": 589, "depth": 9, "split": "f5", "split_condition": -1.35859203, "yes": 923, "no": 924, "missing": 923 , "children": [
                      { "nodeid": 923, "leaf": -0.43430075 }, 
                      { "nodeid": 924, "leaf": -6.78575897 }
                    ]}, 
                    { "nodeid": 590, "depth": 9, "split": "f1", "split_condition": 0.820188403, "yes": 925, "no": 926, "missing": 925 , "children": [
                      { "nodeid": 925, "leaf": -3.50052381 }, 
                      { "nodeid": 926, "leaf": 2.4578855 }
                    ]}
                  ]}, 
                  { "nodeid": 348, "depth": 8, "split": "f5", "split_condition": -0.00672657974, "yes": 591, "no": 592, "missing": 591 , "children": [
                    { "nodeid": 591, "depth": 9, "split": "f14", "split_condition": -0.750146449, "yes": 927, "no": 928, "missing": 927 , "children": [
                      { "nodeid": 927, "leaf": -5.75650311 }, 
                      { "nodeid": 928, "leaf": -2.24438357 }
                    ]}, 
                    { "nodeid": 592, "depth": 9, "split": "f17", "split_condition": -1.47710443, "yes": 929, "no": 930, "missing": 929 , "children": [
                      { "nodeid": 929, "leaf": -5.25086832 }, 
                      { "nodeid": 930, "leaf": 0.575124919 }
                    ]}
                  ]}
                ]}
              ]}, 
              { "nodeid": 96, "depth": 6, "split": "f3", "split_condition": -0.393083274, "yes": 185, "no": 186, "missing": 185 , "children": [
                { "nodeid": 185, "depth": 7, "split": "f5", "split_condition": -0.236490756, "yes": 349, "no": 350, "missing": 349 , "children": [
                  { "nodeid": 349, "depth": 8, "split": "f10", "split_condition": -0.178207278, "yes": 593, "no": 594, "missing": 593 , "children": [
                    { "nodeid": 593, "depth": 9, "split": "f16", "split_condition": 0.383427203, "yes": 931, "no": 932, "missing": 931 , "children": [
                      { "nodeid": 931, "leaf": -1.30305946 }, 
                      { "nodeid": 932, "leaf": -7.92517567 }
                    ]}, 
                    { "nodeid": 594, "depth": 9, "split": "f13", "split_condition": 0.375460833, "yes": 933, "no": 934, "missing": 933 , "children": [
                      { "nodeid": 933, "leaf": -3.9470613 }, 
                      { "nodeid": 934, "leaf": -0.297684371 }
                    ]}
                  ]}, 
                  { "nodeid": 350, "depth": 8, "split": "f14", "split_condition": -0.406732559, "yes": 595, "no": 596, "missing": 595 , "children": [
                    { "nodeid": 595, "depth": 9, "split": "f9", "split_condition": 1.74604511, "yes": 935, "no": 936, "missing": 935 , "children": [
                      { "nodeid": 935, "leaf": -5.04878855 }, 
                      { "nodeid": 936, "leaf": 1.61403811 }
                    ]}, 
                    { "nodeid": 596, "depth": 9, "split": "f17", "split_condition": -0.0891814381, "yes": 937, "no": 938, "missing": 937 , "children": [
                      { "nodeid": 937, "leaf": -2.11163878 }, 
                      { "nodeid": 938, "leaf": 0.730632007 }
                    ]}
                  ]}
                ]}, 
                { "nodeid": 186, "depth": 7, "split": "f10", "split_condition": -0.560975075, "yes": 351, "no": 352, "missing": 351 , "children": [
                  { "nodeid": 351, "depth": 8, "split": "f1", "split_condition": 0.528844535, "yes": 597, "no": 598, "missing": 597 , "children": [
                    { "nodeid": 597, "depth": 9, "split": "f3", "split_condition": -0.361717433, "yes": 939, "no": 940, "missing": 939 , "children": [
                      { "nodeid": 939, "leaf": 0.869445622 }, 
                      { "nodeid": 940, "leaf": -3.80131769 }
                    ]}, 
                    { "nodeid": 598, "depth": 9, "split": "f1", "split_condition": 0.736616015, "yes": 941, "no": 942, "missing": 941 , "children": [
                      { "nodeid": 941, "leaf": 3.46713328 }, 
                      { "nodeid": 942, "leaf": -2.29139757 }
                    ]}
                  ]}, 
                  { "nodeid": 352, "depth": 8, "split": "f9", "split_condition": 0.216282129, "yes": 599, "no": 600, "missing": 599 , "children": [
                    { "nodeid": 599, "depth": 9, "split": "f16", "split_condition": 1.08166897, "yes": 943, "no": 944, "missing": 943 , "children": [
                      { "nodeid": 943, "leaf": -1.2869525 }, 
                      { "nodeid": 944, "leaf": 1.45903289 }
                    ]}, 
                    { "nodeid": 600, "depth": 9, "split": "f17", "split_condition": 0.326525092, "yes": 945, "no": 946, "missing": 945 , "children": [
                      { "nodeid": 945, "leaf": 3.39775395 }, 
                      { "nodeid": 946, "leaf": -0.288597465 }
                    ]}
                  ]}
                ]}
              ]}
            ]}, 
            { "nodeid": 48, "depth": 5, "split": "f18", "split_condition": -1.62680221, "yes": 97, "no": 98, "missing": 97 , "children": [
              { "nodeid": 97, "leaf": -5.53601694 }, 
              { "nodeid": 98, "depth": 6, "split": "f3", "split_condition": -1.49211812, "yes": 187, "no": 188, "missing": 187 , "children": [
                { "nodeid": 187, "leaf": -4.45077801 }, 
                { "nodeid": 188, "depth": 7, "split": "f6", "split_condition": -0.970501184, "yes": 353, "no": 354, "missing": 353 , "children": [
                  { "nodeid": 353, "depth": 8, "split": "f1", "split_condition": 1.46722138, "yes": 601, "no": 602, "missing": 601 , "children": [
                    { "nodeid": 601, "depth": 9, "split": "f5", "split_condition": -1.28816795, "yes": 947, "no": 948, "missing": 947 , "children": [
                      { "nodeid": 947, "leaf": 0.605305493 }, 
                      { "nodeid": 948, "leaf": -4.12964153 }
                    ]}, 
                    { "nodeid": 602, "depth": 9, "split": "f4", "split_condition": -0.169796437, "yes": 949, "no": 950, "missing": 949 , "children": [
                      { "nodeid": 949, "leaf": 0.249598503 }, 
                      { "nodeid": 950, "leaf": 2.36501932 }
                    ]}
                  ]}, 
                  { "nodeid": 354, "depth": 8, "split": "f14", "split_condition": -0.491145432, "yes": 603, "no": 604, "missing": 603 , "children": [
                    { "nodeid": 603, "depth": 9, "split": "f5", "split_condition": -0.00683698151, "yes": 951, "no": 952, "missing": 951 , "children": [
                      { "nodeid": 951, "leaf": -1.29994953 }, 
                      { "nodeid": 952, "leaf": 2.08139777 }
                    ]}, 
                    { "nodeid": 604, "depth": 9, "split": "f9", "split_condition": -0.640034318, "yes": 953, "no": 954, "missing": 953 , "children": [
                      { "nodeid": 953, "leaf": 0.805479646 }, 
                      { "nodeid": 954, "leaf": 3.34922147 }
                    ]}
                  ]}
                ]}
              ]}
            ]}
          ]}, 
          { "nodeid": 24, "depth": 4, "split": "f6", "split_condition": -1.14385474, "yes": 49, "no": 50, "missing": 49 , "children": [
            { "nodeid": 49, "depth": 5, "split": "f11", "split_condition": 0.0638849437, "yes": 99, "no": 100, "missing": 99 , "children": [
              { "nodeid": 99, "depth": 6, "split": "f13", "split_condition": -1.14918578, "yes": 189, "no": 190, "missing": 189 , "children": [
                { "nodeid": 189, "depth": 7, "split": "f0", "split_condition": -0.0733685791, "yes": 355, "no": 356, "missing": 355 , "children": [
                  { "nodeid": 355, "leaf": 0.649768829 }, 
                  { "nodeid": 356, "leaf": -0.0759040341 }
                ]}, 
                { "nodeid": 190, "depth": 7, "split": "f4", "split_condition": -1.07361901, "yes": 357, "no": 358, "missing": 357 , "children": [
                  { "nodeid": 357, "leaf": -0.472001135 }, 
                  { "nodeid": 358, "leaf": -2.04146004 }
                ]}
              ]}, 
              { "nodeid": 100, "depth": 6, "split": "f0", "split_condition": 1.49197853, "yes": 191, "no": 192, "missing": 191 , "children": [
                { "nodeid": 191, "leaf": -8.58485699 }, 
                { "nodeid": 192, "depth": 7, "split": "f0", "split_condition": 1.5706327, "yes": 359, "no": 360, "missing": 359 , "children": [
                  { "nodeid": 359, "leaf": 0.142314538 }, 
                  { "nodeid": 360, "leaf": -0.0509738922 }
                ]}
              ]}
            ]}, 
            { "nodeid": 50, "depth": 5, "split": "f16", "split_condition": 1.19884253, "yes": 101, "no": 102, "missing": 101 , "children": [
              { "nodeid": 101, "depth": 6, "split": "f17", "split_condition": 2.580369, "yes": 193, "no": 194, "missing": 193 , "children": [
                { "nodeid": 193, "depth": 7, "split": "f5", "split_condition": 0.670085669, "yes": 361, "no": 362, "missing": 361 , "children": [
                  { "nodeid": 361, "depth": 8, "split": "f16", "split_condition": -1.56698585, "yes": 605, "no": 606, "missing": 605 , "children": [
                    { "nodeid": 605, "depth": 9, "split": "f18", "split_condition": -1.78190136, "yes": 955, "no": 956, "missing": 955 , "children": [
                      { "nodeid": 955, "leaf": -0.555012643 }, 
                      { "nodeid": 956, "leaf": -3.32521558 }
                    ]}, 
                    { "nodeid": 606, "depth": 9, "split": "f1", "split_condition": 1.47834778, "yes": 957, "no": 958, "missing": 957 , "children": [
                      { "nodeid": 957, "leaf": 0.729564548 }, 
                      { "nodeid": 958, "leaf": 4.38674068 }
                    ]}
                  ]}, 
                  { "nodeid": 362, "depth": 8, "split": "f10", "split_condition": 0.340525776, "yes": 607, "no": 608, "missing": 607 , "children": [
                    { "nodeid": 607, "depth": 9, "split": "f5", "split_condition": 1.10196638, "yes": 959, "no": 960, "missing": 959 , "children": [
                      { "nodeid": 959, "leaf": 3.18423343 }, 
                      { "nodeid": 960, "leaf": -0.302241683 }
                    ]}, 
                    { "nodeid": 608, "depth": 9, "split": "f13", "split_condition": -0.0455324501, "yes": 961, "no": 962, "missing": 961 , "children": [
                      { "nodeid": 961, "leaf": 6.91292191 }, 
                      { "nodeid": 962, "leaf": 1.16946697 }
                    ]}
                  ]}
                ]}, 
                { "nodeid": 194, "leaf": 8.02632046 }
              ]}, 
              { "nodeid": 102, "depth": 6, "split": "f13", "split_condition": -1.19929695, "yes": 195, "no": 196, "missing": 195 , "children": [
                { "nodeid": 195, "depth": 7, "split": "f0", "split_condition": -0.207336783, "yes": 363, "no": 364, "missing": 363 , "children": [
                  { "nodeid": 363, "leaf": -0.223338708 }, 
                  { "nodeid": 364, "leaf": 1.15689552 }
                ]}, 
                { "nodeid": 196, "leaf": 8.42635345 }
              ]}
            ]}
          ]}
        ]}, 
        { "nodeid": 12, "depth": 3, "split": "f9", "split_condition": -0.198108047, "yes": 25, "no": 26, "missing": 25 , "children": [
          { "nodeid": 25, "depth": 4, "split": "f18", "split_condition": 0.771976829, "yes": 51, "no": 52, "missing": 51 , "children": [
            { "nodeid": 51, "depth": 5, "split": "f17", "split_condition": 0.573771477, "yes": 103, "no": 104, "missing": 103 , "children": [
              { "nodeid": 103, "depth": 6, "split": "f12", "split_condition": -0.555564165, "yes": 197, "no": 198, "missing": 197 , "children": [
                { "nodeid": 197, "depth": 7, "split": "f14", "split_condition": -1.35797369, "yes": 365, "no": 366, "missing": 365 , "children": [
                  { "nodeid": 365, "leaf": -8.10370922 }, 
                  { "nodeid": 366, "depth": 8, "split": "f12", "split_condition": -1.12314749, "yes": 609, "no": 610, "missing": 609 , "children": [
                    { "nodeid": 609, "depth": 9, "split": "f16", "split_condition": -0.609147906, "yes": 963, "no": 964, "missing": 963 , "children": [
                      { "nodeid": 963, "leaf": 0.356535882 }, 
                      { "nodeid": 964, "leaf": -2.70202971 }
                    ]}, 
                    { "nodeid": 610, "depth": 9, "split": "f10", "split_condition": 0.726671994, "yes": 965, "no": 966, "missing": 965 , "children": [
                      { "nodeid": 965, "leaf": -5.6397171 }, 
                      { "nodeid": 966, "leaf": -0.545995891 }
                    ]}
                  ]}
                ]}, 
                { "nodeid": 198, "depth": 7, "split": "f9", "split_condition": -1.00096393, "yes": 367, "no": 368, "missing": 367 , "children": [
                  { "nodeid": 367, "depth": 8, "split": "f16", "split_condition": -0.670253158, "yes": 611, "no": 612, "missing": 611 , "children": [
                    { "nodeid": 611, "leaf": -5.88999176 }, 
                    { "nodeid": 612, "depth": 9, "split": "f3", "split_condition": 0.379481733, "yes": 967, "no": 968, "missing": 967 , "children": [
                      { "nodeid": 967, "leaf": -2.2637527 }, 
                      { "nodeid": 968, "leaf": -0.200183675 }
                    ]}
                  ]}, 
                  { "nodeid": 368, "depth": 8, "split": "f18", "split_condition": -0.343111515, "yes": 613, "no": 614, "missing": 613 , "children": [
                    { "nodeid": 613, "depth": 9, "split": "f19", "split_condition": -1.181077, "yes": 969, "no": 970, "missing": 969 , "children": [
                      { "nodeid": 969, "leaf": -3.14036083 }, 
                      { "nodeid": 970, "leaf": 0.438465357 }
                    ]}, 
                    { "nodeid": 614, "depth": 9, "split": "f12", "split_condition": 1.07353985, "yes": 971, "no": 972, "missing": 971 , "children": [
                      { "nodeid": 971, "leaf": 2.66458297 }, 
                      { "nodeid": 972, "leaf": -0.124705069 }
                    ]}
                  ]}
                ]}
              ]}, 
              { "nodeid": 104, "depth": 6, "split": "f1", "split_condition": 0.149846718, "yes": 199, "no": 200, "missing": 199 , "children": [
                { "nodeid": 199, "depth": 7, "split": "f19", "split_condition": -1.24105704, "yes": 369, "no": 370, "missing": 369 , "children": [
                  { "nodeid": 369, "depth": 8, "split": "f3", "split_condition": 0.944971502, "yes": 615, "no": 616, "missing": 615 , "children": [
                    { "nodeid": 615, "leaf": -3.69584322 }, 
                    { "nodeid": 616, "leaf": -0.667945862 }
                  ]}, 
                  { "nodeid": 370, "depth": 8, "split": "f5", "split_condition": -0.478556126, "yes": 617, "no": 618, "missing": 617 , "children": [
                    { "nodeid": 617, "depth": 9, "split": "f0", "split_condition": 0.000515256077, "yes": 973, "no": 974, "missing": 973 , "children": [
                      { "nodeid": 973, "leaf": 0.211068735 }, 
                      { "nodeid": 974, "leaf": 0.789196014 }
                    ]}, 
                    { "nodeid": 618, "depth": 9, "split": "f1", "split_condition": 0.106184117, "yes": 975, "no": 976, "missing": 975 , "children": [
                      { "nodeid": 975, "leaf": -0.876779258 }, 
                      { "nodeid": 976, "leaf": -0.110728838 }
                    ]}
                  ]}
                ]}, 
                { "nodeid": 200, "depth": 7, "split": "f6", "split_condition": 1.0310843, "yes": 371, "no": 372, "missing": 371 , "children": [
                  { "nodeid": 371, "depth": 8, "split": "f18", "split_condition": 0.221523523, "yes": 619, "no": 620, "missing": 619 , "children": [
                    { "nodeid": 619, "depth": 9, "split": "f10", "split_condition": 0.580463707, "yes": 977, "no": 978, "missing": 977 , "children": [
                      { "nodeid": 977, "leaf": 2.46464753 }, 
                      { "nodeid": 978, "leaf": 0.783508122 }
                    ]}, 
                    { "nodeid": 620, "depth": 9, "split": "f0", "split_condition": 0.411492884, "yes": 979, "no": 980, "missing": 979 , "children": [
                      { "nodeid": 979, "leaf": -1.8696264 }, 
                      { "nodeid": 980, "leaf": -0.278114885 }
                    ]}
                  ]}, 
                  { "nodeid": 372, "depth": 8, "split": "f4", "split_condition": 1.4398123, "yes": 621, "no": 622, "missing": 621 , "children": [
                    { "nodeid": 621, "depth": 9, "split": "f3", "split_condition": -1.29336762, "yes": 981, "no": 982, "missing": 981 , "children": [
                      { "nodeid": 981, "leaf": 1.08028114 }, 
                      { "nodeid": 982, "leaf": 4.02768135 }
                    ]}, 
                    { "nodeid": 622, "leaf": 0.839939892 }
                  ]}
                ]}
              ]}
            ]}, 
            { "nodeid": 52, "depth": 5, "split": "f11", "split_condition": -0.220905036, "yes": 105, "no": 106, "missing": 105 , "children": [
              { "nodeid": 105, "depth": 6, "split": "f14", "split_condition": -0.0340120792, "yes": 201, "no": 202, "missing": 201 , "children": [
                { "nodeid": 201, "depth": 7, "split": "f0", "split_condition": 0.905360878, "yes": 373, "no": 374, "missing": 373 , "children": [
                  { "nodeid": 373, "depth": 8, "split": "f3", "split_condition": 0.576991916, "yes": 623, "no": 624, "missing": 623 , "children": [
                    { "nodeid": 623, "leaf": -3.22096324 }, 
                    { "nodeid": 624, "leaf": -0.73115629 }
                  ]}, 
                  { "nodeid": 374, "leaf": 1.845855 }
                ]}, 
                { "nodeid": 202, "depth": 7, "split": "f6", "split_condition": 1.29606605, "yes": 375, "no": 376, "missing": 375 , "children": [
                  { "nodeid": 375, "depth": 8, "split": "f0", "split_condition": 0.183298886, "yes": 625, "no": 626, "missing": 625 , "children": [
                    { "nodeid": 625, "leaf": -0.639660299 }, 
                    { "nodeid": 626, "leaf": 0.073439315 }
                  ]}, 
                  { "nodeid": 376, "leaf": 2.53977203 }
                ]}
              ]}, 
              { "nodeid": 106, "depth": 6, "split": "f5", "split_condition": -0.782700956, "yes": 203, "no": 204, "missing": 203 , "children": [
                { "nodeid": 203, "depth": 7, "split": "f0", "split_condition": 0.151366353, "yes": 377, "no": 378, "missing": 377 , "children": [
                  { "nodeid": 377, "leaf": -2.72385716 }, 
                  { "nodeid": 378, "leaf": 0.670283914 }
                ]}, 
                { "nodeid": 204, "depth": 7, "split": "f1", "split_condition": 1.31620324, "yes": 379, "no": 380, "missing": 379 , "children": [
                  { "nodeid": 379, "depth": 8, "split": "f0", "split_condition": -1.42538309, "yes": 627, "no": 628, "missing": 627 , "children": [
                    { "nodeid": 627, "leaf": 1.58517325 }, 
                    { "nodeid": 628, "leaf": 5.82357311 }
                  ]}, 
                  { "nodeid": 380, "leaf": 1.59361923 }
                ]}
              ]}
            ]}
          ]}, 
          { "nodeid": 26, "depth": 4, "split": "f10", "split_condition": 0.996105433, "yes": 53, "no": 54, "missing": 53 , "children": [
            { "nodeid": 53, "depth": 5, "split": "f19", "split_condition": -1.48789048, "yes": 107, "no": 108, "missing": 107 , "children": [
              { "nodeid": 107, "depth": 6, "split": "f9", "split_condition": 2.35606194, "yes": 205, "no": 206, "missing": 205 , "children": [
                { "nodeid": 205, "depth": 7, "split": "f4", "split_condition": -0.650512278, "yes": 381, "no": 382, "missing": 381 , "children": [
                  { "nodeid": 381, "depth": 8, "split": "f3", "split_condition": 2.5293293, "yes": 629, "no": 630, "missing": 629 , "children": [
                    { "nodeid": 629, "depth": 9, "split": "f0", "split_condition": 0.173850775, "yes": 983, "no": 984, "missing": 983 , "children": [
                      { "nodeid": 983, "leaf": -4.22239923 }, 
                      { "nodeid": 984, "leaf": -1.53086817 }
                    ]}, 
                    { "nodeid": 630, "leaf": 0.636028767 }
                  ]}, 
                  { "nodeid": 382, "depth": 8, "split": "f14", "split_condition": -0.157562196, "yes": 631, "no": 632, "missing": 631 , "children": [
                    { "nodeid": 631, "depth": 9, "split": "f4", "split_condition": -0.125553071, "yes": 985, "no": 986, "missing": 985 , "children": [
                      { "nodeid": 985, "leaf": 0.5158571 }, 
                      { "nodeid": 986, "leaf": -2.05501533 }
                    ]}, 
                    { "nodeid": 632, "depth": 9, "split": "f3", "split_condition": -1.42693543, "yes": 987, "no": 988, "missing": 987 , "children": [
                      { "nodeid": 987, "leaf": -2.59248471 }, 
                      { "nodeid": 988, "leaf": 0.917769253 }
                    ]}
                  ]}
                ]}, 
                { "nodeid": 206, "leaf": 5.88985777 }
              ]}, 
              { "nodeid": 108, "depth": 6, "split": "f3", "split_condition": 0.417656898, "yes": 207, "no": 208, "missing": 207 , "children": [
                { "nodeid": 207, "depth": 7, "split": "f18", "split_condition": 0.300107419, "yes": 383, "no": 384, "missing": 383 , "children": [
                  { "nodeid": 383, "depth": 8, "split": "f18", "split_condition": -1.39663625, "yes": 633, "no": 634, "missing": 633 , "children": [
                    { "nodeid": 633, "depth": 9, "split": "f16", "split_condition": 0.29404676, "yes": 989, "no": 990, "missing": 989 , "children": [
                      { "nodeid": 989, "leaf": -3.9122169 }, 
                      { "nodeid": 990, "leaf": -0.888809383 }
                    ]}, 
                    { "nodeid": 634, "depth": 9, "split": "f4", "split_condition": -0.397194326, "yes": 991, "no": 992, "missing": 991 , "children": [
                      { "nodeid": 991, "leaf": -0.64353174 }, 
                      { "nodeid": 992, "leaf": 2.14611053 }
                    ]}
                  ]}, 
                  { "nodeid": 384, "depth": 8, "split": "f10", "split_condition": -1.08919847, "yes": 635, "no": 636, "missing": 635 , "children": [
                    { "nodeid": 635, "depth": 9, "split": "f0", "split_condition": 0.515095949, "yes": 993, "no": 994, "missing": 993 , "children": [
                      { "nodeid": 993, "leaf": -1.16903996 }, 
                      { "nodeid": 994, "leaf": 0.900423467 }
                    ]}, 
                    { "nodeid": 636, "depth": 9, "split": "f0", "split_condition": -2.17101216, "yes": 995, "no": 996, "missing": 995 , "children": [
                      { "nodeid": 995, "leaf": 0.27778703 }, 
                      { "nodeid": 996, "leaf": 6.02992058 }
                    ]}
                  ]}
                ]}, 
                { "nodeid": 208, "depth": 7, "split": "f1", "split_condition": 1.35533953, "yes": 385, "no": 386, "missing": 385 , "children": [
                  { "nodeid": 385, "depth": 8, "split": "f4", "split_condition": 1.06474483, "yes": 637, "no": 638, "missing": 637 , "children": [
                    { "nodeid": 637, "depth": 9, "split": "f16", "split_condition": -0.552703261, "yes": 997, "no": 998, "missing": 997 , "children": [
                      { "nodeid": 997, "leaf": 1.03716743 }, 
                      { "nodeid": 998, "leaf": 3.57513857 }
                    ]}, 
                    { "nodeid": 638, "depth": 9, "split": "f1", "split_condition": -0.0526772216, "yes": 999, "no": 1000, "missing": 999 , "children": [
                      { "nodeid": 999, "leaf": 0.692877948 }, 
                      { "nodeid": 1000, "leaf": 6.4757266 }
                    ]}
                  ]}, 
                  { "nodeid": 386, "depth": 8, "split": "f1", "split_condition": 1.66611624, "yes": 639, "no": 640, "missing": 639 , "children": [
                    { "nodeid": 639, "leaf": 11.0606537 }, 
                    { "nodeid": 640, "leaf": 2.07975459 }
                  ]}
                ]}
              ]}
            ]}, 
            { "nodeid": 54, "depth": 5, "split": "f9", "split_condition": 1.15981197, "yes": 109, "no": 110, "missing": 109 , "children": [
              { "nodeid": 109, "depth": 6, "split": "f19", "split_condition": -1.54925072, "yes": 209, "no": 210, "missing": 209 , "children": [
                { "nodeid": 209, "depth": 7, "split": "f14", "split_condition": -0.313571304, "yes": 387, "no": 388, "missing": 387 , "children": [
                  { "nodeid": 387, "leaf": -0.653963327 }, 
                  { "nodeid": 388, "depth": 8, "split": "f5", "split_condition": -1.43459845, "yes": 641, "no": 642, "missing": 641 , "children": [
                    { "nodeid": 641, "leaf": -0.223309323 }, 
                    { "nodeid": 642, "leaf": 1.70821285 }
                  ]}
                ]}, 
                { "nodeid": 210, "depth": 7, "split": "f4", "split_condition": -1.09126186, "yes": 389, "no": 390, "missing": 389 , "children": [
                  { "nodeid": 389, "leaf": 0.42019698 }, 
                  { "nodeid": 390, "leaf": 5.82828236 }
                ]}
              ]}, 
              { "nodeid": 110, "depth": 6, "split": "f1", "split_condition": 0.978678823, "yes": 211, "no": 212, "missing": 211 , "children": [
                { "nodeid": 211, "leaf": 3.39750338 }, 
                { "nodeid": 212, "leaf": 17.1674862 }
              ]}
            ]}
          ]}
        ]}
      ]}, 
      { "nodeid": 6, "depth": 2, "split": "f9", "split_condition": 0.524673939, "yes": 13, "no": 14, "missing": 13 , "children": [
        { "nodeid": 13, "depth": 3, "split": "f6", "split_condition": -0.249047309, "yes": 27, "no": 28, "missing": 27 , "children": [
          { "nodeid": 27, "depth": 4, "split": "f10", "split_condition": 1.09420121, "yes": 55, "no": 56, "missing": 55 , "children": [
            { "nodeid": 55, "depth": 5, "split": "f18", "split_condition": 0.956148744, "yes": 111, "no": 112, "missing": 111 , "children": [
              { "nodeid": 111, "depth": 6, "split": "f17", "split_condition": -1.01528692, "yes": 213, "no": 214, "missing": 213 , "children": [
                { "nodeid": 213, "depth": 7, "split": "f5", "split_condition": -0.979510903, "yes": 391, "no": 392, "missing": 391 , "children": [
                  { "nodeid": 391, "depth": 8, "split": "f19", "split_condition": 0.598048091, "yes": 643, "no": 644, "missing": 643 , "children": [
                    { "nodeid": 643, "depth": 9, "split": "f13", "split_condition": 1.0253073, "yes": 1001, "no": 1002, "missing": 1001 , "children": [
                      { "nodeid": 1001, "leaf": -9.64709091 }, 
                      { "nodeid": 1002, "leaf": -3.37423253 }
                    ]}, 
                    { "nodeid": 644, "depth": 9, "split": "f1", "split_condition": 0.650180697, "yes": 1003, "no": 1004, "missing": 1003 , "children": [
                      { "nodeid": 1003, "leaf": -5.05308723 }, 
                      { "nodeid": 1004, "leaf": -0.968131363 }
                    ]}
                  ]}, 
                  { "nodeid": 392, "depth": 8, "split": "f1", "split_condition": 1.08442199, "yes": 645, "no": 646, "missing": 645 , "children": [
                    { "nodeid": 645, "depth": 9, "split": "f6", "split_condition": -2.28033924, "yes": 1005, "no": 1006, "missing": 1005 , "children": [
                      { "nodeid": 1005, "leaf": -11.0017843 }, 
                      { "nodeid": 1006, "leaf": -3.51616716 }
                    ]}, 
                    { "nodeid": 646, "depth": 9, "split": "f16", "split_condition": -0.314550906, "yes": 1007, "no": 1008, "missing": 1007 , "children": [
                      { "nodeid": 1007, "leaf": -2.60172439 }, 
                      { "nodeid": 1008, "leaf": 1.10096776 }
                    ]}
                  ]}
                ]}, 
                { "nodeid": 214, "depth": 7, "split": "f16", "split_condition": 0.817206264, "yes": 393, "no": 394, "missing": 393 , "children": [
                  { "nodeid": 393, "depth": 8, "split": "f14", "split_condition": -0.394458354, "yes": 647, "no": 648, "missing": 647 , "children": [
                    { "nodeid": 647, "depth": 9, "split": "f19", "split_condition": 1.30330336, "yes": 1009, "no": 1010, "missing": 1009 , "children": [
                      { "nodeid": 1009, "leaf": -3.46671271 }, 
                      { "nodeid": 1010, "leaf": 0.847304523 }
                    ]}, 
                    { "nodeid": 648, "depth": 9, "split": "f3", "split_condition": 1.40911984, "yes": 1011, "no": 1012, "missing": 1011 , "children": [
                      { "nodeid": 1011, "leaf": -0.857965112 }, 
                      { "nodeid": 1012, "leaf": 3.35444331 }
                    ]}
                  ]}, 
                  { "nodeid": 394, "depth": 8, "split": "f6", "split_condition": -1.13015389, "yes": 649, "no": 650, "missing": 649 , "children": [
                    { "nodeid": 649, "depth": 9, "split": "f14", "split_condition": 0.954928577, "yes": 1013, "no": 1014, "missing": 1013 , "children": [
                      { "nodeid": 1013, "leaf": -1.20065916 }, 
                      { "nodeid": 1014, "leaf": 3.12684393 }
                    ]}, 
                    { "nodeid": 650, "depth": 9, "split": "f9", "split_condition": -0.914704144, "yes": 1015, "no": 1016, "missing": 1015 , "children": [
                      { "nodeid": 1015, "leaf": -0.824968517 }, 
                      { "nodeid": 1016, "leaf": 2.99452806 }
                    ]}
                  ]}
                ]}
              ]}, 
              { "nodeid": 112, "depth": 6, "split": "f1", "split_condition": 2.54047298, "yes": 215, "no": 216, "missing": 215 , "children": [
                { "nodeid": 215, "depth": 7, "split": "f3", "split_condition": -1.33095598, "yes": 395, "no": 396, "missing": 395 , "children": [
                  { "nodeid": 395, "depth": 8, "split": "f17", "split_condition": 0.423114985, "yes": 651, "no": 652, "missing": 651 , "children": [
                    { "nodeid": 651, "depth": 9, "split": "f3", "split_condition": -2.37261963, "yes": 1017, "no": 1018, "missing": 1017 , "children": [
                      { "nodeid": 1017, "leaf": 0.125782713 }, 
                      { "nodeid": 1018, "leaf": -4.52815199 }
                    ]}, 
                    { "nodeid": 652, "depth": 9, "split": "f0", "split_condition": 0.235564247, "yes": 1019, "no": 1020, "missing": 1019 , "children": [
                      { "nodeid": 1019, "leaf": 1.98167384 }, 
                      { "nodeid": 1020, "leaf": 0.128521726 }
                    ]}
                  ]}, 
                  { "nodeid": 396, "depth": 8, "split": "f4", "split_condition": -1.25391126, "yes": 653, "no": 654, "missing": 653 , "children": [
                    { "nodeid": 653, "depth": 9, "split": "f1", "split_condition": 0.897612035, "yes": 1021, "no": 1022, "missing": 1021 , "children": [
                      { "nodeid": 1021, "leaf": -3.96396422 }, 
                      { "nodeid": 1022, "leaf": 2.23869705 }
                    ]}, 
                    { "nodeid": 654, "depth": 9, "split": "f1", "split_condition": -0.285243362, "yes": 1023, "no": 1024, "missing": 1023 , "children": [
                      { "nodeid": 1023, "leaf": -3.74728179 }, 
                      { "nodeid": 1024, "leaf": 2.30132842 }
                    ]}
                  ]}
                ]}, 
                { "nodeid": 216, "leaf": 12.147336 }
              ]}
            ]}, 
            { "nodeid": 56, "depth": 5, "split": "f19", "split_condition": 1.47781146, "yes": 113, "no": 114, "missing": 113 , "children": [
              { "nodeid": 113, "depth": 6, "split": "f17", "split_condition": 0.811965406, "yes": 217, "no": 218, "missing": 217 , "children": [
                { "nodeid": 217, "depth": 7, "split": "f6", "split_condition": -0.331228733, "yes": 397, "no": 398, "missing": 397 , "children": [
                  { "nodeid": 397, "depth": 8, "split": "f14", "split_condition": -0.605495214, "yes": 655, "no": 656, "missing": 655 , "children": [
                    { "nodeid": 655, "depth": 9, "split": "f5", "split_condition": 0.0285133868, "yes": 1025, "no": 1026, "missing": 1025 , "children": [
                      { "nodeid": 1025, "leaf": -2.46476579 }, 
                      { "nodeid": 1026, "leaf": 1.29540944 }
                    ]}, 
                    { "nodeid": 656, "depth": 9, "split": "f6", "split_condition": -2.07645202, "yes": 1027, "no": 1028, "missing": 1027 , "children": [
                      { "nodeid": 1027, "leaf": -2.65040517 }, 
                      { "nodeid": 1028, "leaf": 2.50993252 }
                    ]}
                  ]}, 
                  { "nodeid": 398, "depth": 8, "split": "f12", "split_condition": 0.911817253, "yes": 657, "no": 658, "missing": 657 , "children": [
                    { "nodeid": 657, "depth": 9, "split": "f0", "split_condition": 0.856704772, "yes": 1029, "no": 1030, "missing": 1029 , "children": [
                      { "nodeid": 1029, "leaf": -3.5393064 }, 
                      { "nodeid": 1030, "leaf": -0.788806558 }
                    ]}, 
                    { "nodeid": 658, "leaf": 1.35651731 }
                  ]}
                ]}, 
                { "nodeid": 218, "depth": 7, "split": "f3", "split_condition": 1.54886031, "yes": 399, "no": 400, "missing": 399 , "children": [
                  { "nodeid": 399, "depth": 8, "split": "f16", "split_condition": -0.845059991, "yes": 659, "no": 660, "missing": 659 , "children": [
                    { "nodeid": 659, "depth": 9, "split": "f3", "split_condition": -1.14472699, "yes": 1031, "no": 1032, "missing": 1031 , "children": [
                      { "nodeid": 1031, "leaf": 1.81054556 }, 
                      { "nodeid": 1032, "leaf": -1.19457686 }
                    ]}, 
                    { "nodeid": 660, "depth": 9, "split": "f11", "split_condition": 2.02462149, "yes": 1033, "no": 1034, "missing": 1033 , "children": [
                      { "nodeid": 1033, "leaf": 4.76159048 }, 
                      { "nodeid": 1034, "leaf": 0.0412796028 }
                    ]}
                  ]}, 
                  { "nodeid": 400, "leaf": 9.71378231 }
                ]}
              ]}, 
              { "nodeid": 114, "depth": 6, "split": "f3", "split_condition": -0.90697515, "yes": 219, "no": 220, "missing": 219 , "children": [
                { "nodeid": 219, "depth": 7, "split": "f1", "split_condition": 1.09617138, "yes": 401, "no": 402, "missing": 401 , "children": [
                  { "nodeid": 401, "leaf": -0.615813076 }, 
                  { "nodeid": 402, "leaf": 2.51368141 }
                ]}, 
                { "nodeid": 220, "depth": 7, "split": "f9", "split_condition": -0.0765940174, "yes": 403, "no": 404, "missing": 403 , "children": [
                  { "nodeid": 403, "leaf": 8.18861675 }, 
                  { "nodeid": 404, "depth": 8, "split": "f9", "split_condition": 0.278810531, "yes": 661, "no": 662, "missing": 661 , "children": [
                    { "nodeid": 661, "leaf": 1.96397841 }, 
                    { "nodeid": 662, "leaf": 4.96615648 }
                  ]}
                ]}
              ]}
            ]}
          ]}, 
          { "nodeid": 28, "depth": 4, "split": "f3", "split_condition": 0.273945868, "yes": 57, "no": 58, "missing": 57 , "children": [
            { "nodeid": 57, "depth": 5, "split": "f16", "split_condition": -0.66958046, "yes": 115, "no": 116, "missing": 115 , "children": [
              { "nodeid": 115, "depth": 6, "split": "f10", "split_condition": -1.42442703, "yes": 221, "no": 222, "missing": 221 , "children": [
                { "nodeid": 221, "depth": 7, "split": "f14", "split_condition": 1.44536245, "yes": 405, "no": 406, "missing": 405 , "children": [
                  { "nodeid": 405, "depth": 8, "split": "f0", "split_condition": -2.02207351, "yes": 663, "no": 664, "missing": 663 , "children": [
                    { "nodeid": 663, "leaf": -1.29058158 }, 
