  { "nodeid": 0, "depth": 0, "split": "f0", "split_condition": 0.247470379, "yes": 1, "no": 2, "missing": 1 , "children": [
    { "nodeid": 1, "depth": 1, "split": "f10", "split_condition": 0.978487611, "yes": 3, "no": 4, "missing": 3 , "children": [
      { "nodeid": 3, "depth": 2, "split": "f10", "split_condition": 0.769113541, "yes": 7, "no": 8, "missing": 7 , "children": [
        { "nodeid": 7, "depth": 3, "split": "f10", "split_condition": 0.768211007, "yes": 15, "no": 16, "missing": 15 , "children": [
          { "nodeid": 15, "depth": 4, "split": "f11", "split_condition": 2.89598083, "yes": 31, "no": 32, "missing": 31 , "children": [
            { "nodeid": 31, "depth": 5, "split": "f1", "split_condition": 3.14667535, "yes": 61, "no": 62, "missing": 61 , "children": [
              { "nodeid": 61, "depth": 6, "split": "f8", "split_condition": 1.17935848, "yes": 117, "no": 118, "missing": 117 , "children": [
                { "nodeid": 117, "depth": 7, "split": "f8", "split_condition": 1.17786527, "yes": 205, "no": 206, "missing": 205 , "children": [
                  { "nodeid": 205, "depth": 8, "split": "f15", "split_condition": 2.08725262, "yes": 343, "no": 344, "missing": 343 , "children": [
                    { "nodeid": 343, "depth": 9, "split": "f9", "split_condition": 0.571244717, "yes": 519, "no": 520, "missing": 519 , "children": [
                      { "nodeid": 519, "leaf": -0.0452364311 }, 
                      { "nodeid": 520, "leaf": 0.0162482094 }
                    ]}, 
                    { "nodeid": 344, "depth": 9, "split": "f14", "split_condition": -0.567450404, "yes": 521, "no": 522, "missing": 521 , "children": [
                      { "nodeid": 521, "leaf": -0.0545849875 }, 
                      { "nodeid": 522, "leaf": 0.233731255 }
                    ]}
                  ]}, 
                  { "nodeid": 206, "leaf": -1.03356314 }
                ]}, 
                { "nodeid": 118, "depth": 7, "split": "f6", "split_condition": -0.9440763, "yes": 207, "no": 208, "missing": 207 , "children": [
                  { "nodeid": 207, "depth": 8, "split": "f17", "split_condition": -1.04398704, "yes": 345, "no": 346, "missing": 345 , "children": [
                    { "nodeid": 345, "depth": 9, "split": "f10", "split_condition": -0.302804917, "yes": 523, "no": 524, "missing": 523 , "children": [
                      { "nodeid": 523, "leaf": -0.139874205 }, 
                      { "nodeid": 524, "leaf": -0.59999603 }
                    ]}, 
                    { "nodeid": 346, "depth": 9, "split": "f13", "split_condition": 0.316609383, "yes": 525, "no": 526, "missing": 525 , "children": [
                      { "nodeid": 525, "leaf": -0.157869205 }, 
                      { "nodeid": 526, "leaf": 0.0843668953 }
                    ]}
                  ]}, 
                  { "nodeid": 208, "depth": 8, "split": "f0", "split_condition": 0.166561216, "yes": 347, "no": 348, "missing": 347 , "children": [
                    { "nodeid": 347, "depth": 9, "split": "f17", "split_condition": -0.260510504, "yes": 527, "no": 528, "missing": 527 , "children": [
                      { "nodeid": 527, "leaf": -0.00258000847 }, 
                      { "nodeid": 528, "leaf": 0.175894767 }
                    ]}, 
                    { "nodeid": 348, "depth": 9, "split": "f15", "split_condition": -0.0172245465, "yes": 529, "no": 530, "missing": 529 , "children": [
                      { "nodeid": 529, "leaf": -0.502162576 }, 
                      { "nodeid": 530, "leaf": 0.102718256 }
                    ]}
                  ]}
                ]}
              ]}, 
              { "nodeid": 62, "leaf": 0.662124574 }
            ]}, 
            { "nodeid": 32, "depth": 5, "split": "f0", "split_condition": -0.609392643, "yes": 63, "no": 64, "missing": 63 , "children": [
              { "nodeid": 63, "leaf": 0.0563940071 }, 
              { "nodeid": 64, "leaf": -0.860485077 }
            ]}
          ]}, 
          { "nodeid": 16, "leaf": 2.01323485 }
        ]}, 
        { "nodeid": 8, "depth": 3, "split": "f11", "split_condition": -0.0571812913, "yes": 17, "no": 18, "missing": 17 , "children": [
          { "nodeid": 17, "depth": 4, "split": "f14", "split_condition": -0.55381465, "yes": 33, "no": 34, "missing": 33 , "children": [
            { "nodeid": 33, "depth": 5, "split": "f9", "split_condition": 0.628055573, "yes": 65, "no": 66, "missing": 65 , "children": [
              { "nodeid": 65, "depth": 6, "split": "f9", "split_condition": -1.11333358, "yes": 119, "no": 120, "missing": 119 , "children": [
                { "nodeid": 119, "depth": 7, "split": "f2", "split_condition": -1.07859039, "yes": 209, "no": 210, "missing": 209 , "children": [
                  { "nodeid": 209, "depth": 8, "split": "f0", "split_condition": -0.0539227724, "yes": 349, "no": 350, "missing": 349 , "children": [
                    { "nodeid": 349, "leaf": -0.0662155151 }, 
                    { "nodeid": 350, "leaf": 0.060499575 }
                  ]}, 
                  { "nodeid": 210, "leaf": -0.275491208 }
                ]}, 
                { "nodeid": 120, "depth": 7, "split": "f19", "split_condition": 0.931394219, "yes": 211, "no": 212, "missing": 211 , "children": [
                  { "nodeid": 211, "depth": 8, "split": "f19", "split_condition": 0.175851047, "yes": 351, "no": 352, "missing": 351 , "children": [
                    { "nodeid": 351, "depth": 9, "split": "f2", "split_condition": -1.47486472, "yes": 531, "no": 532, "missing": 531 , "children": [
                      { "nodeid": 531, "leaf": 0.535234094 }, 
                      { "nodeid": 532, "leaf": -0.0132808043 }
                    ]}, 
                    { "nodeid": 352, "depth": 9, "split": "f3", "split_condition": 1.32252562, "yes": 533, "no": 534, "missing": 533 , "children": [
                      { "nodeid": 533, "leaf": 0.655951381 }, 
                      { "nodeid": 534, "leaf": 0.0611392967 }
                    ]}
                  ]}, 
                  { "nodeid": 212, "depth": 8, "split": "f9", "split_condition": -0.163963825, "yes": 353, "no": 354, "missing": 353 , "children": [
                    { "nodeid": 353, "depth": 9, "split": "f1", "split_condition": 0.634822249, "yes": 535, "no": 536, "missing": 535 , "children": [
                      { "nodeid": 535, "leaf": -0.194437608 }, 
                      { "nodeid": 536, "leaf": -0.0728118941 }
                    ]}, 
                    { "nodeid": 354, "depth": 9, "split": "f2", "split_condition": 0.5888322, "yes": 537, "no": 538, "missing": 537 , "children": [
                      { "nodeid": 537, "leaf": -0.0486252829 }, 
                      { "nodeid": 538, "leaf": 0.140163168 }
                    ]}
                  ]}
                ]}
              ]}, 
              { "nodeid": 66, "depth": 6, "split": "f5", "split_condition": -0.740626931, "yes": 121, "no": 122, "missing": 121 , "children": [
                { "nodeid": 121, "leaf": 0.160828277 }, 
                { "nodeid": 122, "depth": 7, "split": "f11", "split_condition": -0.527072787, "yes": 213, "no": 214, "missing": 213 , "children": [
                  { "nodeid": 213, "leaf": -0.835131824 }, 
                  { "nodeid": 214, "leaf": -0.240821347 }
                ]}
              ]}
            ]}, 
            { "nodeid": 34, "depth": 5, "split": "f1", "split_condition": 0.91160357, "yes": 67, "no": 68, "missing": 67 , "children": [
              { "nodeid": 67, "depth": 6, "split": "f14", "split_condition": 0.428255349, "yes": 123, "no": 124, "missing": 123 , "children": [
                { "nodeid": 123, "depth": 7, "split": "f13", "split_condition": -0.944072485, "yes": 215, "no": 216, "missing": 215 , "children": [
                  { "nodeid": 215, "depth": 8, "split": "f0", "split_condition": -0.342341065, "yes": 355, "no": 356, "missing": 355 , "children": [
                    { "nodeid": 355, "leaf": 0.242928132 }, 
                    { "nodeid": 356, "leaf": -0.083144635 }
                  ]}, 
                  { "nodeid": 216, "depth": 8, "split": "f15", "split_condition": -1.03697193, "yes": 357, "no": 358, "missing": 357 , "children": [
                    { "nodeid": 357, "depth": 9, "split": "f1", "split_condition": 0.436481208, "yes": 539, "no": 540, "missing": 539 , "children": [
                      { "nodeid": 539, "leaf": 0.328088969 }, 
                      { "nodeid": 540, "leaf": -0.321388513 }
                    ]}, 
                    { "nodeid": 358, "depth": 9, "split": "f14", "split_condition": -0.209834352, "yes": 541, "no": 542, "missing": 541 , "children": [
                      { "nodeid": 541, "leaf": -1.34003437 }, 
                      { "nodeid": 542, "leaf": -0.684253991 }
                    ]}
                  ]}
                ]}, 
                { "nodeid": 124, "depth": 7, "split": "f14", "split_condition": 0.920355201, "yes": 217, "no": 218, "missing": 217 , "children": [
                  { "nodeid": 217, "depth": 8, "split": "f11", "split_condition": -0.740950525, "yes": 359, "no": 360, "missing": 359 , "children": [
                    { "nodeid": 359, "depth": 9, "split": "f2", "split_condition": -0.134866938, "yes": 543, "no": 544, "missing": 543 , "children": [
                      { "nodeid": 543, "leaf": -0.215678975 }, 
                      { "nodeid": 544, "leaf": 0.692968547 }
                    ]}, 
                    { "nodeid": 360, "depth": 9, "split": "f2", "split_condition": -0.230106309, "yes": 545, "no": 546, "missing": 545 , "children": [
                      { "nodeid": 545, "leaf": 0.123069957 }, 
                      { "nodeid": 546, "leaf": -0.320428103 }
                    ]}
                  ]}, 
                  { "nodeid": 218, "depth": 8, "split": "f0", "split_condition": -1.58213878, "yes": 361, "no": 362, "missing": 361 , "children": [
                    { "nodeid": 361, "leaf": -1.62624967 }, 
                    { "nodeid": 362, "depth": 9, "split": "f19", "split_condition": -0.0458030812, "yes": 547, "no": 548, "missing": 547 , "children": [
                      { "nodeid": 547, "leaf": -0.499877602 }, 
                      { "nodeid": 548, "leaf": 0.0311873108 }
                    ]}
                  ]}
                ]}
              ]}, 
              { "nodeid": 68, "depth": 6, "split": "f17", "split_condition": 0.197993413, "yes": 125, "no": 126, "missing": 125 , "children": [
                { "nodeid": 125, "depth": 7, "split": "f13", "split_condition": -0.269680202, "yes": 219, "no": 220, "missing": 219 , "children": [
                  { "nodeid": 219, "depth": 8, "split": "f0", "split_condition": -0.23031792, "yes": 363, "no": 364, "missing": 363 , "children": [
                    { "nodeid": 363, "leaf": 0.0474785492 }, 
                    { "nodeid": 364, "leaf": -0.0869216919 }
                  ]}, 
                  { "nodeid": 220, "depth": 8, "split": "f3", "split_condition": 1.0598675, "yes": 365, "no": 366, "missing": 365 , "children": [
                    { "nodeid": 365, "leaf": 0.45808816 }, 
                    { "nodeid": 366, "leaf": 0.0632385239 }
                  ]}
                ]}, 
                { "nodeid": 126, "depth": 7, "split": "f0", "split_condition": 0.0306670945, "yes": 221, "no": 222, "missing": 221 , "children": [
                  { "nodeid": 221, "depth": 8, "split": "f0", "split_condition": -0.431731015, "yes": 367, "no": 368, "missing": 367 , "children": [
                    { "nodeid": 367, "depth": 9, "split": "f0", "split_condition": -1.51659942, "yes": 549, "no": 550, "missing": 549 , "children": [
                      { "nodeid": 549, "leaf": -0.007286835 }, 
                      { "nodeid": 550, "leaf": -0.0456303917 }
                    ]}, 
                    { "nodeid": 368, "leaf": 0.0704406723 }
                  ]}, 
                  { "nodeid": 222, "leaf": -0.200172931 }
                ]}
              ]}
            ]}
          ]}, 
          { "nodeid": 18, "depth": 4, "split": "f9", "split_condition": 0.973914802, "yes": 35, "no": 36, "missing": 35 , "children": [
            { "nodeid": 35, "depth": 5, "split": "f8", "split_condition": 1.94944489, "yes": 69, "no": 70, "missing": 69 , "children": [
              { "nodeid": 69, "depth": 6, "split": "f13", "split_condition": -2.4852078, "yes": 127, "no": 128, "missing": 127 , "children": [
                { "nodeid": 127, "leaf": -0.942491949 }, 
                { "nodeid": 128, "depth": 7, "split": "f6", "split_condition": 0.528289318, "yes": 223, "no": 224, "missing": 223 , "children": [
                  { "nodeid": 223, "depth": 8, "split": "f6", "split_condition": 0.519221187, "yes": 369, "no": 370, "missing": 369 , "children": [
                    { "nodeid": 369, "depth": 9, "split": "f5", "split_condition": 0.187878713, "yes": 551, "no": 552, "missing": 551 , "children": [
                      { "nodeid": 551, "leaf": -0.120061256 }, 
                      { "nodeid": 552, "leaf": 0.112791635 }
                    ]}, 
                    { "nodeid": 370, "leaf": 1.01263738 }
                  ]}, 
                  { "nodeid": 224, "depth": 8, "split": "f19", "split_condition": -0.179045528, "yes": 371, "no": 372, "missing": 371 , "children": [
                    { "nodeid": 371, "depth": 9, "split": "f17", "split_condition": 2.92572403, "yes": 553, "no": 554, "missing": 553 , "children": [
                      { "nodeid": 553, "leaf": -0.0871558711 }, 
                      { "nodeid": 554, "leaf": 0.552749634 }
                    ]}, 
                    { "nodeid": 372, "depth": 9, "split": "f13", "split_condition": -0.188929021, "yes": 555, "no": 556, "missing": 555 , "children": [
                      { "nodeid": 555, "leaf": -0.0731305629 }, 
                      { "nodeid": 556, "leaf": -0.682129681 }
                    ]}
                  ]}
                ]}
              ]}, 
              { "nodeid": 70, "leaf": 0.693832636 }
            ]}, 
            { "nodeid": 36, "depth": 5, "split": "f3", "split_condition": 1.67577696, "yes": 71, "no": 72, "missing": 71 , "children": [
              { "nodeid": 71, "depth": 6, "split": "f8", "split_condition": -0.0948127285, "yes": 129, "no": 130, "missing": 129 , "children": [
                { "nodeid": 129, "depth": 7, "split": "f1", "split_condition": 0.219952285, "yes": 225, "no": 226, "missing": 225 , "children": [
                  { "nodeid": 225, "depth": 8, "split": "f1", "split_condition": -0.0552401021, "yes": 373, "no": 374, "missing": 373 , "children": [
                    { "nodeid": 373, "leaf": 0.164528415 }, 
                    { "nodeid": 374, "leaf": 0.017121125 }
                  ]}, 
                  { "nodeid": 226, "leaf": 0.487670749 }
                ]}, 
                { "nodeid": 130, "depth": 7, "split": "f3", "split_condition": 0.628436327, "yes": 227, "no": 228, "missing": 227 , "children": [
                  { "nodeid": 227, "depth": 8, "split": "f5", "split_condition": 0.873272657, "yes": 375, "no": 376, "missing": 375 , "children": [
                    { "nodeid": 375, "depth": 9, "split": "f2", "split_condition": 1.2104826, "yes": 557, "no": 558, "missing": 557 , "children": [
                      { "nodeid": 557, "leaf": 0.123940028 }, 
                      { "nodeid": 558, "leaf": -0.01112442 }
                    ]}, 
                    { "nodeid": 376, "leaf": -0.0740671828 }
                  ]}, 
                  { "nodeid": 228, "leaf": -0.155961156 }
                ]}
              ]}, 
              { "nodeid": 72, "leaf": 1.58773959 }
            ]}
          ]}
        ]}
      ]}, 
      { "nodeid": 4, "depth": 2, "split": "f3", "split_condition": 1.34784126, "yes": 9, "no": 10, "missing": 9 , "children": [
        { "nodeid": 9, "depth": 3, "split": "f1", "split_condition": -0.0745317414, "yes": 19, "no": 20, "missing": 19 , "children": [
          { "nodeid": 19, "depth": 4, "split": "f9", "split_condition": -0.0899350941, "yes": 37, "no": 38, "missing": 37 , "children": [
            { "nodeid": 37, "depth": 5, "split": "f1", "split_condition": -0.21085459, "yes": 73, "no": 74, "missing": 73 , "children": [
              { "nodeid": 73, "depth": 6, "split": "f9", "split_condition": -0.463557541, "yes": 131, "no": 132, "missing": 131 , "children": [
                { "nodeid": 131, "depth": 7, "split": "f13", "split_condition": 2.02796245, "yes": 229, "no": 230, "missing": 229 , "children": [
                  { "nodeid": 229, "depth": 8, "split": "f0", "split_condition": -0.305955589, "yes": 377, "no": 378, "missing": 377 , "children": [
                    { "nodeid": 377, "depth": 9, "split": "f13", "split_condition": -0.597010195, "yes": 559, "no": 560, "missing": 559 , "children": [
                      { "nodeid": 559, "leaf": 0.161107793 }, 
                      { "nodeid": 560, "leaf": -0.112006761 }
                    ]}, 
                    { "nodeid": 378, "depth": 9, "split": "f10", "split_condition": 1.03287125, "yes": 561, "no": 562, "missing": 561 , "children": [
                      { "nodeid": 561, "leaf": 0.372175634 }, 
                      { "nodeid": 562, "leaf": 0.0945063457 }
                    ]}
                  ]}, 
                  { "nodeid": 230, "depth": 8, "split": "f15", "split_condition": 0.198643893, "yes": 379, "no": 380, "missing": 379 , "children": [
                    { "nodeid": 379, "depth": 9, "split": "f0", "split_condition": -0.818092704, "yes": 563, "no": 564, "missing": 563 , "children": [
                      { "nodeid": 563, "leaf": -0.000175476074 }, 
                      { "nodeid": 564, "leaf": 0.149761379 }
                    ]}, 
                    { "nodeid": 380, "leaf": 0.741933465 }
                  ]}
                ]}, 
                { "nodeid": 132, "depth": 7, "split": "f5", "split_condition": -0.831245661, "yes": 231, "no": 232, "missing": 231 , "children": [
                  { "nodeid": 231, "depth": 8, "split": "f6", "split_condition": -0.575557649, "yes": 381, "no": 382, "missing": 381 , "children": [
                    { "nodeid": 381, "depth": 9, "split": "f1", "split_condition": -0.726053238, "yes": 565, "no": 566, "missing": 565 , "children": [
                      { "nodeid": 565, "leaf": -0.163253278 }, 
                      { "nodeid": 566, "leaf": 0.337644964 }
                    ]}, 
                    { "nodeid": 382, "depth": 9, "split": "f0", "split_condition": -0.19513759, "yes": 567, "no": 568, "missing": 567 , "children": [
                      { "nodeid": 567, "leaf": -0.951184213 }, 
                      { "nodeid": 568, "leaf": -0.218036652 }
                    ]}
                  ]}, 
                  { "nodeid": 232, "depth": 8, "split": "f14", "split_condition": -0.654756188, "yes": 383, "no": 384, "missing": 383 , "children": [
                    { "nodeid": 383, "depth": 9, "split": "f11", "split_condition": -0.171788797, "yes": 569, "no": 570, "missing": 569 , "children": [
                      { "nodeid": 569, "leaf": -0.127540529 }, 
                      { "nodeid": 570, "leaf": 0.258199751 }
                    ]}, 
                    { "nodeid": 384, "depth": 9, "split": "f14", "split_condition": 0.302029729, "yes": 571, "no": 572, "missing": 571 , "children": [
                      { "nodeid": 571, "leaf": -0.286331117 }, 
                      { "nodeid": 572, "leaf": 0.00676902151 }
                    ]}
                  ]}
                ]}
              ]}, 
              { "nodeid": 74, "depth": 6, "split": "f1", "split_condition": -0.189622685, "yes": 133, "no": 134, "missing": 133 , "children": [
                { "nodeid": 133, "leaf": 1.02698207 }, 
                { "nodeid": 134, "depth": 7, "split": "f9", "split_condition": -0.703600824, "yes": 233, "no": 234, "missing": 233 , "children": [
                  { "nodeid": 233, "depth": 8, "split": "f1", "split_condition": -0.133904099, "yes": 385, "no": 386, "missing": 385 , "children": [
                    { "nodeid": 385, "depth": 9, "split": "f13", "split_condition": -0.406626761, "yes": 573, "no": 574, "missing": 573 , "children": [
                      { "nodeid": 573, "leaf": -0.012908428 }, 
                      { "nodeid": 574, "leaf": -0.264930964 }
                    ]}, 
                    { "nodeid": 386, "depth": 9, "split": "f1", "split_condition": -0.112601727, "yes": 575, "no": 576, "missing": 575 , "children": [
                      { "nodeid": 575, "leaf": 0.233279929 }, 
                      { "nodeid": 576, "leaf": 0.030930711 }
                    ]}
                  ]}, 
                  { "nodeid": 234, "depth": 8, "split": "f14", "split_condition": -0.392845988, "yes": 387, "no": 388, "missing": 387 , "children": [
                    { "nodeid": 387, "depth": 9, "split": "f1", "split_condition": -0.164573506, "yes": 577, "no": 578, "missing": 577 , "children": [
                      { "nodeid": 577, "leaf": 0.0162841808 }, 
                      { "nodeid": 578, "leaf": 0.0956514999 }
                    ]}, 
                    { "nodeid": 388, "leaf": 0.605757356 }
                  ]}
                ]}
              ]}
            ]}, 
            { "nodeid": 38, "depth": 5, "split": "f14", "split_condition": -0.368853509, "yes": 75, "no": 76, "missing": 75 , "children": [
              { "nodeid": 75, "depth": 6, "split": "f11", "split_condition": -0.765768647, "yes": 135, "no": 136, "missing": 135 , "children": [
                { "nodeid": 135, "depth": 7, "split": "f11", "split_condition": -0.939839482, "yes": 235, "no": 236, "missing": 235 , "children": [
                  { "nodeid": 235, "depth": 8, "split": "f17", "split_condition": 0.49276197, "yes": 389, "no": 390, "missing": 389 , "children": [
                    { "nodeid": 389, "depth": 9, "split": "f6", "split_condition": -0.191591591, "yes": 579, "no": 580, "missing": 579 , "children": [
                      { "nodeid": 579, "leaf": 0.092194058 }, 
                      { "nodeid": 580, "leaf": -0.144721851 }
                    ]}, 
                    { "nodeid": 390, "leaf": 0.309484571 }
                  ]}, 
                  { "nodeid": 236, "depth": 8, "split": "f1", "split_condition": -1.12988997, "yes": 391, "no": 392, "missing": 391 , "children": [
                    { "nodeid": 391, "leaf": -0.0806175247 }, 
                    { "nodeid": 392, "leaf": -0.392617226 }
                  ]}
                ]}, 
                { "nodeid": 136, "depth": 7, "split": "f15", "split_condition": -0.710744023, "yes": 237, "no": 238, "missing": 237 , "children": [
                  { "nodeid": 237, "depth": 8, "split": "f1", "split_condition": -0.470719516, "yes": 393, "no": 394, "missing": 393 , "children": [
                    { "nodeid": 393, "leaf": 0.130490109 }, 
                    { "nodeid": 394, "depth": 9, "split": "f1", "split_condition": -0.324429482, "yes": 581, "no": 582, "missing": 581 , "children": [
                      { "nodeid": 581, "leaf": -0.114762306 }, 
                      { "nodeid": 582, "leaf": -0.00845235214 }
                    ]}
                  ]}, 
                  { "nodeid": 238, "depth": 8, "split": "f9", "split_condition": 1.31555772, "yes": 395, "no": 396, "missing": 395 , "children": [
                    { "nodeid": 395, "depth": 9, "split": "f0", "split_condition": -1.61769903, "yes": 583, "no": 584, "missing": 583 , "children": [
                      { "nodeid": 583, "leaf": 0.0722731873 }, 
                      { "nodeid": 584, "leaf": 0.951402605 }
                    ]}, 
                    { "nodeid": 396, "depth": 9, "split": "f2", "split_condition": 0.0105794594, "yes": 585, "no": 586, "missing": 585 , "children": [
                      { "nodeid": 585, "leaf": 0.292185038 }, 
                      { "nodeid": 586, "leaf": 0.0584223457 }
                    ]}
                  ]}
                ]}
              ]}, 
              { "nodeid": 76, "depth": 6, "split": "f13", "split_condition": -1.19422102, "yes": 137, "no": 138, "missing": 137 , "children": [
                { "nodeid": 137, "depth": 7, "split": "f5", "split_condition": -0.799960315, "yes": 239, "no": 240, "missing": 239 , "children": [
                  { "nodeid": 239, "leaf": 0.258730322 }, 
                  { "nodeid": 240, "depth": 8, "split": "f9", "split_condition": 0.592354536, "yes": 397, "no": 398, "missing": 397 , "children": [
                    { "nodeid": 397, "depth": 9, "split": "f2", "split_condition": -1.18948781, "yes": 587, "no": 588, "missing": 587 , "children": [
                      { "nodeid": 587, "leaf": -0.13168107 }, 
                      { "nodeid": 588, "leaf": -0.542876661 }
                    ]}, 
                    { "nodeid": 398, "leaf": -0.156407475 }
                  ]}
                ]}, 
                { "nodeid": 138, "depth": 7, "split": "f2", "split_condition": 0.286893666, "yes": 241, "no": 242, "missing": 241 , "children": [
                  { "nodeid": 241, "depth": 8, "split": "f12", "split_condition": -1.82667565, "yes": 399, "no": 400, "missing": 399 , "children": [
                    { "nodeid": 399, "leaf": -0.236241609 }, 
                    { "nodeid": 400, "depth": 9, "split": "f11", "split_condition": -0.711736679, "yes": 589, "no": 590, "missing": 589 , "children": [
                      { "nodeid": 589, "leaf": 0.66398561 }, 
                      { "nodeid": 590, "leaf": 0.215052351 }
                    ]}
                  ]}, 
                  { "nodeid": 242, "depth": 8, "split": "f14", "split_condition": -0.21680671, "yes": 401, "no": 402, "missing": 401 , "children": [
                    { "nodeid": 401, "leaf": -0.963259399 }, 
                    { "nodeid": 402, "depth": 9, "split": "f12", "split_condition": 0.350381851, "yes": 591, "no": 592, "missing": 591 , "children": [
                      { "nodeid": 591, "leaf": 0.125950754 }, 
                      { "nodeid": 592, "leaf": -0.172322005 }
                    ]}
                  ]}
                ]}
              ]}
            ]}
          ]}, 
          { "nodeid": 20, "depth": 4, "split": "f12", "split_condition": 0.643431008, "yes": 39, "no": 40, "missing": 39 , "children": [
            { "nodeid": 39, "depth": 5, "split": "f14", "split_condition": 0.833539248, "yes": 77, "no": 78, "missing": 77 , "children": [
              { "nodeid": 77, "depth": 6, "split": "f19", "split_condition": 1.0431385, "yes": 139, "no": 140, "missing": 139 , "children": [
                { "nodeid": 139, "depth": 7, "split": "f10", "split_condition": 1.59768665, "yes": 243, "no": 244, "missing": 243 , "children": [
                  { "nodeid": 243, "depth": 8, "split": "f10", "split_condition": 1.23787034, "yes": 403, "no": 404, "missing": 403 , "children": [
                    { "nodeid": 403, "depth": 9, "split": "f3", "split_condition": 0.400883317, "yes": 593, "no": 594, "missing": 593 , "children": [
                      { "nodeid": 593, "leaf": 0.190516695 }, 
                      { "nodeid": 594, "leaf": -0.371938378 }
                    ]}, 
                    { "nodeid": 404, "depth": 9, "split": "f15", "split_condition": -0.501864791, "yes": 595, "no": 596, "missing": 595 , "children": [
                      { "nodeid": 595, "leaf": 0.120211117 }, 
                      { "nodeid": 596, "leaf": -0.287909925 }
                    ]}
                  ]}, 
                  { "nodeid": 244, "depth": 8, "split": "f15", "split_condition": -0.0820336863, "yes": 405, "no": 406, "missing": 405 , "children": [
                    { "nodeid": 405, "depth": 9, "split": "f0", "split_condition": -0.0507338122, "yes": 597, "no": 598, "missing": 597 , "children": [
                      { "nodeid": 597, "leaf": -0.0167529359 }, 
                      { "nodeid": 598, "leaf": 0.306738526 }
                    ]}, 
                    { "nodeid": 406, "depth": 9, "split": "f17", "split_condition": -0.392512262, "yes": 599, "no": 600, "missing": 599 , "children": [
                      { "nodeid": 599, "leaf": -0.0160500947 }, 
                      { "nodeid": 600, "leaf": 0.423049837 }
                    ]}
                  ]}
                ]}, 
                { "nodeid": 140, "depth": 7, "split": "f9", "split_condition": -0.293298602, "yes": 245, "no": 246, "missing": 245 , "children": [
                  { "nodeid": 245, "depth": 8, "split": "f5", "split_condition": -0.341296703, "yes": 407, "no": 408, "missing": 407 , "children": [
                    { "nodeid": 407, "leaf": -0.338574201 }, 
                    { "nodeid": 408, "depth": 9, "split": "f0", "split_condition": -0.201536179, "yes": 601, "no": 602, "missing": 601 , "children": [
                      { "nodeid": 601, "leaf": -0.0639798492 }, 
                      { "nodeid": 602, "leaf": 0.157489017 }
                    ]}
                  ]}, 
                  { "nodeid": 246, "depth": 8, "split": "f11", "split_condition": 0.0864034295, "yes": 409, "no": 410, "missing": 409 , "children": [
                    { "nodeid": 409, "depth": 9, "split": "f17", "split_condition": -0.985729098, "yes": 603, "no": 604, "missing": 603 , "children": [
                      { "nodeid": 603, "leaf": 0.227571249 }, 
                      { "nodeid": 604, "leaf": 1.0435189 }
                    ]}, 
                    { "nodeid": 410, "depth": 9, "split": "f15", "split_condition": 0.420896351, "yes": 605, "no": 606, "missing": 605 , "children": [
                      { "nodeid": 605, "leaf": 0.398477644 }, 
                      { "nodeid": 606, "leaf": -0.0965718552 }
                    ]}
                  ]}
                ]}
              ]}, 
              { "nodeid": 78, "depth": 6, "split": "f6", "split_condition": 0.838860393, "yes": 141, "no": 142, "missing": 141 , "children": [
                { "nodeid": 141, "depth": 7, "split": "f13", "split_condition": 0.0476673767, "yes": 247, "no": 248, "missing": 247 , "children": [
                  { "nodeid": 247, "depth": 8, "split": "f13", "split_condition": -0.194601834, "yes": 411, "no": 412, "missing": 411 , "children": [
                    { "nodeid": 411, "depth": 9, "split": "f2", "split_condition": -0.792335093, "yes": 607, "no": 608, "missing": 607 , "children": [
                      { "nodeid": 607, "leaf": -0.212266833 }, 
                      { "nodeid": 608, "leaf": 0.0394381955 }
                    ]}, 
                    { "nodeid": 412, "depth": 9, "split": "f0", "split_condition": -2.27076983, "yes": 609, "no": 610, "missing": 609 , "children": [
                      { "nodeid": 609, "leaf": 0.0762252808 }, 
                      { "nodeid": 610, "leaf": -0.53886503 }
                    ]}
                  ]}, 
                  { "nodeid": 248, "depth": 8, "split": "f14", "split_condition": 2.0133152, "yes": 413, "no": 414, "missing": 413 , "children": [
                    { "nodeid": 413, "depth": 9, "split": "f19", "split_condition": 0.501916409, "yes": 611, "no": 612, "missing": 611 , "children": [
                      { "nodeid": 611, "leaf": 0.310115129 }, 
                      { "nodeid": 612, "leaf": -0.0639657602 }
                    ]}, 
                    { "nodeid": 414, "depth": 9, "split": "f1", "split_condition": 0.622711897, "yes": 613, "no": 614, "missing": 613 , "children": [
                      { "nodeid": 613, "leaf": -0.0709607452 }, 
                      { "nodeid": 614, "leaf": -0.387990713 }
                    ]}
                  ]}
                ]}, 
                { "nodeid": 142, "depth": 7, "split": "f10", "split_condition": 1.13366556, "yes": 249, "no": 250, "missing": 249 , "children": [
                  { "nodeid": 249, "leaf": -1.04727983 }, 
                  { "nodeid": 250, "depth": 8, "split": "f5", "split_condition": 0.501151979, "yes": 415, "no": 416, "missing": 415 , "children": [
                    { "nodeid": 415, "depth": 9, "split": "f0", "split_condition": -0.765158296, "yes": 615, "no": 616, "missing": 615 , "children": [
                      { "nodeid": 615, "leaf": -0.0239702221 }, 
                      { "nodeid": 616, "leaf": -0.405063778 }
                    ]}, 
                    { "nodeid": 416, "depth": 9, "split": "f5", "split_condition": 0.875877976, "yes": 617, "no": 618, "missing": 617 , "children": [
                      { "nodeid": 617, "leaf": 0.05023041 }, 
                      { "nodeid": 618, "leaf": -0.0314433575 }
                    ]}
                  ]}
                ]}
              ]}
            ]}, 
            { "nodeid": 40, "depth": 5, "split": "f0", "split_condition": -0.776927233, "yes": 79, "no": 80, "missing": 79 , "children": [
              { "nodeid": 79, "depth": 6, "split": "f19", "split_condition": 0.281319678, "yes": 143, "no": 144, "missing": 143 , "children": [
                { "nodeid": 143, "depth": 7, "split": "f1", "split_condition": 0.912023902, "yes": 251, "no": 252, "missing": 251 , "children": [
                  { "nodeid": 251, "depth": 8, "split": "f5", "split_condition": 0.613913834, "yes": 417, "no": 418, "missing": 417 , "children": [
                    { "nodeid": 417, "depth": 9, "split": "f3", "split_condition": 0.0810513496, "yes": 619, "no": 620, "missing": 619 , "children": [
                      { "nodeid": 619, "leaf": 0.0760148093 }, 
                      { "nodeid": 620, "leaf": 0.346407235 }
                    ]}, 
                    { "nodeid": 418, "depth": 9, "split": "f0", "split_condition": -0.8634938, "yes": 621, "no": 622, "missing": 621 , "children": [
                      { "nodeid": 621, "leaf": 0.763764322 }, 
                      { "nodeid": 622, "leaf": 0.144317627 }
                    ]}
                  ]}, 
                  { "nodeid": 252, "depth": 8, "split": "f5", "split_condition": 0.309342533, "yes": 419, "no": 420, "missing": 419 , "children": [
                    { "nodeid": 419, "depth": 9, "split": "f15", "split_condition": -0.530489922, "yes": 623, "no": 624, "missing": 623 , "children": [
                      { "nodeid": 623, "leaf": 0.0484156273 }, 
                      { "nodeid": 624, "leaf": 0.171653748 }
                    ]}, 
                    { "nodeid": 420, "depth": 9, "split": "f2", "split_condition": -0.418174773, "yes": 625, "no": 626, "missing": 625 , "children": [
                      { "nodeid": 625, "leaf": 0.0425305702 }, 
                      { "nodeid": 626, "leaf": -0.130280823 }
                    ]}
                  ]}
                ]}, 
                { "nodeid": 144, "depth": 7, "split": "f17", "split_condition": 0.0746185035, "yes": 253, "no": 254, "missing": 253 , "children": [
                  { "nodeid": 253, "depth": 8, "split": "f1", "split_condition": 0.200142562, "yes": 421, "no": 422, "missing": 421 , "children": [
                    { "nodeid": 421, "leaf": -0.14132385 }, 
                    { "nodeid": 422, "depth": 9, "split": "f1", "split_condition": 0.495628148, "yes": 627, "no": 628, "missing": 627 , "children": [
                      { "nodeid": 627, "leaf": 0.187928453 }, 
                      { "nodeid": 628, "leaf": 0.0227159504 }
                    ]}
                  ]}, 
                  { "nodeid": 254, "leaf": -0.580254376 }
                ]}
              ]}, 
              { "nodeid": 80, "depth": 6, "split": "f13", "split_condition": -0.736468911, "yes": 145, "no": 146, "missing": 145 , "children": [
                { "nodeid": 145, "depth": 7, "split": "f6", "split_condition": 0.368427992, "yes": 255, "no": 256, "missing": 255 , "children": [
                  { "nodeid": 255, "depth": 8, "split": "f19", "split_condition": -0.276985556, "yes": 423, "no": 424, "missing": 423 , "children": [
                    { "nodeid": 423, "leaf": -0.262734979 }, 
                    { "nodeid": 424, "depth": 9, "split": "f5", "split_condition": 1.92535186, "yes": 629, "no": 630, "missing": 629 , "children": [
                      { "nodeid": 629, "leaf": -0.984995544 }, 
                      { "nodeid": 630, "leaf": -0.144250497 }
                    ]}
                  ]}, 
                  { "nodeid": 256, "depth": 8, "split": "f0", "split_condition": -0.496659458, "yes": 425, "no": 426, "missing": 425 , "children": [
                    { "nodeid": 425, "leaf": 0.363225549 }, 
                    { "nodeid": 426, "leaf": -0.14990133 }
                  ]}
                ]}, 
                { "nodeid": 146, "depth": 7, "split": "f1", "split_condition": 0.442470133, "yes": 257, "no": 258, "missing": 257 , "children": [
                  { "nodeid": 257, "depth": 8, "split": "f3", "split_condition": 0.706646025, "yes": 427, "no": 428, "missing": 427 , "children": [
                    { "nodeid": 427, "depth": 9, "split": "f3", "split_condition": -0.483220875, "yes": 631, "no": 632, "missing": 631 , "children": [
                      { "nodeid": 631, "leaf": -0.137313589 }, 
                      { "nodeid": 632, "leaf": -0.48129645 }
                    ]}, 
                    { "nodeid": 428, "depth": 9, "split": "f0", "split_condition": -0.453849375, "yes": 633, "no": 634, "missing": 633 , "children": [
                      { "nodeid": 633, "leaf": -0.201038361 }, 
                      { "nodeid": 634, "leaf": 0.168832779 }
                    ]}
                  ]}, 
                  { "nodeid": 258, "depth": 8, "split": "f0", "split_condition": 0.0647196919, "yes": 429, "no": 430, "missing": 429 , "children": [
                    { "nodeid": 429, "depth": 9, "split": "f10", "split_condition": 1.29445732, "yes": 635, "no": 636, "missing": 635 , "children": [
                      { "nodeid": 635, "leaf": -0.227304101 }, 
                      { "nodeid": 636, "leaf": -0.0387539156 }
                    ]}, 
                    { "nodeid": 430, "depth": 9, "split": "f12", "split_condition": 1.23291326, "yes": 637, "no": 638, "missing": 637 , "children": [
                      { "nodeid": 637, "leaf": 0.32158789 }, 
                      { "nodeid": 638, "leaf": 0.029594345 }
                    ]}
                  ]}
                ]}
              ]}
            ]}
          ]}
        ]}, 
        { "nodeid": 10, "depth": 3, "split": "f3", "split_condition": 1.9839828, "yes": 21, "no": 22, "missing": 21 , "children": [
          { "nodeid": 21, "depth": 4, "split": "f9", "split_condition": -0.883898139, "yes": 41, "no": 42, "missing": 41 , "children": [
            { "nodeid": 41, "depth": 5, "split": "f8", "split_condition": 0.250802457, "yes": 81, "no": 82, "missing": 81 , "children": [
              { "nodeid": 81, "depth": 6, "split": "f19", "split_condition": -0.20753175, "yes": 147, "no": 148, "missing": 147 , "children": [
                { "nodeid": 147, "depth": 7, "split": "f0", "split_condition": 0.007832787, "yes": 259, "no": 260, "missing": 259 , "children": [
                  { "nodeid": 259, "leaf": -0.0572752021 }, 
                  { "nodeid": 260, "leaf": 0.0148200989 }
                ]}, 
                { "nodeid": 148, "depth": 7, "split": "f3", "split_condition": 1.51986551, "yes": 261, "no": 262, "missing": 261 , "children": [
                  { "nodeid": 261, "leaf": 0.132779852 }, 
                  { "nodeid": 262, "leaf": 0.0207372028 }
                ]}
              ]}, 
              { "nodeid": 82, "depth": 6, "split": "f1", "split_condition": 0.372161686, "yes": 149, "no": 150, "missing": 149 , "children": [
                { "nodeid": 149, "depth": 7, "split": "f0", "split_condition": -0.709504843, "yes": 263, "no": 264, "missing": 263 , "children": [
                  { "nodeid": 263, "leaf": 0.0412696861 }, 
                  { "nodeid": 264, "depth": 8, "split": "f0", "split_condition": -0.380771101, "yes": 431, "no": 432, "missing": 431 , "children": [
                    { "nodeid": 431, "leaf": -0.0702640563 }, 
                    { "nodeid": 432, "leaf": -0.0245623272 }
                  ]}
                ]}, 
                { "nodeid": 150, "depth": 7, "split": "f1", "split_condition": 2.66056728, "yes": 265, "no": 266, "missing": 265 , "children": [
                  { "nodeid": 265, "leaf": -0.337370008 }, 
                  { "nodeid": 266, "leaf": -0.0613204949 }
                ]}
              ]}
            ]}, 
            { "nodeid": 42, "depth": 5, "split": "f8", "split_condition": 0.853711724, "yes": 83, "no": 84, "missing": 83 , "children": [
              { "nodeid": 83, "depth": 6, "split": "f3", "split_condition": 1.57998586, "yes": 151, "no": 152, "missing": 151 , "children": [
                { "nodeid": 151, "depth": 7, "split": "f8", "split_condition": -0.412484944, "yes": 267, "no": 268, "missing": 267 , "children": [
                  { "nodeid": 267, "leaf": -0.776428521 }, 
                  { "nodeid": 268, "depth": 8, "split": "f11", "split_condition": 0.835314155, "yes": 433, "no": 434, "missing": 433 , "children": [
                    { "nodeid": 433, "depth": 9, "split": "f3", "split_condition": 1.35339725, "yes": 639, "no": 640, "missing": 639 , "children": [
                      { "nodeid": 639, "leaf": -0.0172119141 }, 
                      { "nodeid": 640, "leaf": -0.324470133 }
                    ]}, 
                    { "nodeid": 434, "leaf": 0.000674438488 }
                  ]}
                ]}, 
                { "nodeid": 152, "depth": 7, "split": "f8", "split_condition": -0.683603287, "yes": 269, "no": 270, "missing": 269 , "children": [
                  { "nodeid": 269, "depth": 8, "split": "f1", "split_condition": 0.384079158, "yes": 435, "no": 436, "missing": 435 , "children": [
                    { "nodeid": 435, "depth": 9, "split": "f3", "split_condition": 1.83842635, "yes": 641, "no": 642, "missing": 641 , "children": [
                      { "nodeid": 641, "leaf": -0.0578338318 }, 
                      { "nodeid": 642, "leaf": -0.152391568 }
                    ]}, 
                    { "nodeid": 436, "depth": 9, "split": "f0", "split_condition": -1.08442664, "yes": 643, "no": 644, "missing": 643 , "children": [
                      { "nodeid": 643, "leaf": 0.0534362793 }, 
                      { "nodeid": 644, "leaf": 0.0070739747 }
                    ]}
                  ]}, 
                  { "nodeid": 270, "depth": 8, "split": "f12", "split_condition": 0.63050127, "yes": 437, "no": 438, "missing": 437 , "children": [
                    { "nodeid": 437, "depth": 9, "split": "f2", "split_condition": -0.96755743, "yes": 645, "no": 646, "missing": 645 , "children": [
                      { "nodeid": 645, "leaf": -0.0895019546 }, 
                      { "nodeid": 646, "leaf": -0.321039259 }
                    ]}, 
                    { "nodeid": 438, "leaf": -0.0914144516 }
                  ]}
                ]}
              ]}, 
              { "nodeid": 84, "depth": 6, "split": "f8", "split_condition": 2.44493747, "yes": 153, "no": 154, "missing": 153 , "children": [
                { "nodeid": 153, "depth": 7, "split": "f0", "split_condition": -0.557819605, "yes": 271, "no": 272, "missing": 271 , "children": [
                  { "nodeid": 271, "depth": 8, "split": "f0", "split_condition": -0.695918798, "yes": 439, "no": 440, "missing": 439 , "children": [
                    { "nodeid": 439, "leaf": 0.0585955344 }, 
                    { "nodeid": 440, "leaf": -0.00348691945 }
                  ]}, 
                  { "nodeid": 272, "leaf": 0.176593035 }
                ]}, 
                { "nodeid": 154, "leaf": -0.277050793 }
              ]}
            ]}
          ]}, 
          { "nodeid": 22, "depth": 4, "split": "f12", "split_condition": -0.146154493, "yes": 43, "no": 44, "missing": 43 , "children": [
            { "nodeid": 43, "depth": 5, "split": "f5", "split_condition": 1.04421091, "yes": 85, "no": 86, "missing": 85 , "children": [
              { "nodeid": 85, "depth": 6, "split": "f1", "split_condition": 0.439876825, "yes": 155, "no": 156, "missing": 155 , "children": [
                { "nodeid": 155, "leaf": -0.425093174 }, 
                { "nodeid": 156, "leaf": -0.0538566597 }
              ]}, 
              { "nodeid": 86, "leaf": 0.328050613 }
            ]}, 
            { "nodeid": 44, "depth": 5, "split": "f12", "split_condition": 0.692530036, "yes": 87, "no": 88, "missing": 87 , "children": [
              { "nodeid": 87, "depth": 6, "split": "f10", "split_condition": 1.27627504, "yes": 157, "no": 158, "missing": 157 , "children": [
                { "nodeid": 157, "depth": 7, "split": "f1", "split_condition": 0.669175923, "yes": 273, "no": 274, "missing": 273 , "children": [
                  { "nodeid": 273, "leaf": 0.580816448 }, 
                  { "nodeid": 274, "leaf": 0.149723053 }
                ]}, 
                { "nodeid": 158, "depth": 7, "split": "f15", "split_condition": 1.25025892, "yes": 275, "no": 276, "missing": 275 , "children": [
                  { "nodeid": 275, "leaf": 0.232508466 }, 
                  { "nodeid": 276, "leaf": 0.0574920662 }
                ]}
              ]}, 
              { "nodeid": 88, "depth": 6, "split": "f2", "split_condition": 0.0978191122, "yes": 159, "no": 160, "missing": 159 , "children": [
                { "nodeid": 159, "depth": 7, "split": "f0", "split_condition": -0.306125283, "yes": 277, "no": 278, "missing": 277 , "children": [
                  { "nodeid": 277, "leaf": 0.0794518813 }, 
                  { "nodeid": 278, "leaf": -0.00663528452 }
                ]}, 
                { "nodeid": 160, "leaf": -0.186288461 }
              ]}
            ]}
          ]}
        ]}
      ]}
    ]}, 
    { "nodeid": 2, "depth": 1, "split": "f0", "split_condition": 0.314911187, "yes": 5, "no": 6, "missing": 5 , "children": [
      { "nodeid": 5, "depth": 2, "split": "f3", "split_condition": 0.696479797, "yes": 11, "no": 12, "missing": 11 , "children": [
        { "nodeid": 11, "depth": 3, "split": "f2", "split_condition": -1.76158118, "yes": 23, "no": 24, "missing": 23 , "children": [
          { "nodeid": 23, "depth": 4, "split": "f0", "split_condition": 0.257490098, "yes": 45, "no": 46, "missing": 45 , "children": [
            { "nodeid": 45, "leaf": 0.0329956077 }, 
            { "nodeid": 46, "leaf": -0.513866365 }
          ]}, 
          { "nodeid": 24, "depth": 4, "split": "f12", "split_condition": -1.51673877, "yes": 47, "no": 48, "missing": 47 , "children": [
            { "nodeid": 47, "depth": 5, "split": "f17", "split_condition": 0.883240342, "yes": 89, "no": 90, "missing": 89 , "children": [
              { "nodeid": 89, "depth": 6, "split": "f15", "split_condition": 0.271034986, "yes": 161, "no": 162, "missing": 161 , "children": [
                { "nodeid": 161, "depth": 7, "split": "f3", "split_condition": -1.29299617, "yes": 279, "no": 280, "missing": 279 , "children": [
                  { "nodeid": 279, "leaf": 0.136506662 }, 
                  { "nodeid": 280, "leaf": 0.505531132 }
                ]}, 
                { "nodeid": 162, "depth": 7, "split": "f0", "split_condition": 0.268723667, "yes": 281, "no": 282, "missing": 281 , "children": [
                  { "nodeid": 281, "leaf": 0.062739566 }, 
                  { "nodeid": 282, "leaf": 0.0106269838 }
                ]}
              ]}, 
              { "nodeid": 90, "leaf": 1.22746444 }
            ]}, 
            { "nodeid": 48, "depth": 5, "split": "f12", "split_condition": 1.0208596, "yes": 91, "no": 92, "missing": 91 , "children": [
              { "nodeid": 91, "depth": 6, "split": "f12", "split_condition": 0.555322051, "yes": 163, "no": 164, "missing": 163 , "children": [
                { "nodeid": 163, "depth": 7, "split": "f11", "split_condition": 0.418041766, "yes": 283, "no": 284, "missing": 283 , "children": [
                  { "nodeid": 283, "depth": 8, "split": "f11", "split_condition": 0.390282154, "yes": 441, "no": 442, "missing": 441 , "children": [
                    { "nodeid": 441, "depth": 9, "split": "f14", "split_condition": 0.0253411531, "yes": 647, "no": 648, "missing": 647 , "children": [
                      { "nodeid": 647, "leaf": 0.0611226149 }, 
                      { "nodeid": 648, "leaf": 0.461095661 }
                    ]}, 
                    { "nodeid": 442, "leaf": 1.05431068 }
                  ]}, 
                  { "nodeid": 284, "depth": 8, "split": "f12", "split_condition": 0.421263903, "yes": 443, "no": 444, "missing": 443 , "children": [
                    { "nodeid": 443, "depth": 9, "split": "f15", "split_condition": 1.28001523, "yes": 649, "no": 650, "missing": 649 , "children": [
                      { "nodeid": 649, "leaf": 0.0149087775 }, 
                      { "nodeid": 650, "leaf": -0.541637421 }
                    ]}, 
                    { "nodeid": 444, "depth": 9, "split": "f2", "split_condition": 1.35304475, "yes": 651, "no": 652, "missing": 651 , "children": [
                      { "nodeid": 651, "leaf": 0.786112666 }, 
                      { "nodeid": 652, "leaf": 0.0514709465 }
                    ]}
                  ]}
                ]}, 
                { "nodeid": 164, "depth": 7, "split": "f13", "split_condition": 0.50886941, "yes": 285, "no": 286, "missing": 285 , "children": [
                  { "nodeid": 285, "depth": 8, "split": "f19", "split_condition": 0.545986295, "yes": 445, "no": 446, "missing": 445 , "children": [
                    { "nodeid": 445, "depth": 9, "split": "f12", "split_condition": 0.682511091, "yes": 653, "no": 654, "missing": 653 , "children": [
                      { "nodeid": 653, "leaf": -0.500290394 }, 
                      { "nodeid": 654, "leaf": -0.127372965 }
                    ]}, 
                    { "nodeid": 446, "depth": 9, "split": "f12", "split_condition": 0.649539351, "yes": 655, "no": 656, "missing": 655 , "children": [
                      { "nodeid": 655, "leaf": 0.119213395 }, 
                      { "nodeid": 656, "leaf": -0.106027149 }
                    ]}
                  ]}, 
                  { "nodeid": 286, "leaf": 0.236204252 }
                ]}
              ]}, 
              { "nodeid": 92, "depth": 6, "split": "f2", "split_condition": -0.701270103, "yes": 165, "no": 166, "missing": 165 , "children": [
                { "nodeid": 165, "depth": 7, "split": "f0", "split_condition": 0.260272145, "yes": 287, "no": 288, "missing": 287 , "children": [
                  { "nodeid": 287, "leaf": -0.108620457 }, 
                  { "nodeid": 288, "leaf": 0.02960434 }
                ]}, 
                { "nodeid": 166, "depth": 7, "split": "f19", "split_condition": 0.750497758, "yes": 289, "no": 290, "missing": 289 , "children": [
                  { "nodeid": 289, "leaf": 0.442669004 }, 
                  { "nodeid": 290, "leaf": 1.03584802 }
                ]}
              ]}
            ]}
          ]}
        ]}, 
        { "nodeid": 12, "depth": 3, "split": "f14", "split_condition": 0.388326854, "yes": 25, "no": 26, "missing": 25 , "children": [
          { "nodeid": 25, "depth": 4, "split": "f8", "split_condition": 1.30341148, "yes": 49, "no": 50, "missing": 49 , "children": [
            { "nodeid": 49, "depth": 5, "split": "f12", "split_condition": 1.25675559, "yes": 93, "no": 94, "missing": 93 , "children": [
              { "nodeid": 93, "depth": 6, "split": "f17", "split_condition": -1.00965846, "yes": 167, "no": 168, "missing": 167 , "children": [
                { "nodeid": 167, "depth": 7, "split": "f0", "split_condition": 0.256221473, "yes": 291, "no": 292, "missing": 291 , "children": [
                  { "nodeid": 291, "leaf": -0.0624114983 }, 
                  { "nodeid": 292, "leaf": -0.277111828 }
                ]}, 
                { "nodeid": 168, "depth": 7, "split": "f1", "split_condition": 0.0670968294, "yes": 293, "no": 294, "missing": 293 , "children": [
                  { "nodeid": 293, "depth": 8, "split": "f12", "split_condition": -0.136380136, "yes": 447, "no": 448, "missing": 447 , "children": [
                    { "nodeid": 447, "depth": 9, "split": "f19", "split_condition": 0.441549301, "yes": 657, "no": 658, "missing": 657 , "children": [
                      { "nodeid": 657, "leaf": 0.359655172 }, 
                      { "nodeid": 658, "leaf": -0.0235440563 }
                    ]}, 
                    { "nodeid": 448, "depth": 9, "split": "f1", "split_condition": -0.337940991, "yes": 659, "no": 660, "missing": 659 , "children": [
                      { "nodeid": 659, "leaf": -0.166509196 }, 
                      { "nodeid": 660, "leaf": 0.118526064 }
                    ]}
                  ]}, 
                  { "nodeid": 294, "depth": 8, "split": "f3", "split_condition": 1.23400211, "yes": 449, "no": 450, "missing": 449 , "children": [
                    { "nodeid": 449, "depth": 9, "split": "f2", "split_condition": 0.608214974, "yes": 661, "no": 662, "missing": 661 , "children": [
                      { "nodeid": 661, "leaf": 1.05228603 }, 
                      { "nodeid": 662, "leaf": 0.225436404 }
                    ]}, 
                    { "nodeid": 450, "depth": 9, "split": "f10", "split_condition": 0.0110046174, "yes": 663, "no": 664, "missing": 663 , "children": [
                      { "nodeid": 663, "leaf": 0.45772782 }, 
                      { "nodeid": 664, "leaf": -0.0544935577 }
                    ]}
                  ]}
                ]}
              ]}, 
              { "nodeid": 94, "depth": 6, "split": "f6", "split_condition": 0.892421365, "yes": 169, "no": 170, "missing": 169 , "children": [
                { "nodeid": 169, "depth": 7, "split": "f3", "split_condition": 1.93406725, "yes": 295, "no": 296, "missing": 295 , "children": [
                  { "nodeid": 295, "leaf": -0.066078186 }, 
                  { "nodeid": 296, "leaf": -0.0242852531 }
                ]}, 
                { "nodeid": 170, "leaf": -0.25255993 }
              ]}
            ]}, 
            { "nodeid": 50, "depth": 5, "split": "f19", "split_condition": -0.735456467, "yes": 95, "no": 96, "missing": 95 , "children": [
              { "nodeid": 95, "depth": 6, "split": "f0", "split_condition": 0.281312823, "yes": 171, "no": 172, "missing": 171 , "children": [
                { "nodeid": 171, "leaf": 0.0769500732 }, 
                { "nodeid": 172, "leaf": -0.0401954651 }
              ]}, 
              { "nodeid": 96, "leaf": -0.570106149 }
            ]}
          ]}, 
          { "nodeid": 26, "depth": 4, "split": "f15", "split_condition": -0.0387785919, "yes": 51, "no": 52, "missing": 51 , "children": [
            { "nodeid": 51, "depth": 5, "split": "f11", "split_condition": -0.709895313, "yes": 97, "no": 98, "missing": 97 , "children": [
              { "nodeid": 97, "depth": 6, "split": "f0", "split_condition": 0.302060068, "yes": 173, "no": 174, "missing": 173 , "children": [
                { "nodeid": 173, "leaf": 0.272683352 }, 
                { "nodeid": 174, "leaf": -0.0131912231 }
              ]}, 
              { "nodeid": 98, "leaf": -0.150997728 }
            ]}, 
            { "nodeid": 52, "depth": 5, "split": "f6", "split_condition": 0.162112102, "yes": 99, "no": 100, "missing": 99 , "children": [
              { "nodeid": 99, "leaf": -0.847511709 }, 
              { "nodeid": 100, "depth": 6, "split": "f1", "split_condition": -0.466985047, "yes": 175, "no": 176, "missing": 175 , "children": [
                { "nodeid": 175, "leaf": -0.126874551 }, 
                { "nodeid": 176, "leaf": 0.0160812382 }
              ]}
            ]}
          ]}
        ]}
      ]}, 
      { "nodeid": 6, "depth": 2, "split": "f12", "split_condition": 0.465333521, "yes": 13, "no": 14, "missing": 13 , "children": [
        { "nodeid": 13, "depth": 3, "split": "f9", "split_condition": -0.317468017, "yes": 27, "no": 28, "missing": 27 , "children": [
          { "nodeid": 27, "depth": 4, "split": "f9", "split_condition": -0.321043938, "yes": 53, "no": 54, "missing": 53 , "children": [
            { "nodeid": 53, "depth": 5, "split": "f15", "split_condition": -0.341603398, "yes": 101, "no": 102, "missing": 101 , "children": [
              { "nodeid": 101, "depth": 6, "split": "f11", "split_condition": -1.97920489, "yes": 177, "no": 178, "missing": 177 , "children": [
                { "nodeid": 177, "depth": 7, "split": "f1", "split_condition": -0.584154546, "yes": 297, "no": 298, "missing": 297 , "children": [
                  { "nodeid": 297, "leaf": -0.309286892 }, 
                  { "nodeid": 298, "leaf": -1.10637367 }
                ]}, 
                { "nodeid": 178, "depth": 7, "split": "f0", "split_condition": 1.20257068, "yes": 299, "no": 300, "missing": 299 , "children": [
                  { "nodeid": 299, "depth": 8, "split": "f0", "split_condition": 1.14353359, "yes": 451, "no": 452, "missing": 451 , "children": [
                    { "nodeid": 451, "depth": 9, "split": "f1", "split_condition": -0.18167448, "yes": 665, "no": 666, "missing": 665 , "children": [
                      { "nodeid": 665, "leaf": 0.114719823 }, 
                      { "nodeid": 666, "leaf": -0.168847799 }
                    ]}, 
                    { "nodeid": 452, "depth": 9, "split": "f6", "split_condition": -0.130754679, "yes": 667, "no": 668, "missing": 667 , "children": [
                      { "nodeid": 667, "leaf": -0.00244625937 }, 
                      { "nodeid": 668, "leaf": -1.20612609 }
                    ]}
                  ]}, 
                  { "nodeid": 300, "depth": 8, "split": "f15", "split_condition": -0.353122056, "yes": 453, "no": 454, "missing": 453 , "children": [
                    { "nodeid": 453, "depth": 9, "split": "f19", "split_condition": -0.288259149, "yes": 669, "no": 670, "missing": 669 , "children": [
                      { "nodeid": 669, "leaf": 0.296315879 }, 
                      { "nodeid": 670, "leaf": 0.0177357625 }
                    ]}, 
                    { "nodeid": 454, "leaf": -0.82208252 }
                  ]}
                ]}
              ]}, 
              { "nodeid": 102, "depth": 6, "split": "f15", "split_condition": -0.299006939, "yes": 179, "no": 180, "missing": 179 , "children": [
                { "nodeid": 179, "depth": 7, "split": "f3", "split_condition": -0.515925527, "yes": 301, "no": 302, "missing": 301 , "children": [
                  { "nodeid": 301, "depth": 8, "split": "f0", "split_condition": 1.1309129, "yes": 455, "no": 456, "missing": 455 , "children": [
                    { "nodeid": 455, "leaf": 0.155669406 }, 
                    { "nodeid": 456, "leaf": -0.0393290184 }
                  ]}, 
                  { "nodeid": 302, "leaf": 0.992155015 }
                ]}, 
                { "nodeid": 180, "depth": 7, "split": "f14", "split_condition": -0.834054589, "yes": 303, "no": 304, "missing": 303 , "children": [
                  { "nodeid": 303, "depth": 8, "split": "f11", "split_condition": -0.619238496, "yes": 457, "no": 458, "missing": 457 , "children": [
                    { "nodeid": 457, "depth": 9, "split": "f3", "split_condition": -1.11559939, "yes": 671, "no": 672, "missing": 671 , "children": [
                      { "nodeid": 671, "leaf": 0.703061938 }, 
                      { "nodeid": 672, "leaf": 0.0547908209 }
                    ]}, 
                    { "nodeid": 458, "depth": 9, "split": "f19", "split_condition": 0.903838575, "yes": 673, "no": 674, "missing": 673 , "children": [
                      { "nodeid": 673, "leaf": -0.254031867 }, 
                      { "nodeid": 674, "leaf": 0.078947179 }
                    ]}
                  ]}, 
                  { "nodeid": 304, "depth": 8, "split": "f9", "split_condition": -0.852420688, "yes": 459, "no": 460, "missing": 459 , "children": [
                    { "nodeid": 459, "depth": 9, "split": "f17", "split_condition": 0.464224637, "yes": 675, "no": 676, "missing": 675 , "children": [
                      { "nodeid": 675, "leaf": -0.0809685737 }, 
                      { "nodeid": 676, "leaf": 0.163966373 }
                    ]}, 
                    { "nodeid": 460, "depth": 9, "split": "f0", "split_condition": 1.54556179, "yes": 677, "no": 678, "missing": 677 , "children": [
                      { "nodeid": 677, "leaf": 0.280170351 }, 
                      { "nodeid": 678, "leaf": -0.230960652 }
                    ]}
                  ]}
                ]}
              ]}
            ]}, 
            { "nodeid": 54, "depth": 5, "split": "f5", "split_condition": -0.360170364, "yes": 103, "no": 104, "missing": 103 , "children": [
              { "nodeid": 103, "leaf": 0.201602176 }, 
              { "nodeid": 104, "leaf": 0.888881981 }
            ]}
          ]}, 
          { "nodeid": 28, "depth": 4, "split": "f12", "split_condition": 0.436217278, "yes": 55, "no": 56, "missing": 55 , "children": [
            { "nodeid": 55, "depth": 5, "split": "f0", "split_condition": 1.04677677, "yes": 105, "no": 106, "missing": 105 , "children": [
              { "nodeid": 105, "depth": 6, "split": "f0", "split_condition": 1.04309511, "yes": 181, "no": 182, "missing": 181 , "children": [
                { "nodeid": 181, "depth": 7, "split": "f1", "split_condition": -1.13161302, "yes": 305, "no": 306, "missing": 305 , "children": [
                  { "nodeid": 305, "depth": 8, "split": "f15", "split_condition": 0.555196524, "yes": 461, "no": 462, "missing": 461 , "children": [
                    { "nodeid": 461, "depth": 9, "split": "f6", "split_condition": 0.100069746, "yes": 679, "no": 680, "missing": 679 , "children": [
                      { "nodeid": 679, "leaf": 0.312735349 }, 
                      { "nodeid": 680, "leaf": -0.00866102055 }
                    ]}, 
                    { "nodeid": 462, "depth": 9, "split": "f2", "split_condition": -1.45890713, "yes": 681, "no": 682, "missing": 681 , "children": [
                      { "nodeid": 681, "leaf": 0.505996346 }, 
                      { "nodeid": 682, "leaf": -0.180102125 }
                    ]}
                  ]}, 
                  { "nodeid": 306, "depth": 8, "split": "f13", "split_condition": 0.285232961, "yes": 463, "no": 464, "missing": 463 , "children": [
                    { "nodeid": 463, "depth": 9, "split": "f13", "split_condition": 0.243326962, "yes": 683, "no": 684, "missing": 683 , "children": [
                      { "nodeid": 683, "leaf": -0.0423878692 }, 
                      { "nodeid": 684, "leaf": 0.530797839 }
                    ]}, 
                    { "nodeid": 464, "depth": 9, "split": "f19", "split_condition": 1.03954005, "yes": 685, "no": 686, "missing": 685 , "children": [
                      { "nodeid": 685, "leaf": -0.202378735 }, 
                      { "nodeid": 686, "leaf": 0.106684916 }
                    ]}
                  ]}
                ]}, 
                { "nodeid": 182, "depth": 7, "split": "f13", "split_condition": -0.559089303, "yes": 307, "no": 308, "missing": 307 , "children": [
                  { "nodeid": 307, "leaf": -1.42261088 }, 
                  { "nodeid": 308, "depth": 8, "split": "f1", "split_condition": 0.416442871, "yes": 465, "no": 466, "missing": 465 , "children": [
                    { "nodeid": 465, "leaf": -0.260134071 }, 
                    { "nodeid": 466, "leaf": 0.138608173 }
                  ]}
                ]}
              ]}, 
              { "nodeid": 106, "depth": 6, "split": "f17", "split_condition": 0.284841537, "yes": 183, "no": 184, "missing": 183 , "children": [
                { "nodeid": 183, "depth": 7, "split": "f17", "split_condition": 0.099773854, "yes": 309, "no": 310, "missing": 309 , "children": [
                  { "nodeid": 309, "depth": 8, "split": "f12", "split_condition": 0.0958473384, "yes": 467, "no": 468, "missing": 467 , "children": [
                    { "nodeid": 467, "depth": 9, "split": "f13", "split_condition": -1.61121738, "yes": 687, "no": 688, "missing": 687 , "children": [
                      { "nodeid": 687, "leaf": -0.25740695 }, 
                      { "nodeid": 688, "leaf": 0.130655676 }
                    ]}, 
                    { "nodeid": 468, "depth": 9, "split": "f8", "split_condition": -0.0452761501, "yes": 689, "no": 690, "missing": 689 , "children": [
                      { "nodeid": 689, "leaf": -0.25427258 }, 
                      { "nodeid": 690, "leaf": 0.0955195427 }
                    ]}
                  ]}, 
                  { "nodeid": 310, "depth": 8, "split": "f2", "split_condition": 0.848155975, "yes": 469, "no": 470, "missing": 469 , "children": [
                    { "nodeid": 469, "depth": 9, "split": "f13", "split_condition": 1.64786506, "yes": 691, "no": 692, "missing": 691 , "children": [
                      { "nodeid": 691, "leaf": 0.632453382 }, 
                      { "nodeid": 692, "leaf": -0.174052119 }
                    ]}, 
                    { "nodeid": 470, "depth": 9, "split": "f0", "split_condition": 1.51566005, "yes": 693, "no": 694, "missing": 693 , "children": [
                      { "nodeid": 693, "leaf": -1.06160128 }, 
                      { "nodeid": 694, "leaf": -0.150799558 }
                    ]}
                  ]}
                ]}, 
                { "nodeid": 184, "depth": 7, "split": "f11", "split_condition": 0.14996025, "yes": 311, "no": 312, "missing": 311 , "children": [
                  { "nodeid": 311, "depth": 8, "split": "f5", "split_condition": 0.836632907, "yes": 471, "no": 472, "missing": 471 , "children": [
                    { "nodeid": 471, "depth": 9, "split": "f8", "split_condition": -0.217888683, "yes": 695, "no": 696, "missing": 695 , "children": [
                      { "nodeid": 695, "leaf": -0.425726026 }, 
                      { "nodeid": 696, "leaf": 0.0578705259 }
                    ]}, 
                    { "nodeid": 472, "depth": 9, "split": "f5", "split_condition": 1.15936255, "yes": 697, "no": 698, "missing": 697 , "children": [
                      { "nodeid": 697, "leaf": -1.3520931 }, 
                      { "nodeid": 698, "leaf": 0.364768595 }
                    ]}
                  ]}, 
                  { "nodeid": 312, "depth": 8, "split": "f2", "split_condition": 0.013635953, "yes": 473, "no": 474, "missing": 473 , "children": [
                    { "nodeid": 473, "depth": 9, "split": "f8", "split_condition": 0.244225979, "yes": 699, "no": 700, "missing": 699 , "children": [
                      { "nodeid": 699, "leaf": 0.0977815613 }, 
                      { "nodeid": 700, "leaf": -0.332165211 }
                    ]}, 
                    { "nodeid": 474, "depth": 9, "split": "f0", "split_condition": 1.4816103, "yes": 701, "no": 702, "missing": 701 , "children": [
                      { "nodeid": 701, "leaf": 0.466181368 }, 
                      { "nodeid": 702, "leaf": 0.0280721169 }
                    ]}
                  ]}
                ]}
              ]}
            ]}, 
            { "nodeid": 56, "depth": 5, "split": "f14", "split_condition": 0.263263583, "yes": 107, "no": 108, "missing": 107 , "children": [
              { "nodeid": 107, "depth": 6, "split": "f12", "split_condition": 0.452234209, "yes": 185, "no": 186, "missing": 185 , "children": [
                { "nodeid": 185, "depth": 7, "split": "f2", "split_condition": -1.60081363, "yes": 313, "no": 314, "missing": 313 , "children": [
                  { "nodeid": 313, "leaf": -0.0992945358 }, 
                  { "nodeid": 314, "leaf": -0.262115449 }
                ]}, 
                { "nodeid": 186, "depth": 7, "split": "f1", "split_condition": -0.628338456, "yes": 315, "no": 316, "missing": 315 , "children": [
                  { "nodeid": 315, "leaf": 0.218364984 }, 
                  { "nodeid": 316, "leaf": -0.0702201873 }
                ]}
              ]}, 
              { "nodeid": 108, "depth": 6, "split": "f1", "split_condition": 0.271507949, "yes": 187, "no": 188, "missing": 187 , "children": [
                { "nodeid": 187, "leaf": -1.43615818 }, 
                { "nodeid": 188, "leaf": -0.464373022 }
              ]}
            ]}
          ]}
        ]}, 
        { "nodeid": 14, "depth": 3, "split": "f19", "split_condition": -0.597579658, "yes": 29, "no": 30, "missing": 29 , "children": [
          { "nodeid": 29, "depth": 4, "split": "f13", "split_condition": 0.47416088, "yes": 57, "no": 58, "missing": 57 , "children": [
            { "nodeid": 57, "depth": 5, "split": "f19", "split_condition": -0.619142175, "yes": 109, "no": 110, "missing": 109 , "children": [
              { "nodeid": 109, "depth": 6, "split": "f12", "split_condition": 0.498515308, "yes": 189, "no": 190, "missing": 189 , "children": [
                { "nodeid": 189, "depth": 7, "split": "f12", "split_condition": 0.490785062, "yes": 317, "no": 318, "missing": 317 , "children": [
                  { "nodeid": 317, "depth": 8, "split": "f1", "split_condition": 0.826996326, "yes": 475, "no": 476, "missing": 475 , "children": [
                    { "nodeid": 475, "depth": 9, "split": "f0", "split_condition": 0.413982332, "yes": 703, "no": 704, "missing": 703 , "children": [
                      { "nodeid": 703, "leaf": 0.0284332279 }, 
                      { "nodeid": 704, "leaf": 0.163656235 }
                    ]}, 
                    { "nodeid": 476, "leaf": -0.13299942 }
                  ]}, 
                  { "nodeid": 318, "depth": 8, "split": "f1", "split_condition": 0.723809838, "yes": 477, "no": 478, "missing": 477 , "children": [
                    { "nodeid": 477, "leaf": -0.913966775 }, 
                    { "nodeid": 478, "leaf": -0.0660308823 }
                  ]}
                ]}, 
                { "nodeid": 190, "depth": 7, "split": "f12", "split_condition": 0.513829112, "yes": 319, "no": 320, "missing": 319 , "children": [
                  { "nodeid": 319, "depth": 8, "split": "f0", "split_condition": 0.410717905, "yes": 479, "no": 480, "missing": 479 , "children": [
                    { "nodeid": 479, "leaf": 0.224201962 }, 
                    { "nodeid": 480, "leaf": 0.842425287 }
                  ]}, 
                  { "nodeid": 320, "depth": 8, "split": "f10", "split_condition": -0.592175245, "yes": 481, "no": 482, "missing": 481 , "children": [
                    { "nodeid": 481, "depth": 9, "split": "f15", "split_condition": -0.734115362, "yes": 705, "no": 706, "missing": 705 , "children": [
                      { "nodeid": 705, "leaf": 0.113842681 }, 
                      { "nodeid": 706, "leaf": -0.136264384 }
                    ]}, 
                    { "nodeid": 482, "depth": 9, "split": "f14", "split_condition": -0.925032735, "yes": 707, "no": 708, "missing": 707 , "children": [
                      { "nodeid": 707, "leaf": -0.114341334 }, 
                      { "nodeid": 708, "leaf": 0.181878611 }
                    ]}
                  ]}
                ]}
              ]}, 
              { "nodeid": 110, "depth": 6, "split": "f1", "split_condition": -0.662476778, "yes": 191, "no": 192, "missing": 191 , "children": [
                { "nodeid": 191, "leaf": -0.206682712 }, 
                { "nodeid": 192, "leaf": -0.983792603 }
              ]}
            ]}, 
            { "nodeid": 58, "depth": 5, "split": "f11", "split_condition": 0.121101372, "yes": 111, "no": 112, "missing": 111 , "children": [
              { "nodeid": 111, "depth": 6, "split": "f15", "split_condition": -0.121927142, "yes": 193, "no": 194, "missing": 193 , "children": [
                { "nodeid": 193, "depth": 7, "split": "f8", "split_condition": 0.622272134, "yes": 321, "no": 322, "missing": 321 , "children": [
                  { "nodeid": 321, "depth": 8, "split": "f13", "split_condition": 1.36321616, "yes": 483, "no": 484, "missing": 483 , "children": [
                    { "nodeid": 483, "depth": 9, "split": "f2", "split_condition": -0.362958372, "yes": 709, "no": 710, "missing": 709 , "children": [
                      { "nodeid": 709, "leaf": -0.0880645737 }, 
                      { "nodeid": 710, "leaf": -0.420601457 }
                    ]}, 
                    { "nodeid": 484, "depth": 9, "split": "f1", "split_condition": 0.586830616, "yes": 711, "no": 712, "missing": 711 , "children": [
                      { "nodeid": 711, "leaf": 0.0142635349 }, 
                      { "nodeid": 712, "leaf": -0.101886943 }
                    ]}
                  ]}, 
                  { "nodeid": 322, "depth": 8, "split": "f17", "split_condition": 0.0715885535, "yes": 485, "no": 486, "missing": 485 , "children": [
                    { "nodeid": 485, "depth": 9, "split": "f0", "split_condition": 1.02704978, "yes": 713, "no": 714, "missing": 713 , "children": [
                      { "nodeid": 713, "leaf": 0.0693328902 }, 
                      { "nodeid": 714, "leaf": 0.278984189 }
                    ]}, 
                    { "nodeid": 486, "depth": 9, "split": "f6", "split_condition": 1.70284748, "yes": 715, "no": 716, "missing": 715 , "children": [
                      { "nodeid": 715, "leaf": -0.156515256 }, 
                      { "nodeid": 716, "leaf": 0.0506067276 }
                    ]}
                  ]}
                ]}, 
                { "nodeid": 194, "depth": 7, "split": "f19", "split_condition": -1.1214056, "yes": 323, "no": 324, "missing": 323 , "children": [
                  { "nodeid": 323, "depth": 8, "split": "f3", "split_condition": 0.816894293, "yes": 487, "no": 488, "missing": 487 , "children": [
                    { "nodeid": 487, "depth": 9, "split": "f0", "split_condition": 0.585690737, "yes": 717, "no": 718, "missing": 717 , "children": [
                      { "nodeid": 717, "leaf": -0.0445861816 }, 
                      { "nodeid": 718, "leaf": -0.178264618 }
                    ]}, 
                    { "nodeid": 488, "depth": 9, "split": "f1", "split_condition": -0.226908401, "yes": 719, "no": 720, "missing": 719 , "children": [
                      { "nodeid": 719, "leaf": 0.135106415 }, 
                      { "nodeid": 720, "leaf": 0.00974426325 }
                    ]}
                  ]}, 
                  { "nodeid": 324, "depth": 8, "split": "f17", "split_condition": -1.01289308, "yes": 489, "no": 490, "missing": 489 , "children": [
                    { "nodeid": 489, "depth": 9, "split": "f3", "split_condition": 0.0979948789, "yes": 721, "no": 722, "missing": 721 , "children": [
                      { "nodeid": 721, "leaf": -0.144562528 }, 
                      { "nodeid": 722, "leaf": 0.0278549194 }
                    ]}, 
                    { "nodeid": 490, "depth": 9, "split": "f13", "split_condition": 0.828828394, "yes": 723, "no": 724, "missing": 723 , "children": [
                      { "nodeid": 723, "leaf": 0.066683881 }, 
                      { "nodeid": 724, "leaf": 0.402016133 }
                    ]}
                  ]}
                ]}
              ]}, 
              { "nodeid": 112, "depth": 6, "split": "f8", "split_condition": -0.520258486, "yes": 195, "no": 196, "missing": 195 , "children": [
                { "nodeid": 195, "depth": 7, "split": "f5", "split_condition": -0.774497926, "yes": 325, "no": 326, "missing": 325 , "children": [
                  { "nodeid": 325, "depth": 8, "split": "f0", "split_condition": 0.645528674, "yes": 491, "no": 492, "missing": 491 , "children": [
                    { "nodeid": 491, "leaf": 0.0765727982 }, 
                    { "nodeid": 492, "leaf": 0.369641513 }
                  ]}, 
                  { "nodeid": 326, "depth": 8, "split": "f8", "split_condition": -1.57986689, "yes": 493, "no": 494, "missing": 493 , "children": [
                    { "nodeid": 493, "depth": 9, "split": "f0", "split_condition": 0.944850206, "yes": 725, "no": 726, "missing": 725 , "children": [
                      { "nodeid": 725, "leaf": -0.00889282208 }, 
                      { "nodeid": 726, "leaf": 0.0920089707 }
                    ]}, 
                    { "nodeid": 494, "depth": 9, "split": "f1", "split_condition": 0.0650523975, "yes": 727, "no": 728, "missing": 727 , "children": [
                      { "nodeid": 727, "leaf": -0.0897167251 }, 
                      { "nodeid": 728, "leaf": -0.260165632 }
                    ]}
                  ]}
                ]}, 
                { "nodeid": 196, "depth": 7, "split": "f1", "split_condition": -1.12016153, "yes": 327, "no": 328, "missing": 327 , "children": [
                  { "nodeid": 327, "depth": 8, "split": "f1", "split_condition": -1.49849868, "yes": 495, "no": 496, "missing": 495 , "children": [
                    { "nodeid": 495, "leaf": 0.0626342818 }, 
                    { "nodeid": 496, "leaf": -0.142978922 }
                  ]}, 
                  { "nodeid": 328, "depth": 8, "split": "f1", "split_condition": 1.29057527, "yes": 497, "no": 498, "missing": 497 , "children": [
                    { "nodeid": 497, "depth": 9, "split": "f2", "split_condition": 1.09101355, "yes": 729, "no": 730, "missing": 729 , "children": [
                      { "nodeid": 729, "leaf": -0.730791867 }, 
                      { "nodeid": 730, "leaf": 0.0213958751 }
                    ]}, 
                    { "nodeid": 498, "depth": 9, "split": "f0", "split_condition": 0.568894327, "yes": 731, "no": 732, "missing": 731 , "children": [
                      { "nodeid": 731, "leaf": -0.159555063 }, 
                      { "nodeid": 732, "leaf": 0.0498336814 }
                    ]}
                  ]}
                ]}
              ]}
            ]}
          ]}, 
          { "nodeid": 30, "depth": 4, "split": "f3", "split_condition": -1.11380935, "yes": 59, "no": 60, "missing": 59 , "children": [
            { "nodeid": 59, "depth": 5, "split": "f1", "split_condition": 1.47814131, "yes": 113, "no": 114, "missing": 113 , "children": [
              { "nodeid": 113, "depth": 6, "split": "f6", "split_condition": -1.4309957, "yes": 197, "no": 198, "missing": 197 , "children": [
                { "nodeid": 197, "depth": 7, "split": "f2", "split_condition": -0.467411816, "yes": 329, "no": 330, "missing": 329 , "children": [
                  { "nodeid": 329, "depth": 8, "split": "f0", "split_condition": 1.39771152, "yes": 499, "no": 500, "missing": 499 , "children": [
                    { "nodeid": 499, "leaf": 0.0037397386 }, 
                    { "nodeid": 500, "leaf": 0.0576400757 }
                  ]}, 
                  { "nodeid": 330, "leaf": 0.268157452 }
                ]}, 
                { "nodeid": 198, "depth": 7, "split": "f3", "split_condition": -1.35337996, "yes": 331, "no": 332, "missing": 331 , "children": [
                  { "nodeid": 331, "depth": 8, "split": "f15", "split_condition": -0.339216173, "yes": 501, "no": 502, "missing": 501 , "children": [
                    { "nodeid": 501, "depth": 9, "split": "f10", "split_condition": -0.709139109, "yes": 733, "no": 734, "missing": 733 , "children": [
                      { "nodeid": 733, "leaf": 0.303042144 }, 
                      { "nodeid": 734, "leaf": -0.32771036 }
                    ]}, 
                    { "nodeid": 502, "depth": 9, "split": "f2", "split_condition": 0.758440733, "yes": 735, "no": 736, "missing": 735 , "children": [
                      { "nodeid": 735, "leaf": 0.189115033 }, 
                      { "nodeid": 736, "leaf": -0.185571536 }
                    ]}
                  ]}, 
                  { "nodeid": 332, "depth": 8, "split": "f15", "split_condition": 0.952879548, "yes": 503, "no": 504, "missing": 503 , "children": [
                    { "nodeid": 503, "depth": 9, "split": "f0", "split_condition": 0.481675386, "yes": 737, "no": 738, "missing": 737 , "children": [
                      { "nodeid": 737, "leaf": -0.502604067 }, 
                      { "nodeid": 738, "leaf": -0.100174844 }
                    ]}, 
                    { "nodeid": 504, "depth": 9, "split": "f5", "split_condition": 0.527186394, "yes": 739, "no": 740, "missing": 739 , "children": [
                      { "nodeid": 739, "leaf": -0.680236459 }, 
                      { "nodeid": 740, "leaf": -0.127585858 }
                    ]}
                  ]}
                ]}
              ]}, 
              { "nodeid": 114, "depth": 6, "split": "f1", "split_condition": 1.64410973, "yes": 199, "no": 200, "missing": 199 , "children": [
                { "nodeid": 199, "leaf": 0.63923645 }, 
                { "nodeid": 200, "depth": 7, "split": "f0", "split_condition": 1.03255403, "yes": 333, "no": 334, "missing": 333 , "children": [
                  { "nodeid": 333, "leaf": 0.107674025 }, 
                  { "nodeid": 334, "leaf": -0.0335937515 }
                ]}
              ]}
            ]}, 
            { "nodeid": 60, "depth": 5, "split": "f17", "split_condition": -0.471048772, "yes": 115, "no": 116, "missing": 115 , "children": [
              { "nodeid": 115, "depth": 6, "split": "f3", "split_condition": -0.968783736, "yes": 201, "no": 202, "missing": 201 , "children": [
                { "nodeid": 201, "depth": 7, "split": "f14", "split_condition": -0.691255927, "yes": 335, "no": 336, "missing": 335 , "children": [
                  { "nodeid": 335, "leaf": 1.36882758 }, 
                  { "nodeid": 336, "depth": 8, "split": "f15", "split_condition": -0.274893403, "yes": 505, "no": 506, "missing": 505 , "children": [
                    { "nodeid": 505, "leaf": -0.13638255 }, 
                    { "nodeid": 506, "depth": 9, "split": "f2", "split_condition": 0.410648346, "yes": 741, "no": 742, "missing": 741 , "children": [
                      { "nodeid": 741, "leaf": 0.385482997 }, 
                      { "nodeid": 742, "leaf": 0.120149232 }
                    ]}
                  ]}
                ]}, 
                { "nodeid": 202, "depth": 7, "split": "f9", "split_condition": -0.493155956, "yes": 337, "no": 338, "missing": 337 , "children": [
                  { "nodeid": 337, "depth": 8, "split": "f9", "split_condition": -0.617591918, "yes": 507, "no": 508, "missing": 507 , "children": [
                    { "nodeid": 507, "depth": 9, "split": "f0", "split_condition": 1.80451107, "yes": 743, "no": 744, "missing": 743 , "children": [
                      { "nodeid": 743, "leaf": -0.156938121 }, 
                      { "nodeid": 744, "leaf": 0.343286455 }
                    ]}, 
                    { "nodeid": 508, "depth": 9, "split": "f2", "split_condition": 0.371435761, "yes": 745, "no": 746, "missing": 745 , "children": [
                      { "nodeid": 745, "leaf": -0.761160016 }, 
                      { "nodeid": 746, "leaf": 0.410043329 }
                    ]}
                  ]}, 
                  { "nodeid": 338, "depth": 8, "split": "f5", "split_condition": 0.590078831, "yes": 509, "no": 510, "missing": 509 , "children": [
                    { "nodeid": 509, "depth": 9, "split": "f1", "split_condition": 1.39239764, "yes": 747, "no": 748, "missing": 747 , "children": [
                      { "nodeid": 747, "leaf": 0.185701504 }, 
                      { "nodeid": 748, "leaf": -0.307007223 }
                    ]}, 
                    { "nodeid": 510, "depth": 9, "split": "f11", "split_condition": -0.937182426, "yes": 749, "no": 750, "missing": 749 , "children": [
                      { "nodeid": 749, "leaf": 0.300753921 }, 
                      { "nodeid": 750, "leaf": -0.245375872 }
                    ]}
                  ]}
                ]}
              ]}, 
              { "nodeid": 116, "depth": 6, "split": "f17", "split_condition": 1.18995702, "yes": 203, "no": 204, "missing": 203 , "children": [
                { "nodeid": 203, "depth": 7, "split": "f19", "split_condition": 0.49647218, "yes": 339, "no": 340, "missing": 339 , "children": [
                  { "nodeid": 339, "depth": 8, "split": "f5", "split_condition": -0.538347483, "yes": 511, "no": 512, "missing": 511 , "children": [
                    { "nodeid": 511, "depth": 9, "split": "f0", "split_condition": 0.898912549, "yes": 751, "no": 752, "missing": 751 , "children": [
                      { "nodeid": 751, "leaf": 0.241586119 }, 
                      { "nodeid": 752, "leaf": -0.177399322 }
                    ]}, 
                    { "nodeid": 512, "depth": 9, "split": "f0", "split_condition": 0.685195625, "yes": 753, "no": 754, "missing": 753 , "children": [
                      { "nodeid": 753, "leaf": 0.122871757 }, 
                      { "nodeid": 754, "leaf": 0.565608561 }
                    ]}
                  ]}, 
                  { "nodeid": 340, "depth": 8, "split": "f19", "split_condition": 0.889264226, "yes": 513, "no": 514, "missing": 513 , "children": [
                    { "nodeid": 513, "depth": 9, "split": "f2", "split_condition": 0.728333473, "yes": 755, "no": 756, "missing": 755 , "children": [
                      { "nodeid": 755, "leaf": 0.0560521185 }, 
                      { "nodeid": 756, "leaf": -0.311584175 }
                    ]}, 
                    { "nodeid": 514, "depth": 9, "split": "f15", "split_condition": 1.30136681, "yes": 757, "no": 758, "missing": 757 , "children": [
                      { "nodeid": 757, "leaf": 0.265366197 }, 
                      { "nodeid": 758, "leaf": -0.117164038 }
                    ]}
                  ]}
                ]}, 
                { "nodeid": 204, "depth": 7, "split": "f10", "split_condition": 0.0523534529, "yes": 341, "no": 342, "missing": 341 , "children": [
                  { "nodeid": 341, "depth": 8, "split": "f19", "split_condition": 0.457954496, "yes": 515, "no": 516, "missing": 515 , "children": [
                    { "nodeid": 515, "depth": 9, "split": "f3", "split_condition": -3.30209732e-05, "yes": 759, "no": 760, "missing": 759 , "children": [
                      { "nodeid": 759, "leaf": 0.116619147 }, 
                      { "nodeid": 760, "leaf": 0.518685222 }
                    ]}, 
                    { "nodeid": 516, "depth": 9, "split": "f0", "split_condition": 1.27630424, "yes": 761, "no": 762, "missing": 761 , "children": [
                      { "nodeid": 761, "leaf": 0.0761708617 }, 
                      { "nodeid": 762, "leaf": -0.264711082 }
                    ]}
                  ]}, 
                  { "nodeid": 342, "depth": 8, "split": "f10", "split_condition": 0.101789869, "yes": 517, "no": 518, "missing": 517 , "children": [
                    { "nodeid": 517, "leaf": -1.19380951 }, 
                    { "nodeid": 518, "depth": 9, "split": "f15", "split_condition": 1.45261621, "yes": 763, "no": 764, "missing": 763 , "children": [
                      { "nodeid": 763, "leaf": -0.193548724 }, 
                      { "nodeid": 764, "leaf": 0.378916621 }
                    ]}
                  ]}
                ]}
              ]}
            ]}
          ]}
        ]}
      ]}
    ]}
  ]}